382 50
8a8383456788d6e00167a1ac5a2a4000 -2.998113 -2.482775 0.089033 -0.558954 -0.964416 -1.904124 1.265824 -0.201106 -0.250763 0.013891 -0.161277 0.497430 -0.228936 -0.123733 -0.089675 0.096871 -0.196996 -0.071333 0.023396 -0.021578 0.059547 0.015137 0.055510 -0.055542 -0.045072 -0.063104 0.038564 -0.015611 0.037077 0.012586 0.056524 -0.011047 0.047570 -0.081677 0.061421 0.052651 -0.033014 0.047623 0.027227 -0.096010 0.028670 0.044796 -0.046610 -0.045405 -0.012917 0.092045 0.075056 0.062297 -0.013642 0.018904 -0.046405 -0.066088 -0.060599 -0.015377 0.068136 -0.015435 -0.080813 -0.033352 0.009064 0.060076 0.010472 0.027128 0.033787 0.000610 0.041450 0.027714 -0.015245 -0.057085 -0.045194 0.041909 -0.027732 -0.004967 0.056996 0.010706 -0.025298 0.016141 -0.021809 -0.010545 -0.038573 -0.041525 -0.038780 0.035529 -0.006277 -0.028255 -0.033067 -0.046908 -0.017090 0.030106 -0.005345 -0.040942 -0.013221 0.000843 -0.015665 0.004950 -0.002921 0.036625 0.012071 -0.027219 -0.003388 -0.018403
8a8383456788d6e00167a1ac8e8d400c -2.941059 -2.486084 -0.183522 -0.173054 -1.321558 -1.875758 1.328084 -0.591210 0.124818 0.571522 -0.091590 0.613913 -0.140063 -0.254811 -0.165101 0.082439 -0.042436 -0.043720 0.018663 -0.061009 -0.076825 0.014773 -0.018757 -0.057899 0.035542 -0.019585 0.021568 -0.020994 -0.033910 -0.023836 -0.002079 -0.014784 -0.005813 -0.044576 0.060725 -0.054840 0.022722 0.021007 0.040685 -0.095655 -0.034395 -0.019180 0.021351 0.114356 0.003120 0.039247 -0.001233 -0.040013 0.012898 -0.018308 -0.004572 0.042226 0.019317 -0.119461 -0.031367 -0.035931 0.059075 -0.000243 -0.045996 0.016573 0.064926 -0.011619 0.011777 -0.034451 0.051123 0.022886 0.048239 0.020770 0.035083 0.022479 -0.014111 -0.022675 -0.079065 0.019426 0.042515 -0.027605 0.014347 -0.011931 -0.015497 0.046677 0.034868 0.029722 -0.037561 0.060009 0.023324 -0.039260 -0.077378 -0.021064 -0.005289 0.043965 0.071035 0.021031 -0.021193 -0.077694 -0.018342 -0.029195 -0.044315 -0.036782 -0.032855 0.000910
8a8383456788d6e00167a1acc34b404f -3.083383 -2.536673 1.346006 -0.971900 -1.576364 -1.002952 -0.223127 0.214374 -0.913883 -0.458040 -0.103633 0.372885 -0.223176 -0.001356 -0.257128 -0.070873 -0.004444 -0.085365 -0.025535 -0.148643 -0.031064 0.089292 0.036419 -0.038119 -0.026371 0.004988 -0.046545 0.027024 -0.035988 -0.081073 0.034135 0.040016 -0.031066 0.000410 0.066030 0.002808 0.030310 0.039002 -0.009631 -0.019015 0.013566 0.005818 0.034140 0.005763 -0.009641 0.086862 0.012716 0.009373 -0.048254 0.031514 0.018821 0.012998 -0.013078 -0.054702 -0.056128 0.009986 0.005211 0.028023 0.008700 0.036126 0.004364 0.066327 0.035695 -0.059322 -0.028337 0.034234 0.025179 -0.032325 -0.021425 -0.034437 -0.026053 -0.003867 0.016856 -0.005106 -0.000163 -0.005690 -0.015885 0.022716 0.013835 -0.027173 -0.000270 -0.002732 0.001246 0.015419 0.030265 -0.035630 0.014952 -0.028923 -0.038275 -0.015477 -0.015540 -0.003458 0.016507 -0.004796 -0.008351 -0.005250 -0.000633 -0.038965 0.025670 -0.017625
8a8383456788d6e00167a1acf7004062 -3.196529 -2.662711 2.729642 -1.228024 -0.142510 0.327043 1.132692 -0.978956 -0.085508 -0.250488 0.057882 0.261838 0.116678 0.047519 -0.119984 0.035048 -0.032634 -0.102592 -0.077980 -0.074330 0.035890 0.023056 0.013735 -0.044281 -0.057124 -0.024846 -0.058755 0.135051 -0.017830 -0.044485 -0.020837 0.095379 -0.004470 -0.075840 0.033835 0.019515 0.020923 0.044399 0.022230 0.001363 0.026766 0.023903 0.070176 -0.002714 0.005530 0.049776 -0.023803 -0.006468 -0.034024 0.028119 -0.000578 0.029394 -0.035034 -0.040897 -0.024939 0.049865 0.042080 -0.011686 -0.010885 0.068683 0.023673 0.077716 -0.019690 -0.006022 0.055719 -0.004844 -0.006474 -0.013281 -0.048688 0.028438 -0.021305 0.014636 -0.026579 0.000232 0.025238 0.003400 -0.018624 0.025634 0.009134 -0.025287 0.006575 -0.030869 0.027238 -0.004989 0.006854 0.016022 -0.014819 -0.022588 0.001664 -0.065540 -0.011908 -0.003570 0.039521 0.014819 -0.000691 -0.017381 -0.037646 -0.015827 0.000114 0.014596
8a8383456788d6e00167a1ad2814407f -3.167660 -2.616917 2.316239 -1.295393 -0.462331 -0.290462 0.689950 -0.645548 -0.219763 -0.234292 -0.002152 0.330930 0.025811 0.012028 -0.180765 -0.033658 0.062683 -0.058494 0.009703 -0.025724 0.017633 0.036973 0.042536 -0.071763 0.051785 0.001107 -0.023495 0.045791 -0.050977 -0.045345 0.035063 0.042430 0.012890 -0.037152 0.029248 0.011992 -0.001935 0.012649 0.015306 -0.039286 0.002337 -0.009982 0.017439 0.011737 -0.011455 0.019417 -0.003778 -0.033654 -0.024223 0.018779 -0.001065 0.016987 0.027544 -0.029427 -0.042050 -0.007659 -0.038676 0.004264 -0.018735 0.024300 0.019484 0.015527 -0.011533 -0.037774 0.004738 0.017257 -0.002654 -0.002088 -0.014229 -0.004332 -0.003541 0.020375 -0.002398 0.015851 0.026177 0.017303 0.013698 0.025574 0.005511 0.016278 0.007825 0.009203 -0.023869 -0.006577 -0.024510 0.003144 -0.007757 -0.013009 -0.006691 -0.018347 0.008471 0.014840 0.027890 0.018044 -0.018953 0.019633 -0.017663 0.021868 -0.010994 -0.029944
8a8383456788d6e00167a1ad56b64083 -3.038491 -2.970029 3.668920 1.675288 1.505142 -0.775483 -0.409299 -1.951172 -0.309145 -0.372888 0.005418 -0.683043 -1.564194 0.288795 1.093678 -0.105237 0.018044 -0.058641 0.068227 0.069855 -0.014799 -0.063617 -0.124253 -0.034031 -0.069632 0.014521 -0.069611 0.112272 0.010809 -0.057506 0.052943 0.052010 0.006724 -0.022799 0.023083 -0.038849 -0.074247 0.008488 0.104739 -0.073394 0.043744 -0.003022 -0.039964 0.034223 0.031953 0.028703 -0.037276 -0.021891 0.009583 0.015581 0.028258 -0.009267 -0.030451 -0.082030 -0.029054 -0.005526 -0.003841 0.043382 0.023949 0.051764 -0.048984 -0.008104 0.021490 0.027166 0.046863 -0.035436 0.051157 0.031158 0.001564 0.020070 -0.006787 -0.022980 0.019024 -0.007908 -0.064969 -0.010802 -0.052659 0.024252 -0.074118 -0.016048 0.010305 -0.003016 0.043234 -0.019704 -0.031080 0.018139 -0.002382 -0.028294 0.028300 -0.021160 -0.037353 0.023666 -0.019007 0.049230 -0.020925 0.029068 0.029634 0.000746 -0.009446 0.015365
8a8383456788d6e00167a1ad8c104099 -3.065741 -2.906227 3.424896 1.044091 0.958958 -0.797216 -0.043728 -1.773575 -0.125254 -0.630177 0.699814 -1.217405 -0.133884 0.481120 0.758127 -0.035126 -0.022346 0.037883 0.081998 -0.054907 -0.003866 0.034586 -0.037226 -0.042007 -0.014606 -0.025670 -0.069910 0.044986 -0.021911 0.028108 0.041458 0.102206 0.085189 -0.010649 -0.000027 -0.038574 -0.006779 0.038613 0.091134 -0.108195 -0.008504 -0.044240 -0.015384 0.006225 0.070477 0.067604 -0.007243 -0.036331 0.009759 0.006182 -0.045186 0.005156 -0.020584 0.003591 -0.008102 0.086878 -0.013580 0.026999 -0.006527 0.028565 -0.037998 -0.039886 -0.010716 -0.012369 -0.046568 0.029425 -0.033681 0.017647 -0.075489 -0.026862 -0.009457 -0.031598 -0.057413 -0.004798 -0.004034 -0.013196 -0.007323 0.034373 0.017902 0.021597 -0.052030 0.067390 -0.021178 0.014859 0.058376 -0.009707 0.005093 0.016665 -0.052081 0.073680 -0.008382 -0.001483 0.027085 0.017540 -0.031450 -0.030737 0.064983 0.001945 -0.025728 0.054293
8a8383456788d6e00167a1adf7d640b4 -3.196861 -2.662966 2.734618 -1.229645 -0.147411 0.334035 1.126863 -0.977036 -0.082796 -0.257733 0.053435 0.263920 0.118119 0.049830 -0.126076 0.026568 -0.005968 -0.126414 -0.005043 -0.053643 0.048625 0.029952 0.020158 -0.034425 0.005547 -0.055889 -0.055193 0.078806 -0.083851 -0.013506 0.060866 0.009185 0.022490 -0.052674 0.030582 -0.005719 -0.028504 0.088562 0.042209 -0.009398 -0.062336 0.014450 0.038565 0.011573 0.035142 0.064958 -0.016698 -0.028430 -0.057597 -0.047274 0.011033 0.031287 -0.049126 -0.018586 0.022756 -0.001872 -0.009677 0.015481 -0.016069 -0.005612 0.018590 0.039922 -0.064431 -0.009778 0.007212 0.034626 0.032150 -0.017199 -0.018703 0.003951 -0.053846 0.014621 0.037207 0.022626 0.007271 0.019566 0.047902 0.028545 0.024241 0.000796 0.020290 -0.008247 -0.024827 -0.058356 -0.006915 -0.008301 0.001580 -0.012945 -0.011377 0.011112 -0.005502 0.012372 -0.019781 0.015031 -0.051896 -0.006726 -0.003672 0.021386 -0.005973 -0.013259
8a8383456788d6e00167a1ae468d40c2 -3.015494 -3.072201 4.326865 2.856384 1.948293 -1.121328 -0.539060 -0.845807 0.164272 0.146164 -0.295420 -1.556048 -1.069594 0.465669 0.998832 -0.012305 -0.100624 -0.020731 -0.029782 0.090795 0.056518 0.038814 -0.141321 -0.065691 0.051067 -0.030753 -0.111627 -0.048972 0.013158 -0.019353 0.039749 0.034879 0.049598 0.001727 0.066407 0.023639 0.041385 0.005523 0.106454 -0.052473 0.010765 0.032626 -0.032844 0.026809 0.007333 0.021483 0.035483 -0.008292 -0.053292 -0.025849 -0.043382 0.001816 0.015242 -0.017528 0.022974 -0.045612 -0.052794 0.011574 -0.018883 0.017389 -0.024563 -0.013849 0.004394 -0.027234 -0.027930 -0.018925 0.015985 -0.035920 0.011682 0.019680 0.024532 0.020916 0.010936 0.018096 -0.004557 0.021056 0.038444 -0.027306 0.008816 0.015897 -0.026450 -0.002472 0.046117 0.007977 0.028402 0.047905 -0.056272 0.022908 -0.051182 0.010352 -0.003392 0.015276 0.033934 0.016582 0.020245 -0.007258 -0.014030 0.035214 0.034326 -0.042255
8a838345673ec61901673ece37410055 -2.997681 -2.608723 1.011911 -0.078385 -0.695532 -0.232399 -0.469056 -0.784395 -0.757424 -0.057797 1.332929 -0.046581 0.058967 -1.089186 -0.073260 -0.061163 -0.035415 -0.114204 0.000233 -0.048960 -0.029862 0.039517 -0.031458 -0.025672 -0.039210 0.076907 -0.038782 -0.002913 0.008699 -0.068382 0.002728 0.062129 0.012033 0.089715 -0.058039 -0.006333 0.080254 0.072695 -0.000407 0.025760 -0.041932 -0.022947 -0.062455 -0.034619 -0.046887 -0.021538 0.028160 0.016233 0.014011 -0.034592 -0.000622 0.057948 0.002575 0.050709 -0.043299 0.007019 0.051938 0.002628 -0.037345 -0.085219 0.039123 -0.002156 -0.002212 -0.025480 0.053197 -0.013019 -0.005603 -0.004429 -0.041751 -0.028069 -0.042221 -0.038451 -0.011863 0.019263 0.003882 -0.014364 -0.020994 -0.009315 0.027169 -0.030240 -0.007059 0.002700 0.019687 -0.002703 -0.015854 -0.038760 0.040609 0.031011 -0.019815 0.043270 0.040275 -0.020033 0.027715 0.000770 -0.027315 -0.028553 -0.014321 0.000287 0.022034 -0.018180
8a838345673ec61901673ecec7a4006b -2.997415 -2.608178 1.009131 -0.086049 -0.692892 -0.226558 -0.493473 -0.785497 -0.763478 -0.066489 1.324139 -0.041178 0.063724 -1.083219 -0.075742 -0.066006 -0.006618 -0.061521 0.079267 -0.030438 0.134891 0.028494 -0.046654 -0.017378 -0.025529 0.067895 -0.012482 -0.019280 -0.021761 -0.074564 0.020087 0.076412 0.005598 0.093618 -0.047800 -0.000560 0.055876 0.074970 0.007671 0.015375 -0.038081 -0.025187 -0.043074 0.009181 -0.083824 -0.046348 0.004031 0.009970 0.018634 -0.016563 -0.005244 0.072699 0.024557 0.063515 -0.000560 -0.022311 0.025708 0.004685 -0.059510 -0.049083 0.020006 0.022839 -0.024011 0.005507 0.018922 -0.034557 -0.005134 -0.004734 -0.012492 -0.028086 -0.021941 -0.013363 -0.035166 0.007754 0.003204 0.015306 0.008915 -0.031776 0.034135 -0.042625 0.013199 -0.001231 0.011124 0.004099 -0.014514 -0.024040 0.039718 0.034251 -0.016841 0.055598 0.032017 -0.002736 0.035068 -0.017550 -0.058069 -0.024036 0.010629 -0.008302 0.032960 -0.003484
8a838345673ec61901673ecf2740007e -3.092034 -2.671865 1.874317 -0.561343 0.717746 -0.352048 -0.179928 -1.118923 -0.822337 -0.481860 1.940450 -0.304038 0.147677 -1.490858 0.083076 -0.157790 0.069634 -0.114723 -0.024840 0.023515 -0.054632 0.004326 -0.085775 -0.014879 -0.011232 0.069250 -0.077568 0.026025 -0.010517 -0.077800 0.024786 0.042566 0.052603 0.056929 -0.082654 0.017045 0.105131 0.044692 -0.030133 -0.032682 -0.046221 -0.048136 -0.037874 0.000613 -0.037137 0.014109 0.021609 -0.019268 0.054609 0.013240 0.040689 0.021572 -0.005424 -0.015056 0.005276 -0.031464 0.019343 0.010520 -0.003732 -0.049826 -0.014378 -0.002063 0.008613 0.043721 0.044110 -0.004448 0.017628 -0.005692 -0.014784 -0.003185 0.020713 -0.069517 -0.062419 0.059945 0.008309 -0.023017 -0.053009 0.002735 0.006011 -0.052044 -0.016605 -0.039130 0.039385 -0.010811 0.001441 -0.019167 -0.019179 0.015255 -0.006585 0.000754 0.009548 -0.019675 0.019260 0.050635 0.028998 -0.011348 -0.016731 -0.014582 -0.008530 0.016847
8a838345673ec61901673ecd4877002d -2.761606 -2.349335 -2.855414 0.533079 -0.538418 -0.179437 0.726222 -0.386200 0.545405 0.977833 0.025148 0.127660 -0.019547 -0.195047 0.045754 0.226751 -0.236950 -0.025943 -0.088519 -0.107108 0.111183 0.074769 -0.024705 0.017842 -0.024858 -0.035753 0.040076 0.025853 0.055574 0.025643 -0.086964 0.053543 -0.026943 0.036439 0.008009 0.043862 0.272864 0.088347 0.099872 -0.097242 -0.031906 -0.069088 -0.090600 -0.004138 -0.044064 0.066137 -0.025638 -0.029116 0.008922 0.045469 -0.044334 0.055855 -0.074606 0.047794 0.033759 0.028080 0.077318 -0.043847 -0.011277 -0.062616 -0.038770 -0.035496 -0.026928 0.055963 0.060963 0.056698 0.028117 0.035995 0.011141 -0.003267 -0.045482 0.013220 0.057047 0.048560 0.018740 -0.023708 0.010247 -0.006169 0.030472 0.042405 0.081739 -0.017741 -0.006499 0.053414 -0.006159 -0.007982 0.015073 -0.005103 0.050507 0.010563 -0.030688 0.015346 -0.020865 0.010836 0.062523 0.016950 -0.000757 0.010622 0.091208 0.033074
8a838345673ec61901673ecddb630041 -3.080325 -2.596043 1.415014 -0.891001 0.144413 -0.794812 -0.472084 -0.588326 -0.710805 -0.348026 1.270989 -0.064283 0.026225 -1.016963 -0.024304 -0.055659 -0.121538 -0.137113 -0.008786 0.053320 0.028030 0.010934 -0.056597 -0.016053 0.000615 0.093292 -0.048589 -0.000019 0.044727 0.006477 -0.023368 0.033980 -0.007899 0.078744 -0.002604 0.017944 0.054547 0.052905 0.061335 -0.028349 -0.043759 0.027389 -0.051939 -0.013400 0.014626 0.040231 -0.040099 0.027436 -0.024537 -0.011640 0.003014 0.048700 -0.066016 0.015228 0.042751 0.024280 -0.018754 -0.055835 0.004181 -0.022891 0.001133 -0.054281 -0.011084 0.049860 -0.002620 0.031465 -0.045195 0.012103 0.004318 0.017076 0.003784 -0.019525 0.013654 0.040014 0.019372 -0.007482 0.041248 0.031049 -0.012915 0.000600 0.012763 0.012448 0.018219 0.006958 -0.046163 -0.028985 -0.020964 0.037611 -0.010539 0.028604 -0.019976 -0.013094 -0.015306 -0.020548 0.020404 0.090199 0.023219 -0.012544 0.026996 -0.011243
8a838345673ec61901673ecf738f008e -2.986322 -2.536938 -0.216014 -0.273348 1.366378 -0.934313 0.345165 -0.519979 -0.909640 -0.706080 1.779345 -0.488580 -0.040231 -1.425901 0.298585 -0.080510 -0.083521 -0.125139 0.019334 0.049315 -0.036311 0.030320 -0.075430 0.008098 -0.001265 0.129735 0.032852 0.017971 0.064555 -0.069543 0.008383 0.080958 -0.051426 0.050678 -0.021091 0.054464 0.068708 0.081130 0.074571 0.043925 -0.006626 -0.021162 -0.095992 -0.042931 -0.018256 -0.003284 -0.005554 0.056538 0.083090 0.000785 0.009625 0.017603 -0.079525 0.069344 0.084274 0.018786 -0.062394 -0.006458 0.036330 0.019963 0.018657 -0.016004 0.071747 -0.050070 0.032355 -0.017802 -0.020359 -0.001377 0.052455 0.036119 0.045570 -0.029304 0.024530 0.023648 -0.012297 -0.036230 0.010722 0.029525 -0.046295 0.041584 0.015719 -0.065406 -0.062517 0.032888 0.051869 0.003639 0.019598 -0.040570 -0.011844 0.041809 -0.033630 -0.017979 0.002491 -0.028105 0.043889 -0.030357 -0.010410 0.033018 -0.055221 -0.046670
8a838345676994a101677d6d809010af -3.016798 -2.628477 1.014216 0.440701 2.315109 0.283084 -0.091597 1.305146 -0.113334 0.945699 1.469996 -0.962997 0.725474 -0.482499 0.008484 -0.064520 0.020587 -0.077499 0.063035 0.095101 -0.005644 -0.072021 -0.034231 -0.021355 -0.042828 -0.070656 -0.050168 -0.046516 0.023439 0.000143 0.037748 -0.076187 -0.088121 -0.051504 -0.058882 -0.052849 0.013861 -0.046163 0.029046 0.021271 -0.011750 0.052451 -0.031837 -0.093263 0.003173 0.021934 0.074693 -0.027460 -0.009219 0.070360 0.067503 0.031328 0.021721 -0.039010 0.048047 0.026739 0.031990 -0.020282 0.012147 -0.024401 -0.017120 0.046846 0.027443 0.043344 -0.048626 -0.015807 -0.024654 0.029247 0.013374 0.021310 -0.034418 -0.024062 -0.002577 -0.052863 0.004349 0.013558 -0.016914 -0.005824 0.005681 0.003641 -0.000962 0.062127 0.016282 -0.019676 -0.016503 -0.015688 -0.009299 0.008375 -0.010872 0.021650 -0.003510 0.034923 0.014111 0.008034 0.004235 -0.015970 -0.011351 0.010233 -0.013612 0.000233
8a838345676994a101677d6db31710b3 -3.052703 -2.566052 0.929585 -0.111821 1.839881 0.636031 0.216385 1.700587 0.400625 1.172349 0.211913 -0.637611 0.681311 0.538104 -0.128354 0.054052 -0.078430 -0.150044 0.085420 -0.074484 0.008307 -0.052149 -0.056704 -0.009869 -0.034129 -0.006772 0.002746 -0.040493 0.013647 0.034990 0.004031 -0.035814 -0.017203 -0.039478 -0.005416 0.038299 0.072279 -0.049331 -0.005196 -0.012693 -0.041804 0.041233 -0.022676 -0.032072 -0.031425 0.004836 0.068896 -0.006959 -0.025036 0.094052 0.013471 0.043120 0.037686 -0.013463 0.065965 0.004690 -0.007113 0.005067 0.009033 -0.033960 -0.016754 0.014793 -0.061071 -0.022399 0.016650 0.007342 0.009195 -0.034196 -0.034634 -0.036195 0.020030 0.040886 -0.009072 -0.018809 0.020336 0.005090 -0.048785 0.022505 -0.024158 -0.001944 0.022214 -0.016769 0.006768 -0.016006 -0.007519 -0.007546 -0.031992 -0.010682 -0.013506 -0.025528 -0.008069 0.030404 0.041092 -0.020292 -0.066634 0.013456 -0.021423 0.005236 0.009473 0.021004
8a838345676994a101677d6dd31710b7 -3.079331 -2.588897 1.470687 -0.346538 1.583099 0.829706 -0.474207 1.621206 0.473824 1.350089 0.299648 -0.584348 0.748445 0.495594 -0.216870 0.070586 -0.131382 -0.053264 -0.043753 -0.063337 -0.014309 -0.005077 -0.103097 -0.006612 -0.090241 -0.009177 0.029430 -0.078265 -0.058091 0.030741 0.026478 -0.052252 -0.021974 -0.041390 -0.040626 0.045854 0.026931 -0.041493 0.000016 -0.003091 -0.000529 -0.004630 -0.014174 -0.006264 -0.012676 0.020283 0.060722 0.028581 -0.002847 0.074771 0.059451 0.055264 0.045399 -0.000936 0.063339 -0.009068 0.071594 -0.017409 0.007357 -0.046346 -0.016988 -0.021669 -0.002012 0.043888 -0.000606 0.037138 -0.029083 -0.026227 0.013707 -0.043432 -0.025576 0.008726 0.002473 -0.047545 -0.000442 -0.010321 -0.019109 -0.004857 -0.028865 -0.006258 -0.002756 -0.014059 -0.008779 0.032126 -0.023674 -0.018776 -0.039524 0.022072 0.011398 0.027501 -0.003017 -0.004859 0.036050 0.009374 0.013859 -0.020529 0.018872 -0.020473 -0.026606 -0.005235
8a838345676994a101677d6dfd2c10bb -3.079102 -2.588175 1.478614 -0.347269 1.574472 0.819645 -0.481886 1.615892 0.479112 1.348890 0.297229 -0.589824 0.749523 0.501196 -0.233146 0.032850 -0.064436 -0.020587 -0.061803 0.062056 -0.023970 -0.020241 -0.001063 -0.022532 -0.030700 -0.100644 -0.011712 -0.082835 -0.046464 0.036647 0.031567 -0.067086 -0.033639 -0.074961 -0.068785 -0.033352 0.021211 -0.002498 0.052842 -0.020337 -0.002881 0.035751 -0.043082 -0.060203 0.013195 -0.018573 0.024762 0.009995 -0.046881 0.053911 0.020473 0.090981 0.004513 -0.047286 0.125422 0.010920 0.037520 0.012568 0.016339 -0.057247 -0.043967 0.020645 -0.002247 -0.012479 0.011332 0.046094 0.002782 -0.028101 -0.029370 0.019873 -0.033045 0.012300 0.001003 -0.028591 0.045098 0.034327 -0.007930 0.004599 0.016494 0.015255 -0.000856 -0.003525 0.016800 0.039930 -0.002592 -0.029185 -0.040243 0.028937 0.020388 -0.012526 -0.015541 0.003943 -0.007013 -0.015864 0.012514 -0.013499 0.018858 0.019862 0.005998 -0.017886
8a838345676994a101677d6e278510bf -3.117996 -2.779733 3.096653 0.494727 1.480267 0.219000 0.506825 0.679186 -0.273734 0.907640 1.518616 -0.660904 0.783221 -0.554168 -0.104523 -0.069694 0.038987 -0.029030 0.014830 -0.094038 0.079179 -0.051326 -0.053557 0.001907 -0.036062 -0.040496 -0.017109 -0.024145 -0.006235 -0.011539 0.052974 -0.055718 -0.094788 -0.031469 0.036470 -0.009140 0.032958 -0.078721 -0.044090 -0.038702 -0.002111 0.064683 0.000021 -0.082413 0.025594 -0.026361 0.036002 -0.005674 -0.017195 0.092751 0.047661 -0.034555 0.036001 -0.015904 0.100489 0.018147 0.038044 -0.003433 0.011782 -0.020997 -0.014978 -0.049275 -0.003084 0.023560 0.003440 -0.011621 -0.006215 -0.024804 0.021353 0.033186 0.025622 0.003018 -0.016232 -0.038616 0.004959 0.009357 -0.013112 0.033887 0.008165 0.032660 -0.003450 0.047813 -0.009677 -0.030123 -0.028553 0.017760 0.028642 -0.043941 0.049082 -0.009962 0.060125 0.027867 -0.005330 -0.002185 -0.038118 0.020374 0.016639 -0.029606 -0.009436 -0.013944
8a838345673ec61901673ecc5ea40011 6.785298 0.279361 -1.858190 -0.295282 -0.050117 -0.117471 0.834234 0.121780 0.187994 0.218673 -0.154733 -0.064440 -0.121878 -0.177107 0.121479 0.137565 -0.305431 0.042080 0.038388 -0.165668 0.004105 -0.087695 0.059335 0.033515 0.024689 0.017036 -0.049496 0.016925 0.010788 0.016568 -0.013963 -0.016773 -0.042662 -0.049829 0.044245 -0.064351 -0.080245 0.111158 -0.002311 -0.026704 -0.020623 0.001723 0.008899 0.024691 -0.074280 0.017050 0.020480 -0.006171 -0.007253 -0.040846 0.030467 -0.035093 -0.022002 0.020077 0.062203 -0.037020 -0.019290 0.048973 -0.005786 -0.030349 0.013449 -0.025989 -0.011518 -0.036976 -0.057193 0.032245 -0.006481 -0.003036 0.054537 -0.033292 -0.007303 0.008134 -0.011107 0.007454 0.008115 -0.019967 -0.033733 0.008706 -0.036489 0.003697 -0.029251 0.009235 0.010132 -0.004984 -0.037951 0.037515 0.004203 -0.032609 0.007408 0.016280 -0.022581 -0.014266 0.007667 -0.005504 0.040729 -0.002829 -0.006047 0.000186 0.015161 0.003685
8a838345673ec61901673eccbd2d0019 6.728339 0.282879 -1.579499 -0.674822 0.313893 -0.162360 0.786545 0.506237 -0.172390 -0.335317 -0.232333 -0.190918 -0.206116 -0.044397 0.169739 0.082712 -0.288275 0.020538 -0.025816 -0.102914 -0.027084 -0.085784 0.085178 0.013363 0.024557 -0.006605 -0.012277 0.014758 0.018301 0.018567 -0.015776 -0.027976 0.031946 -0.065382 0.029261 -0.053194 -0.038510 0.117339 0.039076 -0.025739 -0.044532 0.035764 0.056537 0.003347 -0.048769 -0.011837 0.038170 -0.003010 0.020590 -0.036612 0.031233 -0.045457 -0.059030 0.015444 0.060179 -0.015742 -0.027502 0.029438 -0.016662 -0.025821 -0.001843 0.002496 -0.005987 -0.003104 -0.046025 0.004202 -0.021860 -0.028162 0.071460 -0.027843 0.007859 0.022082 -0.027438 -0.003243 0.011800 -0.052038 -0.019003 -0.022373 -0.006288 0.003419 -0.026513 0.007223 0.013549 -0.040087 -0.020756 0.037911 0.029605 -0.023912 -0.009074 0.040237 -0.029841 -0.012505 0.003315 -0.001793 0.028899 -0.008350 -0.029849 -0.016808 0.053335 0.004872
8a838345673ec61901673ecd2da00029 6.671973 0.286545 -1.307079 -1.057469 0.690870 -0.196155 0.730009 0.889707 -0.534327 -0.888714 -0.310167 -0.312534 -0.288269 0.087684 0.228633 0.033396 -0.268825 -0.018538 -0.046198 -0.159308 0.030439 -0.005179 0.075982 0.028742 0.032526 -0.025441 -0.044405 0.026634 -0.030592 0.047851 -0.012618 -0.048875 0.003668 -0.048483 -0.003866 -0.059613 -0.088920 0.143399 0.032363 0.005004 -0.043761 0.002040 -0.000995 0.041191 -0.056731 -0.000723 0.054323 0.012779 -0.032986 -0.028954 0.009618 0.009618 -0.031153 -0.001583 0.040663 -0.033874 -0.007492 0.028088 -0.021470 -0.046602 0.024781 -0.018917 0.003196 -0.045075 -0.039808 0.034146 -0.013458 0.017277 0.012344 -0.012951 0.019888 0.032527 -0.007495 0.003035 0.034383 -0.046015 -0.003583 0.001583 -0.017500 -0.033097 -0.009055 0.022320 0.024990 0.009428 -0.039829 0.018707 0.033127 -0.042093 0.000470 -0.004018 -0.000814 0.002216 -0.000872 0.008869 0.001059 -0.017107 0.007772 0.000002 0.003872 -0.004493
8a838345673ec61901673ecd8c9d0039 6.648593 0.042970 0.570868 0.601135 -0.616935 1.873034 2.822254 -0.333733 -0.963392 -1.112059 -0.212415 -0.289729 -0.107993 0.108768 0.229335 0.032965 -0.045078 -0.158794 0.088545 -0.167881 -0.005645 0.010260 0.099659 0.028472 0.093758 -0.050715 -0.009177 0.027008 -0.021470 0.028221 0.036284 -0.069195 -0.020536 -0.022765 -0.043365 -0.030272 -0.092040 0.069698 -0.036658 -0.030089 0.005522 0.015026 -0.004952 0.017489 -0.076570 0.027819 0.055080 -0.042744 0.020505 -0.013857 -0.010093 0.014828 -0.002777 0.067558 0.053514 -0.039061 -0.013950 0.056710 0.017448 -0.044859 -0.002004 0.021420 -0.036353 0.043836 0.017248 0.009629 0.010069 -0.009887 -0.026261 -0.059947 -0.009242 -0.000894 0.021376 -0.005435 0.008532 -0.044732 -0.040702 0.053154 -0.012559 0.052331 0.012414 -0.020596 -0.012083 0.027146 0.019656 0.035436 0.002875 0.002632 -0.021062 0.013664 0.055755 -0.004270 0.003314 -0.001044 0.029129 0.079740 -0.015938 -0.023797 -0.050373 0.026107
8a838345673ec61901673ece1e4a004d 6.519075 -0.025729 2.488565 -0.623833 -0.628832 0.776509 1.968773 -0.972189 -0.179535 -0.337558 -0.052492 0.169965 0.069024 -0.109602 -0.030545 0.048684 -0.101341 0.032362 0.046039 -0.047103 0.039973 -0.110223 0.083273 -0.024850 0.054852 -0.019255 -0.055077 0.051371 -0.099974 0.048750 0.034362 -0.050991 0.057926 -0.124810 0.010139 -0.059079 -0.088091 0.056863 0.003057 0.001129 -0.041564 -0.026492 0.024632 0.046401 -0.037397 -0.004290 -0.039832 -0.009872 0.011907 -0.012729 0.019764 -0.008637 -0.016528 0.044918 0.065967 -0.011628 -0.043755 0.058971 -0.022891 -0.046343 -0.012627 -0.014529 -0.021024 -0.034135 -0.050079 0.020127 0.024837 -0.032083 0.031417 -0.018773 -0.021634 0.023874 -0.017889 -0.029232 0.004163 -0.039613 -0.043176 0.014998 -0.021627 -0.016734 0.002030 0.001000 -0.013233 0.018892 0.004763 0.004203 -0.028866 -0.011999 -0.005410 0.018048 -0.001292 0.012424 0.001294 -0.014415 0.019248 0.019404 -0.012106 0.001263 -0.008942 0.005518
8a8383456750357a016755187ed109a0 -8.182104 16.839992 -0.528236 0.603472 0.641740 -0.610013 -0.195325 -0.439253 0.261110 0.260111 -0.031291 -0.053992 -0.001839 -0.004241 0.102534 0.083286 -0.318970 -0.011961 0.131432 -0.012832 0.097656 0.091660 -0.007875 -0.057406 -0.056681 -0.008393 -0.028808 0.015738 -0.041858 0.007675 -0.001867 0.077656 0.008232 -0.008885 -0.021876 0.016236 -0.058184 0.006246 -0.053237 -0.003514 0.026857 0.026178 -0.020243 -0.007926 -0.020227 -0.033615 0.015063 -0.032821 0.032138 -0.001760 0.026016 0.003642 -0.013015 -0.012592 -0.016784 -0.058665 -0.000024 -0.017353 0.001119 -0.025787 -0.018184 -0.030253 0.006800 0.009936 0.010578 0.026691 -0.030743 0.016696 0.065405 0.017578 0.027325 -0.003695 0.004909 -0.016884 -0.005071 0.014336 -0.001596 0.009861 0.016764 -0.012547 -0.018557 0.000518 0.005492 0.005106 -0.016624 0.016964 0.001233 0.009652 0.002339 0.007274 -0.006863 -0.001701 0.008616 0.015228 -0.016433 0.007761 -0.025652 0.033573 -0.013196 0.010048
8a8383456750357a016755190a2d09a4 -8.210116 16.780912 0.451909 0.584425 -0.356151 0.335811 -1.640226 -0.407632 -0.036142 0.335455 0.113333 -0.046892 0.090234 -0.015755 -0.094831 0.038365 -0.305422 -0.043989 0.095865 -0.074496 0.074665 0.124255 0.009403 -0.099226 -0.051861 -0.025420 -0.026255 0.002088 -0.025302 0.009187 0.015085 0.055690 0.014842 0.014733 -0.040870 0.047934 -0.065372 0.015559 -0.043421 -0.001430 0.035502 0.038603 -0.037191 0.008582 0.017770 -0.013216 0.028570 -0.004793 0.031093 -0.035209 0.007694 -0.003970 -0.013443 0.017354 -0.004308 -0.040904 -0.007987 -0.031529 0.017101 -0.033200 0.016738 0.018319 -0.005956 0.009631 0.009811 0.002524 -0.047946 0.021853 0.042189 0.023135 -0.009441 -0.001496 -0.025407 -0.020742 0.010838 0.011113 0.007165 -0.006991 0.024973 -0.007974 0.015295 -0.003747 0.016554 0.017974 -0.016673 0.018825 0.017079 0.000079 -0.007540 0.025391 -0.021716 -0.012612 -0.003134 0.005138 -0.012178 -0.023052 -0.006520 0.009346 0.001807 0.021128
8a8383456750357a0167551968b609a8 -8.184155 16.771451 0.326451 1.020290 -0.846377 0.856948 -1.694766 -0.213005 -0.446962 0.071646 0.099745 -0.144783 0.041013 0.042071 -0.092535 0.016479 -0.278996 -0.050755 0.064089 -0.022849 0.013632 0.138677 -0.061116 -0.078369 -0.096760 -0.006952 -0.021722 0.000217 -0.090754 0.029245 0.037040 0.053913 0.006159 -0.034336 -0.033978 0.109296 -0.036834 0.012338 0.014097 0.038133 0.001769 -0.009166 0.002945 0.044847 -0.029012 0.041850 0.005774 -0.070748 0.038407 -0.058109 -0.015388 -0.042689 -0.069699 0.008291 0.019516 -0.023675 0.047729 0.002636 -0.022242 0.033687 -0.002433 -0.001672 0.009174 0.009084 -0.011832 -0.006173 -0.019902 -0.000855 0.021415 0.037123 0.031202 -0.004032 -0.032523 -0.033042 -0.041268 -0.026332 -0.029270 0.022419 -0.007054 0.003190 -0.037755 0.032635 -0.021859 0.005503 0.008181 -0.018071 -0.016972 -0.012140 -0.051810 -0.001330 -0.012154 0.002848 0.034776 -0.021661 0.025415 -0.015643 0.004564 0.027919 0.006296 -0.022961
8a8383456750357a01675519c0cb09ac -8.240186 16.808845 0.176848 0.427547 0.261231 0.084148 -0.994232 0.057319 -0.457606 -0.383041 -0.041872 -0.223111 -0.064583 0.144543 0.062200 0.018250 -0.319871 -0.034692 0.079136 0.009223 0.031444 0.201057 -0.053339 -0.076651 -0.058569 -0.011034 -0.040889 0.021208 -0.037271 0.029655 0.001765 0.080219 0.033426 -0.005068 -0.023500 0.046568 -0.038344 0.011823 -0.057667 0.012269 0.007829 0.033700 -0.003988 0.032203 -0.024985 0.017498 0.043353 -0.023478 0.055797 -0.018677 0.013070 -0.047459 0.011153 0.003382 0.001745 -0.004186 0.021760 -0.051975 0.030981 -0.019859 0.001266 -0.009160 0.000724 0.004499 0.000535 -0.002889 -0.025637 0.027218 0.028143 -0.002635 0.002240 -0.016120 -0.001028 0.012362 -0.010215 0.007210 0.031331 0.000886 0.031966 -0.007433 0.016537 -0.006648 0.013052 -0.000522 -0.036593 0.006080 -0.015447 -0.021486 0.007622 0.021466 -0.020478 -0.001739 -0.007805 0.003007 0.028880 -0.002662 -0.015242 0.001913 -0.001775 -0.003463
8a8383456750357a0167551a8bb009b0 -8.272404 16.741821 0.477205 0.768261 1.160813 1.133956 0.565233 -0.532136 -0.252907 -0.596543 -0.040938 -0.418371 0.060351 0.252360 0.237678 0.022920 -0.194012 -0.140468 0.246148 -0.033179 0.021009 0.176282 0.015390 -0.052368 -0.023389 -0.019315 -0.023842 0.026451 -0.022110 -0.013237 -0.019172 0.022188 0.005774 0.014449 -0.027957 0.032666 -0.064881 -0.036312 -0.057687 0.011750 0.044123 0.021522 -0.035151 0.014009 -0.017564 0.011664 0.013099 -0.063791 0.028622 -0.019274 -0.004428 -0.034028 0.029834 0.000137 -0.027495 -0.054326 0.021271 -0.015057 -0.008625 -0.004830 -0.015089 -0.005896 0.002150 -0.015925 0.030844 0.015284 -0.020372 0.027141 0.032242 0.044111 0.000514 0.011495 -0.017228 0.003502 -0.032074 -0.015015 0.011656 0.011330 0.041777 -0.023914 0.010548 -0.002238 -0.013643 0.037937 -0.000498 0.016089 -0.022245 0.026504 -0.015400 -0.027749 -0.006728 -0.024034 0.014622 -0.011823 -0.008711 -0.002431 -0.031927 0.027931 0.023812 0.016879
8a8383456750357a0167551aab7109b4 -8.209990 16.782009 0.448769 0.579913 -0.365396 0.324979 -1.636662 -0.407843 -0.025706 0.338797 0.115006 -0.043603 0.088496 -0.020862 -0.089213 0.043390 -0.305830 0.022677 0.048678 0.013145 0.035339 0.182331 0.016055 -0.071212 0.011571 -0.015949 -0.042970 0.011611 -0.034679 0.043381 0.022814 0.024662 0.026517 -0.027294 -0.008019 0.094421 -0.052119 0.026905 -0.057424 0.016122 0.002490 0.019201 -0.009779 0.005074 0.001797 -0.005315 0.023610 -0.036948 0.068684 -0.004698 0.013256 -0.034117 0.011455 -0.017335 0.008238 0.027720 0.016807 -0.013888 0.033855 -0.011857 -0.011948 -0.005288 -0.000557 0.029814 -0.002339 0.012114 -0.046703 -0.012635 0.022785 0.011609 -0.004946 -0.026114 0.016068 -0.003562 -0.016260 0.018773 0.014587 -0.030256 0.022884 0.010476 0.004984 0.039319 0.021471 0.020960 -0.022844 0.010510 0.023354 -0.024581 0.008997 0.024723 -0.013342 -0.002301 -0.018944 -0.020049 0.007851 -0.014225 -0.007236 0.016944 -0.008251 -0.001212
8a838345683c675d016875389dfc21fb -5.555697 7.245960 -1.078463 -0.168086 0.563706 -0.612226 -0.111531 -0.168628 0.293332 0.282064 -0.070640 -0.030938 -0.022616 -0.007815 0.035372 -0.076778 0.131419 0.095289 -0.025693 -0.062644 0.059617 -0.022425 0.024020 -0.004268 -0.014616 -0.057830 -0.020539 0.079850 0.006896 -0.021296 0.036086 0.023884 -0.006357 -0.044463 -0.019746 0.013037 0.000532 -0.011865 0.000263 -0.013540 0.016951 0.024620 -0.051116 -0.029241 -0.033983 -0.046015 0.000352 0.005315 -0.061576 0.013243 -0.042496 0.013901 -0.008949 0.032287 -0.081990 0.038835 -0.043635 -0.030163 -0.046875 0.020936 0.024705 -0.049607 -0.056404 0.017346 -0.010412 0.032767 0.016594 -0.001403 -0.008866 0.005534 0.001144 -0.002780 -0.017261 0.004773 0.040476 -0.001961 -0.030362 0.009067 -0.032890 -0.010435 0.020867 -0.027194 -0.011241 0.011678 0.000351 0.039033 -0.045953 -0.009315 -0.007448 0.041303 0.040121 -0.033746 0.022785 0.022126 -0.013974 0.012328 -0.025814 -0.012186 -0.019631 0.020412
8a838345695bde660169b8afcc104723 -5.640315 7.224134 -0.244980 -0.780210 0.654765 -0.434935 -0.862849 0.144969 -0.015005 -0.099858 -0.062654 -0.094368 -0.037642 0.085489 -0.012261 -0.082008 0.018690 0.091614 -0.002935 0.026678 0.052694 0.040330 -0.036130 -0.000825 0.019053 0.021205 0.010785 0.057327 0.036403 0.041403 0.034608 -0.034249 -0.000492 -0.001034 0.004518 0.064162 -0.066680 -0.006032 -0.011826 -0.016701 0.008829 -0.004440 -0.000675 -0.039339 -0.014912 -0.010504 0.010797 -0.022832 -0.075041 0.004238 -0.004123 0.002218 -0.014907 0.003961 -0.051169 -0.000236 -0.042792 -0.042656 -0.026938 0.011390 0.010986 -0.029916 -0.002502 0.006619 -0.025013 0.009942 0.029011 -0.014366 -0.019220 -0.012452 0.019053 -0.010327 0.022605 -0.014146 0.013605 0.015141 -0.019685 -0.010875 -0.031121 0.013467 0.024953 -0.008784 0.018648 0.013577 0.001368 0.002971 -0.040174 -0.004438 0.008935 0.010330 0.000531 -0.015244 0.007283 -0.020287 -0.010924 -0.003388 0.023443 0.006039 -0.040135 0.006147
8a838345695bde660169b8bffafa54f4 -5.639626 7.224660 -0.244511 -0.776181 0.662382 -0.444660 -0.853795 0.137577 -0.002841 -0.098263 -0.062904 -0.100133 -0.036549 0.085592 -0.015134 -0.135041 0.122021 0.054376 -0.089135 0.002199 -0.016215 0.058313 0.014645 0.011751 0.001875 -0.032689 0.005787 0.054237 0.010991 -0.026969 0.048176 -0.017682 0.057529 -0.047676 -0.019938 0.045803 -0.012678 0.014930 -0.009849 -0.008914 -0.002607 -0.000859 -0.020887 -0.047649 -0.005475 0.019025 0.001928 0.031621 -0.048632 0.015586 -0.036937 0.022875 -0.012983 -0.001995 -0.031169 0.042637 -0.016309 -0.073434 -0.034122 0.048345 -0.003878 -0.016616 -0.013083 0.004287 -0.027339 0.082651 0.008459 -0.018207 -0.008315 0.036470 0.036291 -0.021131 -0.022146 -0.004024 0.009198 -0.002456 -0.030566 0.007560 -0.029505 -0.029438 0.008246 -0.017932 -0.000096 -0.001762 0.046883 0.011826 -0.056298 -0.005708 -0.027765 0.015034 0.052786 -0.013290 0.005742 0.001901 0.020192 0.009297 0.023948 -0.023989 -0.038914 -0.013176
8a838345695bde660169be9415b069e7 -5.556231 7.239767 -1.030882 -0.137236 0.516357 -0.600382 -0.102809 -0.164250 0.284286 0.276754 -0.060519 -0.038151 -0.017104 -0.000771 -0.002249 -0.075019 0.090113 -0.209603 0.093050 0.216186 -0.205775 -0.121060 0.098267 0.056304 -0.040587 -0.072594 0.073110 0.031970 0.103593 -0.036755 0.073192 0.012659 -0.057621 0.010547 -0.089424 0.081045 -0.036636 0.054096 -0.029268 0.102302 -0.020501 -0.002250 -0.033161 -0.066414 0.063744 -0.036682 -0.055997 0.010568 -0.095593 -0.059285 -0.044882 0.014476 -0.052501 0.045098 0.022625 0.056840 0.013850 -0.043840 -0.058758 -0.011869 0.019582 0.023128 0.007304 0.028640 -0.054686 0.101957 0.097378 -0.079129 -0.010139 -0.008873 0.087906 0.015185 -0.068726 -0.050826 -0.002862 -0.021940 0.106924 0.011487 -0.006222 -0.051496 0.004335 0.022674 0.042089 0.011525 0.059020 0.101183 0.006343 0.004556 0.013585 -0.014255 -0.012333 0.010559 0.041632 0.022387 0.005737 -0.013625 -0.000107 -0.070082 0.002366 -0.021922
8a838345695bde660169be94a2006a25 -5.614098 7.213477 -0.352777 -0.340123 0.162895 0.078622 -0.918638 0.332658 -0.434597 -0.367776 -0.083549 -0.205031 -0.083977 0.148697 -0.031212 -0.155461 0.150344 0.042516 -0.028937 0.177954 -0.042954 -0.057767 0.063326 0.001333 -0.060347 -0.099899 0.041701 0.022424 0.054071 -0.006038 0.019727 0.038704 0.025088 -0.030371 -0.053677 0.051406 0.008371 0.026487 -0.015988 0.062749 0.025613 -0.044353 -0.022792 -0.061363 -0.023355 0.020633 -0.022472 0.006233 -0.005550 -0.009304 -0.048593 0.009923 -0.045276 -0.035251 -0.003983 -0.005408 -0.013787 -0.033408 -0.039449 -0.006908 0.019010 0.003995 -0.032526 0.040690 -0.048659 0.054652 0.063473 0.006554 0.034259 -0.023996 -0.004721 0.021824 -0.003899 -0.007825 0.010358 -0.026031 0.031293 0.003252 0.036029 0.003217 0.017135 0.014225 0.015905 0.008577 0.005637 0.007893 0.008268 -0.029122 0.029128 -0.003933 0.015016 0.001068 0.011392 -0.005644 0.015085 -0.010861 -0.009666 -0.037341 -0.030847 -0.007127
2c9fadbd77ff5d05017802ff98824cc9 -5.555866 7.245833 -1.078899 -0.168245 0.554028 -0.617513 -0.109748 -0.164571 0.294455 0.286396 -0.062158 -0.027928 -0.026452 -0.007741 0.043134 -0.016023 0.012018 0.158030 -0.059283 0.019220 0.056455 -0.002790 0.033395 -0.048080 0.032721 -0.035763 0.014917 0.023457 -0.044324 -0.028933 0.002969 0.014980 -0.009006 -0.056164 0.029548 -0.063336 -0.012482 -0.037458 -0.016308 -0.007680 -0.007108 0.029523 0.016438 0.026021 0.023014 -0.040932 -0.022466 -0.002618 -0.009044 0.021283 -0.032142 0.017642 0.009414 0.040419 -0.000676 -0.007990 0.042400 -0.017782 -0.011190 0.006500 -0.011675 0.008583 -0.041879 0.008742 -0.024414 -0.026611 -0.046024 -0.014681 0.003798 0.006792 0.027481 -0.047812 0.017870 0.032597 0.029470 -0.013481 -0.007957 0.036606 -0.022934 0.021945 0.006516 0.005794 -0.006192 0.028053 0.010915 -0.035856 -0.003228 0.040368 -0.031923 -0.006514 -0.002099 0.009936 -0.002712 0.009019 0.019626 0.010650 0.032095 0.008400 -0.008709 0.002421
2c9fadbd77ff5d05017803000a984ccd -5.639590 7.224628 -0.249032 -0.780735 0.650880 -0.444391 -0.865422 0.137855 -0.015708 -0.097410 -0.057476 -0.092842 -0.039241 0.083941 -0.004953 -0.056429 -0.036000 0.137423 -0.065733 0.076330 0.093064 0.080134 0.012608 -0.008300 0.078387 0.001507 0.020239 -0.002910 -0.036922 -0.030136 0.030205 -0.033894 -0.050969 -0.007563 -0.017694 -0.035699 0.011519 -0.007984 -0.002936 -0.059535 -0.001433 0.033930 -0.028829 0.000510 -0.005768 -0.038797 0.018924 -0.027168 -0.012989 0.012206 -0.005609 -0.003818 -0.004685 -0.004337 -0.004115 -0.022247 0.008904 -0.013295 0.010686 0.030352 0.033640 -0.034689 -0.054066 0.003971 0.004886 -0.018164 -0.046465 -0.023802 -0.035096 -0.004095 0.022030 0.016263 0.004394 0.030862 0.006274 -0.025472 0.003914 0.039162 0.011038 -0.007241 -0.029104 -0.024500 0.017453 0.002633 0.000410 0.009085 0.009317 0.005529 0.001096 0.006817 0.016353 0.013899 -0.014650 0.012762 -0.011798 0.006847 0.007087 -0.011025 -0.001942 0.028343
2c9fadbd77ff5d050178030068b04cd1 -5.640695 7.222970 -0.245824 -0.774245 0.657756 -0.428896 -0.860654 0.148630 -0.027108 -0.103886 -0.057155 -0.090577 -0.041019 0.089702 -0.005505 -0.034901 -0.099367 0.054793 -0.000740 -0.029219 0.101080 -0.018676 -0.002471 0.005107 0.049314 -0.000687 0.035577 0.015579 -0.051797 -0.032592 0.023421 0.017311 -0.088674 -0.012824 -0.003628 -0.046760 -0.041569 -0.007299 -0.007545 -0.043757 -0.017238 0.032435 0.000520 -0.015685 0.005972 -0.048053 -0.014530 -0.016214 -0.032500 0.009296 -0.027846 0.020161 -0.017175 0.007523 0.000598 -0.051518 0.052130 0.006715 0.024253 0.042882 -0.014796 -0.037921 -0.022727 -0.006258 -0.013655 -0.014148 -0.019550 -0.007475 -0.043289 -0.007889 -0.007935 0.024626 0.025740 0.011799 0.008633 -0.009122 -0.024726 0.002368 -0.006673 0.009405 -0.023404 -0.021279 -0.001565 -0.001447 0.020814 -0.008763 -0.004813 -0.009491 -0.033554 0.000111 0.014123 -0.020186 -0.031145 0.025714 -0.017756 -0.018397 0.010034 -0.009332 -0.002054 0.003936
2c9fadbd77ff5d0501780300d7a74cd5 -5.583186 7.220658 -0.523827 -0.396316 0.290017 -0.403570 -0.810464 -0.242341 0.345862 0.451533 0.017310 0.028115 0.042665 -0.043441 -0.061255 -0.012927 -0.038178 0.141837 -0.022534 0.026536 0.089301 -0.025250 0.040634 -0.015288 0.057412 -0.039372 0.019907 -0.006745 -0.036782 -0.035776 0.028589 0.004365 -0.038402 -0.063535 0.006470 -0.027587 -0.020338 -0.009695 -0.019482 -0.027500 -0.000641 0.008902 -0.007101 0.006033 0.014700 -0.030485 -0.017714 -0.008997 -0.019141 0.038516 -0.024117 0.012620 -0.018368 -0.000997 0.003570 -0.045031 0.033561 -0.001717 0.012509 0.039745 0.011220 -0.020656 -0.065464 -0.000268 -0.017349 -0.005594 -0.032236 0.010971 -0.033647 -0.004372 0.035343 -0.014623 0.029383 0.044258 -0.003317 -0.000473 -0.007431 0.029434 0.020292 -0.003449 -0.023564 -0.041613 -0.007660 0.004428 0.014423 -0.004102 0.013401 -0.006500 0.014617 0.004508 -0.009749 -0.006249 -0.000972 0.028867 -0.006497 -0.018030 0.011054 -0.014516 -0.014401 0.021291
2c9fadbd77ff5d050178030132334cd9 -5.639763 7.224539 -0.248622 -0.779744 0.652892 -0.443451 -0.867585 0.143043 -0.019694 -0.099798 -0.057617 -0.093141 -0.039378 0.090515 -0.006874 -0.054531 -0.033011 0.137911 -0.054736 0.082493 0.128832 0.013068 0.014239 0.000705 0.034675 0.004055 0.015364 0.020840 -0.049919 -0.029739 0.037109 0.000281 -0.040584 -0.053316 0.007943 -0.027449 0.005331 -0.019265 -0.028563 -0.028949 -0.007923 0.029394 -0.018803 0.018151 0.020033 -0.026733 -0.010472 -0.009177 -0.019072 0.034240 -0.013373 -0.019412 -0.008633 0.013232 0.024045 -0.023614 0.028525 -0.020492 0.015907 0.032698 0.014464 -0.013409 -0.071134 0.025431 -0.019319 -0.019638 -0.034756 -0.001645 -0.040854 -0.011460 -0.002276 -0.000259 0.033700 0.037237 -0.004574 -0.013028 0.016787 0.008629 0.004426 0.005908 0.007617 -0.027304 -0.009615 -0.003455 -0.000542 0.001209 0.007109 -0.002894 0.011449 0.016718 0.009451 0.011924 -0.018684 0.006281 0.002485 -0.008104 0.019220 -0.010315 -0.011597 0.031676
8a838345695bde6601699aaf65fe1fec 1.279057 1.822554 -2.436032 1.058429 -0.940430 0.395579 0.631571 -0.140960 0.134335 0.534355 -0.232912 0.353877 0.411561 -0.373701 0.817727 0.274713 -0.326622 -0.043956 -0.009356 0.031506 0.026234 0.036474 -0.232585 -0.054389 -0.128524 0.162951 0.104335 0.004031 -0.038835 -0.005409 0.019055 -0.012935 -0.038055 -0.012050 0.086240 0.088254 -0.019924 0.016366 -0.084144 0.055283 -0.035143 0.009742 0.077953 -0.011856 -0.081094 -0.018901 0.042154 -0.050058 -0.063514 0.019920 0.038337 -0.018845 -0.074633 -0.017522 -0.024302 0.052771 0.011902 0.026019 0.054545 -0.029119 -0.050674 0.097683 -0.030101 0.003355 -0.057220 -0.023555 -0.025514 -0.012421 -0.102172 -0.011505 -0.027207 -0.022745 -0.069659 0.055654 0.005069 0.004243 0.028384 -0.016788 -0.037177 -0.006361 0.029109 -0.015659 0.006321 -0.039749 0.004314 0.024989 -0.023060 -0.007955 0.005758 -0.008437 -0.004641 -0.007528 -0.021750 0.025156 -0.013871 -0.013652 0.014314 -0.015087 -0.014865 0.010554
8a838345695bde6601699aafb9b61ff3 1.839628 -1.084269 -0.675733 -0.877310 -0.379888 0.700508 -0.806460 0.877129 -0.841419 -0.703406 -0.124594 -0.274762 -0.183808 0.130619 -0.005179 0.002879 -0.176249 0.049717 0.008844 -0.034395 -0.013158 0.067560 -0.158398 0.001865 -0.094501 0.088385 -0.004843 -0.035585 0.018314 0.055772 -0.029716 -0.016878 0.003567 -0.026110 -0.022908 0.030900 0.048486 -0.045775 -0.015682 -0.000978 -0.065549 -0.067146 0.062637 0.021493 -0.030097 0.060388 0.042805 0.011856 -0.026129 -0.034588 0.013266 -0.070527 -0.016054 0.039017 0.011131 0.022361 0.016024 -0.004347 -0.025271 -0.001878 -0.026946 0.004250 -0.001069 -0.020766 -0.022712 -0.023401 0.022421 -0.038581 -0.046133 -0.040392 0.028262 0.003063 -0.013278 -0.012949 -0.042007 -0.046832 -0.015423 0.007987 -0.026313 -0.007589 0.024770 -0.035527 -0.045422 0.010810 -0.000572 -0.021319 0.011851 0.029576 0.015355 -0.016048 0.022940 -0.008718 -0.015977 -0.042354 -0.022645 -0.009017 0.021432 -0.023420 0.019307 0.012311
8a838345695bde6601699aaffdb81ffa 1.863182 -1.225039 0.883712 -0.089423 -1.580042 -0.488048 -0.443404 0.260469 0.056689 1.064354 0.104523 0.283390 0.194849 -0.148625 -0.367249 0.023155 -0.068960 -0.188549 0.145729 -0.181365 -0.026663 -0.035062 -0.082674 -0.075185 -0.032446 -0.019868 -0.030039 -0.045411 -0.000049 0.025414 0.007833 0.041929 0.005509 -0.104397 -0.010612 0.018555 -0.008009 -0.060028 0.005911 0.014232 -0.014060 0.066991 0.025547 -0.012316 0.002101 -0.006564 0.026319 0.040349 -0.013205 -0.030051 -0.044472 0.015397 -0.038766 0.022653 -0.025471 0.038219 -0.034391 -0.020440 -0.003189 0.014733 -0.060370 -0.025483 0.003576 -0.043317 -0.090631 -0.033121 -0.061565 -0.046983 -0.015608 0.009839 -0.002172 0.029903 -0.017394 -0.005448 -0.010157 -0.005123 0.015409 -0.019114 -0.008205 0.007590 0.024521 -0.007052 0.012364 0.021091 -0.036906 -0.036875 0.030287 -0.019762 -0.002114 0.014127 0.008109 0.003799 -0.007242 -0.002568 0.019909 0.002019 -0.012704 0.026364 0.002711 0.009485
8a838345695bde6601699ab087462004 0.760419 2.466311 2.664985 1.246207 -0.895475 -1.130868 -0.360498 1.758304 -0.450184 1.251861 -0.640505 0.995893 0.661929 -0.276994 1.188599 -0.050206 0.061569 -0.178311 0.054543 -0.028844 -0.142357 0.045020 0.015499 -0.087062 -0.110893 0.005774 -0.062954 -0.018316 -0.076608 -0.045162 -0.067974 0.019052 0.044032 -0.009160 0.084682 -0.003974 0.030884 -0.084500 -0.069055 -0.078430 -0.037535 -0.041769 0.027086 0.057133 -0.006052 -0.028961 0.075462 0.007504 -0.096360 -0.022597 -0.018041 -0.044642 -0.117101 0.019749 0.048386 -0.058128 0.037058 -0.006383 -0.040580 0.057346 -0.025043 0.011887 -0.016578 0.091096 0.064551 -0.046780 0.025695 0.035395 -0.004429 0.051526 0.045085 -0.036638 -0.055184 0.036030 -0.029123 -0.018928 0.035563 0.013125 0.006201 0.033592 -0.029422 0.024788 0.002753 -0.042233 -0.025640 -0.012687 0.008193 0.005533 0.065076 -0.054808 -0.006692 -0.016093 -0.001871 0.015892 0.031768 0.029397 0.004909 -0.026292 -0.043911 -0.008344
8a838345695bde6601698fae7dce0270 -2.901694 -2.385159 -1.329926 -0.753117 -0.195662 -0.328835 -0.644682 -0.335992 0.721086 1.034098 0.107403 0.195969 0.087724 -0.189780 -0.151682 0.114364 -0.130176 0.006537 -0.037942 -0.094071 -0.158622 -0.026852 -0.128904 0.026314 -0.076897 0.038465 -0.006806 -0.058255 0.031270 -0.048873 0.009698 -0.044323 -0.010038 0.005987 0.018624 -0.038206 -0.038094 -0.074165 -0.005407 0.004382 -0.029931 -0.023178 -0.012860 0.005044 0.003606 -0.022571 0.021758 0.002357 0.022835 0.010590 0.028901 0.047311 0.018505 0.001018 0.071883 -0.003935 0.065212 0.004354 -0.053678 0.029220 -0.001758 -0.013290 -0.040268 0.041234 0.018618 0.046198 0.031689 -0.003898 -0.036922 -0.010095 0.028687 -0.019694 -0.013369 0.042791 -0.013367 0.020929 0.006886 0.036014 0.007980 0.033343 -0.045611 -0.014779 -0.044219 0.001663 0.003398 0.037099 -0.039620 -0.013933 -0.033842 -0.027197 -0.007942 0.011703 -0.049464 0.007368 0.026371 -0.001617 -0.045199 0.003713 0.018727 0.023285
8a838345695bde6601698faedcf30274 -2.958933 -2.381713 -1.046454 -1.136330 0.169869 -0.359826 -0.700052 0.055820 0.350199 0.476737 0.026490 0.074085 0.005529 -0.054208 -0.102561 0.059841 -0.110054 -0.027223 -0.017832 -0.044247 -0.140180 -0.073546 -0.089671 -0.016449 -0.015080 0.081849 -0.003345 -0.072292 -0.003724 -0.030605 0.029050 -0.029464 -0.059963 -0.007893 -0.046407 -0.059089 -0.024474 -0.008857 0.062831 0.046401 0.042594 -0.035661 -0.000697 -0.030731 -0.019548 -0.032668 -0.065511 0.002886 0.033362 -0.003668 -0.040414 0.075681 0.020297 -0.054293 -0.014956 -0.009711 0.028879 0.028115 -0.024145 -0.010439 -0.061803 -0.006229 0.004972 0.010467 0.015203 0.048990 0.011669 0.014510 0.009527 0.010409 -0.019244 -0.030541 0.002108 -0.001074 -0.003651 -0.033581 0.012376 -0.015365 0.024134 0.028173 -0.059036 0.030105 -0.010414 0.007866 -0.018669 0.034757 0.009788 -0.040559 -0.036024 0.010183 -0.020481 0.046988 0.010159 0.009380 -0.000225 0.011386 -0.029982 -0.042617 -0.029191 -0.025603
8a838345695bde6601698fafeeca0284 -2.997793 -2.605863 1.009300 -0.096470 -0.696331 -0.251099 -0.484554 -0.781432 -0.736185 -0.056533 1.314913 -0.053614 0.062607 -1.082444 -0.088655 -0.105993 0.110304 0.067634 -0.003271 0.082365 -0.035243 0.044839 -0.102098 -0.014975 -0.034930 -0.075434 -0.047134 -0.055172 -0.068716 -0.000030 0.033730 -0.019089 0.049516 -0.131499 -0.064638 -0.004877 -0.027869 -0.041752 0.001203 0.015663 -0.077060 0.003525 -0.008360 0.006234 0.014997 -0.034351 -0.008982 0.013265 0.062286 0.003659 -0.018584 -0.012264 -0.044941 -0.031360 0.081026 -0.001408 -0.024164 0.047989 -0.014731 0.010814 -0.067966 -0.000631 -0.016618 0.006288 -0.001401 0.005610 0.026940 0.014760 -0.020615 -0.015047 -0.030394 0.000151 0.009020 -0.030913 -0.008680 -0.006545 0.017661 -0.027329 0.005220 0.022739 -0.021734 -0.032160 -0.026930 0.009058 0.025694 0.002516 -0.036845 0.009951 -0.022325 -0.005066 -0.007476 0.010550 -0.001698 -0.006456 0.012551 -0.036256 0.007822 0.025009 -0.003822 0.019241
8a838345695bde6601698faf20eb0278 -3.015432 -2.376453 -0.772635 -1.530782 0.530672 -0.407346 -0.765663 0.430111 -0.014218 -0.072586 -0.054599 -0.051242 -0.078257 0.075328 -0.051184 0.014795 -0.086652 0.051808 -0.039042 0.044449 -0.060109 0.033118 -0.048528 0.008065 0.020748 0.041681 -0.032051 -0.051244 -0.007661 -0.033872 -0.014257 -0.043218 -0.035793 -0.028585 -0.015898 -0.044012 -0.007007 -0.010882 0.014241 0.000876 -0.028825 0.041482 -0.016328 0.009526 0.015750 -0.036984 -0.032794 0.023306 0.030770 -0.018244 0.003880 0.034105 -0.000982 -0.001379 0.010345 -0.012952 -0.024890 0.019817 -0.030090 0.012017 0.001285 0.003411 -0.016688 -0.012300 0.000306 0.000480 -0.022250 0.005879 -0.021143 0.007792 0.004111 0.005618 -0.007581 -0.013502 0.028696 0.043483 0.001570 0.018083 -0.011421 0.015552 0.012973 0.012821 -0.000103 0.021730 -0.011047 0.010878 -0.006136 -0.005586 -0.027924 0.001581 -0.014618 0.026821 0.007293 0.029197 0.017613 0.008072 -0.020069 -0.008153 0.005998 0.032292
8a838345695bde6601698fafbce80280 -3.042851 -2.400607 -0.232250 -1.756710 0.287600 -0.200983 -1.441752 0.353872 0.047764 0.100993 0.023140 0.002065 -0.013301 0.031323 -0.138905 0.012032 -0.129287 0.048909 -0.145215 -0.091700 -0.112164 -0.003173 -0.021184 -0.014414 0.028925 0.018100 0.000909 -0.018797 0.021878 -0.032182 0.013999 -0.077288 -0.031405 -0.010701 -0.052604 0.000208 -0.009209 -0.003139 -0.021750 -0.027237 -0.043691 0.006812 -0.002805 -0.015377 0.021163 -0.027295 0.001591 0.009820 -0.004484 0.011413 0.008413 0.030187 0.030051 -0.016163 0.013895 0.012613 -0.015939 -0.044659 -0.018588 -0.009312 0.010440 -0.005895 -0.008633 0.010887 -0.005800 0.028926 0.016333 0.014627 -0.013095 0.031614 0.003597 -0.000678 -0.002107 -0.006017 0.009921 0.005917 -0.011688 0.013865 -0.014946 0.009030 0.018407 0.032342 -0.003638 0.027961 -0.005121 0.005768 -0.020578 -0.003909 -0.013101 -0.007285 -0.035511 0.007373 0.017264 -0.009929 0.006012 0.005930 -0.008768 -0.020159 -0.005509 0.025337
2c9fadbd7b285198017b29d283350042 -2.860818 -2.474075 -0.856823 0.319063 -1.321673 -1.090757 0.648614 -0.603582 -0.226934 0.402948 0.208152 0.307719 -0.131362 0.644679 0.186369 0.114282 -0.128261 0.085214 0.069130 0.234261 -0.016611 0.113929 -0.074051 0.041375 0.106408 0.002985 -0.086875 0.016460 -0.012014 0.066961 -0.073017 0.065811 0.037971 -0.008616 0.027510 -0.009636 -0.007356 -0.004908 -0.037144 0.026321 -0.044368 0.002714 -0.049934 0.000767 -0.050307 -0.021898 -0.040163 -0.002684 -0.054771 0.002596 -0.016230 -0.004067 0.069819 0.054423 0.026066 0.017139 -0.000307 0.000171 -0.010072 -0.043881 -0.000007 0.015915 -0.012934 -0.033084 0.027853 0.021447 -0.024120 -0.025607 -0.004284 0.028501 0.018302 0.003159 -0.014945 0.001126 -0.046522 -0.004933 -0.014562 0.007139 0.011378 0.003919 -0.005941 0.029548 0.012078 -0.011787 -0.010794 0.019973 0.013415 -0.000173 0.011705 -0.010445 -0.024936 0.003467 0.000449 0.013116 -0.010140 -0.012559 0.000810 -0.003655 -0.009777 -0.012834
2c9fadbd7b285198017b29d29f6a0046 -2.911113 -2.572926 0.677657 0.415558 -2.763513 -0.605535 -0.353964 -0.682043 -0.702159 0.384122 0.304074 0.464674 -0.093839 0.596953 -0.057521 0.006324 -0.006069 0.073541 -0.102261 0.125913 -0.072496 0.031011 0.034042 0.031161 0.131823 0.005565 -0.033875 0.016361 -0.054877 0.047070 -0.074250 0.045820 0.041673 -0.009609 -0.015253 0.007355 -0.013372 -0.012073 0.000586 0.016653 -0.036142 0.026484 -0.014073 -0.001300 -0.045901 -0.049677 0.000306 -0.006799 -0.029268 0.027806 -0.000049 0.009898 0.023047 0.020987 0.024846 -0.019247 0.008418 -0.011168 0.034853 -0.049298 0.002540 0.031379 -0.005049 -0.010634 0.008092 0.022852 -0.014563 -0.009600 -0.010726 0.020677 -0.014606 -0.024641 0.002181 0.001685 -0.027221 -0.022351 0.003738 0.008789 -0.020814 -0.003022 0.005363 0.009650 -0.002070 0.002590 -0.023341 0.007720 0.008454 -0.010948 0.006582 0.001322 0.014630 -0.015912 -0.019819 0.005623 -0.020240 -0.012602 -0.005654 0.019457 -0.010213 -0.000588
2c9fadbd7b285198017b29d2bc19004a -2.995095 -2.563560 1.091715 -0.389524 -1.898029 -1.132504 -0.361197 -0.478100 -0.659536 0.069847 0.226143 0.445209 -0.109014 0.680146 -0.013943 -0.053141 0.034775 -0.172203 0.104348 -0.054110 0.027717 -0.036907 -0.145191 0.073592 0.086946 -0.107152 0.064656 0.014004 0.011278 0.013351 -0.000131 0.128216 0.018405 -0.025479 0.005743 0.047135 -0.027654 -0.012916 0.027655 0.010822 0.018947 0.060241 0.030274 -0.036397 -0.033749 -0.040673 0.006516 0.056330 0.039302 0.009774 0.030948 0.012831 0.045746 -0.000123 0.030100 -0.037310 0.068503 0.036390 -0.036803 -0.027099 0.008438 -0.017077 -0.028974 0.032713 -0.035908 0.004959 -0.012130 -0.005761 0.018712 -0.010526 0.018396 -0.005724 -0.002962 -0.008503 0.023739 -0.011855 0.012424 -0.009738 -0.022599 -0.012975 0.008904 -0.012077 0.016218 -0.035567 0.025512 -0.010094 0.037215 0.016692 0.003625 -0.003820 0.007021 -0.006327 -0.016895 -0.003886 -0.015615 0.027183 -0.017210 0.009813 -0.030499 0.001764
2c9fadbd7b285198017b29d2d91b004e -2.996219 -2.561283 1.086517 -0.408585 -1.902749 -1.143044 -0.350394 -0.476698 -0.662599 0.085044 0.235870 0.439996 -0.131313 0.669498 -0.016026 -0.025504 -0.039516 0.000660 0.068980 -0.017230 -0.037862 -0.021192 -0.043404 0.058122 0.043747 0.002618 0.022953 0.002558 -0.016753 -0.009037 -0.062773 0.059029 0.045120 -0.002878 0.003053 -0.019427 0.015757 -0.006193 -0.028681 0.011731 -0.013057 0.062000 -0.026513 -0.063722 -0.036213 -0.025210 0.005077 -0.008366 -0.039040 0.061658 -0.005454 0.016597 0.030175 0.006419 -0.000196 -0.034771 -0.011288 0.021559 -0.014478 -0.020278 0.020329 -0.004189 -0.000931 -0.004251 0.011966 -0.012291 0.006106 0.014946 0.023804 0.008557 0.013230 0.000197 -0.009745 -0.048794 0.001562 0.018756 -0.019009 -0.039410 0.010985 0.011370 -0.003857 -0.015663 0.003832 -0.048809 0.037042 -0.000197 -0.005172 0.011318 0.000326 -0.024772 -0.005930 0.009309 0.021260 -0.010134 0.024364 -0.007680 -0.007236 -0.000513 0.016087 -0.011263
2c9fadbd7b285198017b29d2ef1b0052 -2.965474 -2.579822 1.087198 -0.235273 -1.842925 -1.338706 -0.510906 -0.792155 -0.753167 0.085592 0.498910 0.376632 -0.129403 1.456139 0.292700 -0.036578 -0.035505 0.145791 -0.008155 0.053176 -0.119786 0.007255 -0.017412 0.043755 0.108087 -0.029708 0.012531 0.007088 -0.024591 0.032207 -0.083126 0.032245 0.068538 0.000661 -0.005610 -0.010371 -0.007049 0.042958 0.028023 0.028491 -0.037759 0.035680 -0.023561 0.014525 -0.068271 -0.009357 -0.011259 -0.000859 -0.032651 0.049286 -0.025068 -0.008511 0.022329 0.030069 -0.001149 0.014055 0.018757 -0.026939 0.011735 -0.020345 -0.018827 0.000446 0.004810 -0.002634 0.027347 -0.011060 -0.003988 0.016102 -0.015768 0.027964 0.011080 0.005480 -0.032867 -0.017362 0.003433 -0.028605 0.003429 -0.010352 0.017457 0.012182 0.024489 -0.004389 -0.020136 -0.003988 0.000310 0.016211 0.003824 -0.010636 -0.009024 0.004301 0.011641 0.003286 -0.007471 0.004160 0.007260 0.007045 0.002957 -0.008899 0.022566 -0.005066
8a838345695bde6601699fa3be5e38d6 11.557712 1.587520 -1.354573 -0.465755 -0.106509 0.387588 0.804754 0.756038 -0.582057 -0.690808 -0.298624 -0.325179 -0.264262 -0.048039 0.183587 0.023041 -0.235125 0.166067 -0.117875 -0.032900 -0.039609 -0.186030 0.105306 -0.036095 -0.050356 -0.058730 -0.020946 0.043968 -0.040267 -0.009824 -0.018057 0.016332 0.052011 0.079554 -0.015875 0.032071 -0.000565 -0.048283 -0.024374 0.004079 -0.062987 0.032674 0.004056 0.029160 0.037269 0.038442 -0.070784 -0.005346 0.048717 0.033128 -0.078125 -0.014591 0.046648 -0.014728 -0.002931 0.012113 -0.013500 -0.042037 0.012226 -0.042379 0.018169 -0.008165 -0.037514 0.022652 -0.046981 -0.010349 -0.007216 0.000950 0.032548 -0.024805 0.012245 0.008130 -0.008629 0.017056 -0.056687 -0.020269 0.032965 -0.010448 -0.011648 -0.023769 -0.000666 0.000208 0.026514 0.020210 -0.044286 -0.045474 0.003843 0.030749 -0.009095 -0.006457 -0.000601 0.001496 -0.014570 0.029213 0.022584 -0.013237 0.038678 0.018226 0.004092 -0.016900
8a838345695bde6601699fa4882e38ed 11.530994 1.594076 -1.205178 -0.897030 0.348699 -0.111148 0.844956 0.573667 -0.173996 -0.435663 -0.275004 -0.222804 -0.210591 -0.102091 0.162824 0.062657 -0.318244 0.050720 0.125612 0.041986 -0.012637 -0.144870 -0.006827 0.082119 -0.072973 -0.000557 -0.031886 -0.019859 -0.073066 -0.028393 0.002533 0.003528 0.012127 0.057891 -0.022826 -0.015601 -0.002652 -0.090154 -0.023225 0.022620 0.011824 0.010662 -0.011239 -0.019926 -0.017061 0.003832 -0.073170 -0.004065 -0.006973 0.065751 -0.035172 0.008042 0.025422 0.001538 0.014843 0.006879 -0.022828 0.034321 -0.001043 0.011188 -0.057915 -0.039298 -0.022296 0.029718 0.007661 -0.028320 0.028218 -0.019600 -0.019197 0.021373 -0.007129 0.002748 0.031217 -0.057785 -0.039575 -0.019719 0.008299 0.020647 -0.005369 -0.018360 0.013873 0.008675 0.029359 0.000905 0.015876 -0.023750 -0.010611 0.014138 -0.032060 0.056385 -0.007181 -0.018510 0.023809 0.006727 0.006219 0.014834 0.004347 -0.012485 -0.007663 -0.017790
8a838345695bde6601699fa661413983 11.476106 1.511040 0.320051 -1.145450 -0.885712 1.050213 -1.295228 0.518922 -0.406255 -0.200975 -0.066205 -0.164427 -0.044667 -0.144470 -0.137987 -0.053707 -0.186067 -0.036761 0.091640 -0.175015 0.032628 -0.057781 0.114633 0.064459 0.010993 -0.056606 0.016653 -0.004489 -0.040355 -0.079152 -0.007921 -0.041213 0.055760 0.051953 0.044638 -0.004247 0.017500 -0.012010 -0.010726 0.017102 -0.056906 0.026543 0.023882 -0.027319 0.019349 -0.037659 -0.013162 0.000348 0.013843 0.020734 0.030097 0.042750 0.024133 -0.010412 -0.076610 0.001472 -0.030022 0.032868 -0.018806 0.039765 -0.055350 -0.006964 -0.006392 -0.007198 0.067839 -0.010996 0.042645 0.035174 -0.064410 -0.010575 -0.000902 0.027861 0.025471 0.015820 -0.045544 -0.039719 0.012990 0.003044 -0.007109 0.032230 0.045480 -0.019591 0.014907 0.034414 -0.000619 -0.004113 0.019957 -0.051862 -0.055786 0.018731 0.011601 -0.064951 0.010810 -0.072593 0.004108 -0.002505 0.027925 -0.020445 -0.009832 -0.020117
8a838345695bde6601699fa700c83987 11.498706 1.493213 -0.493837 -0.338101 0.525511 1.665233 1.664856 0.093468 -0.324861 -0.741115 -0.209409 -0.460875 -0.059228 0.028094 0.260114 0.045198 -0.185554 -0.074608 0.125479 -0.111008 -0.001228 -0.189729 0.028180 0.064985 0.005209 0.028728 0.026532 -0.010481 -0.018656 -0.089087 -0.010628 0.052351 0.048984 0.061884 -0.042259 0.087613 0.041506 -0.075403 -0.008141 -0.005564 -0.028792 0.011731 -0.022755 0.067051 0.021371 -0.057182 -0.034500 -0.031444 0.046265 0.028248 -0.068176 -0.047704 0.061779 0.013465 0.035584 0.013222 0.021676 0.050756 -0.053408 -0.067099 -0.007878 0.001112 -0.093694 0.109275 0.018585 0.042803 0.006514 0.020550 -0.021611 -0.041806 -0.019303 0.018339 -0.032769 -0.001669 -0.016147 -0.002590 0.041011 0.043532 -0.023105 -0.069743 -0.029292 0.014110 -0.001266 -0.014330 0.023230 -0.030578 0.002483 0.007103 0.014668 0.012760 -0.062121 0.001675 0.038457 -0.007964 -0.014502 -0.050325 -0.002418 -0.004998 0.017269 0.005250
8a838345695bde6601699fa7a0fb3999 11.504213 1.536312 -0.241229 -0.919652 -0.629375 0.828774 -0.609385 0.593249 -0.467247 -0.363914 -0.142726 -0.213420 -0.106746 -0.111151 -0.026532 -0.005550 -0.245765 0.047785 0.018806 -0.092609 0.077249 -0.072454 0.002458 0.013896 0.016219 -0.059221 -0.001497 -0.030177 0.025887 -0.067079 0.003699 -0.005463 -0.060258 0.147224 -0.041541 0.034115 -0.017615 -0.011298 0.025532 0.008635 0.037715 0.014373 0.056822 -0.001756 -0.027421 0.008801 0.010612 0.006541 0.012975 0.056264 -0.032628 -0.007972 0.026344 0.001945 -0.029229 -0.017028 0.039465 0.024832 -0.005679 0.019667 -0.067253 -0.010296 0.012390 -0.013249 0.021793 -0.016703 -0.037588 -0.021783 0.008632 0.046987 -0.081125 -0.016860 0.074864 -0.000234 0.025756 -0.086518 0.076857 0.055421 -0.057202 0.016909 0.001944 -0.018146 0.013780 0.004745 -0.008790 0.058534 0.018590 0.048913 -0.039307 -0.036864 -0.059221 0.027184 -0.043002 -0.023210 0.026274 -0.046239 0.047493 0.022651 -0.044955 0.000102
8a838345673ec61901673ee4fd6d02fb 11.407829 1.472370 1.151403 -1.557887 -0.603420 -1.124884 0.356869 -0.009087 0.032862 -0.018206 -0.177086 0.289261 -0.111603 -0.299982 -0.127006 -0.014881 -0.181309 0.055241 0.053093 0.088282 0.014131 0.029394 -0.048450 -0.053229 0.037463 -0.011862 0.016828 -0.029089 0.026252 -0.007830 0.009326 -0.046133 0.017280 0.045783 -0.025761 0.003063 0.017881 -0.030992 -0.008732 -0.082199 -0.035018 -0.064441 0.052849 -0.004792 -0.037722 0.021769 -0.039128 -0.039677 -0.006599 -0.008876 -0.011998 -0.002165 0.021714 -0.009625 0.020972 0.039920 -0.013590 -0.008923 0.055638 0.009921 -0.013237 0.003365 0.000557 -0.006674 -0.013586 0.010836 -0.043534 -0.036238 0.039712 0.008138 0.006373 0.007044 0.002555 -0.006596 -0.009160 0.028176 -0.021982 0.031349 -0.002842 -0.019493 0.034227 0.012289 0.016016 0.021293 0.016900 0.020205 0.013881 -0.036419 -0.002333 -0.003624 0.014188 0.003037 0.003469 -0.007522 -0.015893 -0.001984 0.012993 0.004205 0.025007 -0.018036
8a838345673ec61901673ee84559037f 11.407218 1.472429 1.148772 -1.558390 -0.592758 -1.122843 0.372547 -0.008409 0.033998 -0.016627 -0.176216 0.285325 -0.117886 -0.304062 -0.122475 -0.016047 -0.190057 0.036219 0.027809 -0.019443 -0.064998 0.022243 -0.006904 -0.079461 -0.000135 -0.002113 0.007460 -0.034830 0.001751 -0.019104 0.009919 -0.037566 0.004083 0.008711 -0.034583 0.021358 0.019144 0.014240 -0.004473 -0.067647 -0.031236 -0.020815 0.079299 -0.024266 -0.029124 0.022376 -0.012880 -0.018070 -0.019404 -0.006845 -0.032928 -0.017142 -0.004428 0.018870 -0.017877 0.052009 -0.009795 -0.003036 0.010940 0.031122 -0.005927 -0.006740 0.003607 -0.020796 0.001518 0.023856 -0.052296 -0.036431 0.032563 0.013261 0.011446 0.018643 0.011461 -0.000027 0.003875 0.014495 -0.001690 0.021421 0.001335 -0.008340 0.029021 -0.012255 -0.003146 0.000464 0.006352 0.033047 0.030264 -0.004836 0.005984 0.010586 -0.007393 0.003849 0.018275 0.015193 -0.000466 0.000665 -0.015478 -0.000666 -0.016483 -0.012681
8a838345673ec61901673ee982060388 11.434535 1.496357 0.602711 -1.327329 -0.347030 -1.336510 1.063811 0.067046 -0.029381 -0.185528 -0.255623 0.231477 -0.189290 -0.265059 -0.025631 0.000308 -0.195728 0.027196 0.045356 0.083327 -0.068585 0.020461 0.013497 -0.040145 0.007820 -0.028361 0.014218 -0.027305 -0.015948 -0.027971 0.019280 -0.028213 0.013697 -0.005801 -0.017752 0.006813 0.004641 -0.024212 -0.008671 -0.083691 -0.040180 0.023751 0.068905 -0.009437 -0.008200 0.024258 -0.010104 -0.047745 -0.027448 0.023041 -0.054862 0.012884 0.013583 0.041519 -0.008290 0.041012 -0.005185 -0.031300 0.011705 0.037342 0.006830 0.006311 -0.008342 0.000014 0.003975 0.009955 -0.051389 0.001744 0.031170 0.030333 0.029243 0.019601 -0.005983 0.010973 -0.017605 0.032212 -0.040622 0.036439 -0.007134 -0.019561 0.031047 -0.002974 -0.002345 -0.021943 0.049550 0.026493 0.027171 -0.003517 0.007545 0.033990 -0.005408 0.014450 0.013605 -0.016877 0.022207 -0.015262 0.002201 0.005349 -0.016604 -0.023682
8a838345673ec61901673eea0bb1039e 11.323407 1.452020 1.974553 -2.171239 -0.481009 -0.949696 -0.382918 0.298323 -0.269563 -0.401662 -0.176677 0.217112 -0.126935 -0.205269 -0.171006 -0.085966 -0.163319 0.022645 -0.004208 -0.021339 0.015174 0.060773 -0.016674 -0.064479 0.024119 -0.000266 0.024484 -0.028343 0.016672 0.003812 0.027807 -0.070174 0.020474 0.028521 -0.055461 -0.001647 0.030473 0.001407 -0.007079 -0.086374 -0.041203 -0.050947 0.062500 -0.012151 -0.009030 0.039362 -0.025537 -0.017337 -0.038374 -0.012895 -0.006217 0.001920 0.007701 0.004758 0.029211 0.048511 -0.016231 -0.026988 0.025559 0.021418 -0.006796 0.010690 0.007993 -0.021493 -0.023989 -0.000169 -0.055690 -0.033218 0.038485 0.002408 0.006439 -0.004548 0.018218 -0.033017 0.006591 0.032685 0.034232 0.021936 0.008160 0.008999 0.034435 0.005235 0.021542 0.011565 0.002223 0.017814 0.013891 -0.038782 0.001624 0.001018 0.027051 -0.016052 0.015546 -0.021255 -0.008984 -0.012228 0.037985 0.001611 0.020619 -0.010989
8a8383456721a4a101672a88b8ee0079 -5.616662 6.975307 0.868491 1.716913 3.232109 0.429081 1.658302 0.846334 -0.099745 0.583408 1.381775 -1.176756 0.709220 -0.376624 0.311014 0.003536 -0.112633 0.037967 -0.032618 0.401345 -0.101821 -0.009680 -0.014568 -0.004792 0.032778 0.004415 -0.012021 0.103909 0.021145 0.072804 0.023350 0.054566 -0.006664 0.068135 -0.013926 0.036395 0.003125 0.116384 -0.043057 -0.000521 0.002526 0.040344 0.003787 0.034750 0.101642 -0.028142 -0.055345 -0.044656 -0.000517 0.031660 -0.023881 -0.125180 0.056793 0.022799 -0.041533 0.010221 0.009385 0.047418 0.019475 0.001882 -0.032743 0.040881 -0.000006 -0.001938 0.036026 -0.006084 0.003958 -0.036297 0.031418 -0.017352 -0.031814 -0.000956 0.015958 0.034817 0.025739 0.006337 -0.034844 -0.022860 -0.007320 0.024018 -0.009012 0.000390 0.016801 -0.037805 0.038033 -0.009932 0.003282 -0.016282 -0.032123 0.007350 -0.022460 0.030416 -0.035393 0.015921 0.014412 0.003022 0.015745 -0.003735 -0.024071 0.009938
8a8383456721a4a101672a8aa0f0007d -3.006149 -2.549635 0.680839 0.576218 0.330886 -2.384982 2.023561 2.196827 -0.517279 0.600418 -0.141845 -0.135499 0.188918 0.433531 -0.127951 -0.002345 -0.034721 -0.072571 0.030371 0.076746 -0.025393 0.054853 -0.000825 -0.030278 -0.020047 0.055750 0.018523 0.058658 0.039898 0.045050 -0.003245 0.005095 -0.031117 0.050372 -0.064654 0.015173 -0.011309 0.138713 -0.006873 -0.008433 0.017336 0.004041 -0.017405 0.049037 0.085530 -0.028191 -0.053686 0.020401 0.001757 -0.002761 -0.021916 -0.111612 0.045599 0.041114 -0.049093 -0.004487 -0.014280 0.037214 -0.019273 -0.022140 -0.027906 0.027028 0.008139 -0.035016 0.004019 -0.035444 0.011118 -0.035117 0.004461 -0.032872 -0.027324 -0.015000 -0.011640 0.021397 0.035471 0.000116 -0.023151 -0.024544 0.019063 0.042544 0.019211 0.017192 0.015389 0.009951 0.012355 -0.036629 -0.017848 0.004271 0.019096 0.030664 0.016990 0.042414 -0.048991 0.001571 -0.003256 -0.005608 0.045709 0.002079 0.005865 0.009115
8a8383456721a4a101672a8b20c10081 -5.542213 6.963523 2.051678 1.813298 -1.423453 -1.658248 0.017084 0.523522 0.741752 2.732509 0.329092 0.348078 0.688282 -0.047839 -0.568456 0.015695 0.012735 -0.186993 0.100089 -0.079745 -0.019609 -0.162573 0.080337 -0.088828 -0.021887 0.073070 -0.009054 0.032980 -0.009386 0.065174 -0.030455 -0.017449 0.067329 0.039192 -0.042364 -0.029674 -0.049152 0.081714 -0.023051 0.055206 0.049929 -0.013379 -0.037580 0.108269 0.053476 -0.065298 0.025192 -0.006331 0.047493 0.042894 -0.013048 -0.042909 -0.009492 0.019346 -0.082033 0.062394 0.046905 -0.008683 0.023845 0.078652 -0.012509 0.009856 0.013286 0.022882 -0.043880 -0.038767 -0.008569 -0.026894 -0.014867 -0.039092 -0.032123 0.073771 0.009994 0.039013 -0.026722 -0.019550 -0.006516 -0.011545 -0.002321 0.054965 0.002261 -0.008448 0.008749 0.007203 0.026057 0.041500 -0.016772 0.118464 0.014434 -0.001225 0.010196 -0.012587 0.031407 -0.058054 -0.037515 -0.008621 -0.038326 0.037404 0.037219 -0.026677
8a8383456721a4a101672a8b9a3c0085 -0.828718 8.359686 1.582013 1.125492 0.501144 -2.356729 2.014744 1.969862 -0.523711 0.473868 -0.180955 -0.213922 0.222553 0.380984 -0.078148 -0.061960 -0.090895 -0.142068 0.108678 0.069933 -0.031090 -0.025152 0.031858 -0.080495 -0.023343 0.077161 0.043873 0.014763 0.062493 0.042252 -0.014782 -0.019034 -0.034102 0.047559 -0.092934 0.042647 -0.012007 0.133105 -0.046337 -0.012948 0.038092 0.029809 -0.027060 0.031868 0.053255 -0.020133 -0.051555 0.027642 -0.031050 0.043035 0.013689 -0.073341 0.053443 0.023403 -0.060330 0.000727 0.011266 0.003452 -0.019223 -0.002670 -0.031952 0.037498 -0.003189 -0.013116 0.013471 0.000635 0.052429 -0.043803 0.011898 -0.004296 -0.047459 0.008701 0.007277 0.039503 0.047646 -0.020731 -0.013949 -0.001652 0.027764 -0.003224 -0.012711 -0.009741 -0.010032 -0.028769 0.001889 -0.023978 -0.001236 0.008048 0.029114 0.005435 0.001583 0.017981 -0.028551 0.001834 0.002679 0.018179 0.018866 0.014426 -0.016330 -0.005735
8a8383456721a4a101672a8bf76f0089 -0.857530 8.241996 2.692772 1.385635 0.524679 -0.869481 2.233700 0.839127 0.174811 1.156550 0.061915 -0.180300 0.571361 0.286185 -0.146273 -0.002308 -0.018920 -0.081057 0.141997 -0.006437 0.023454 -0.088058 -0.022894 -0.082659 -0.039262 0.028631 0.010055 -0.000378 0.025691 0.026183 0.013714 0.000210 -0.046124 0.040322 -0.044467 0.032778 0.011519 0.066376 -0.060858 0.027765 0.014627 -0.013336 -0.020454 0.039237 0.058133 -0.013771 -0.037915 0.028248 -0.035098 0.065728 -0.028933 0.006342 0.012475 0.012888 -0.022538 -0.000805 0.031387 -0.001800 -0.010345 0.003527 -0.041991 0.004382 -0.014001 0.004544 -0.002946 0.013217 0.016864 -0.037805 0.045527 -0.001001 -0.021909 -0.006353 0.029306 0.038997 0.021890 0.006355 -0.014929 -0.010441 -0.008654 -0.010516 0.002121 -0.030091 -0.007344 -0.028469 0.008197 -0.040156 0.004786 -0.007038 0.035261 -0.000886 -0.012299 0.001407 -0.019411 0.020826 0.020513 -0.001625 0.019595 -0.008734 -0.010146 -0.032667
8a838345673ec61901673ed447ec0103 -2.768884 -2.365367 -2.831587 1.020464 -1.144216 0.835231 0.568684 0.404363 -0.685162 -0.101854 -0.090145 -0.180493 -0.206775 0.056767 0.122141 0.235267 -0.404570 0.045962 -0.126516 -0.049638 0.079123 -0.109588 0.024160 0.108408 0.044262 0.060065 0.049563 0.030172 -0.006465 0.038132 0.182786 -0.002141 -0.027190 -0.058023 -0.027647 0.017774 0.055948 0.018422 -0.057018 -0.017869 -0.057998 -0.015193 -0.076852 -0.005970 -0.002942 0.020770 -0.008507 -0.010967 -0.006365 -0.030541 0.020403 -0.019692 0.032217 -0.056227 -0.061853 0.011499 0.007222 0.007664 0.055675 0.020658 0.010352 -0.007923 0.064787 -0.000923 0.030696 -0.018856 0.038086 -0.029554 -0.013580 0.031735 -0.006666 -0.003403 -0.024682 0.024699 0.000259 0.013062 -0.017179 0.039863 0.037815 0.026117 -0.036927 -0.003872 -0.007671 -0.035212 -0.013896 -0.010671 -0.015250 0.000477 -0.003126 -0.000779 -0.016991 -0.013553 -0.011148 -0.009166 -0.012633 0.004159 0.009188 0.001562 0.005620 0.010390
8a838345673ec61901673ed4d06d010b -2.852706 -2.351194 -2.422460 0.185750 -0.282406 0.278303 0.569249 0.595902 -0.630262 -0.395947 -0.164970 -0.215574 -0.247701 0.131909 0.147784 0.144967 -0.277801 0.069308 -0.012538 -0.100939 0.069491 -0.071416 0.053434 0.052628 0.018590 0.035174 -0.016404 0.007051 -0.094334 -0.035507 0.115541 0.018978 -0.008869 -0.029490 -0.037795 -0.015059 0.013478 -0.027596 -0.010938 -0.040170 0.044981 0.020001 0.019693 0.034859 0.001663 -0.049710 -0.037987 -0.063127 -0.008117 -0.001876 0.019689 -0.007268 0.020759 -0.045883 0.048800 0.059111 -0.002923 -0.000090 -0.018945 0.026125 0.051623 -0.069574 0.057750 -0.023139 0.032952 0.005192 -0.000192 0.035273 0.051675 0.028480 0.020393 0.002714 -0.007777 0.012171 0.053998 0.012938 -0.010562 -0.051349 0.026542 0.006478 -0.005623 -0.049150 0.062650 -0.027174 -0.016458 0.016876 0.002862 -0.001414 -0.026058 0.016649 0.006110 0.000853 0.001432 -0.026161 -0.011433 0.031752 -0.006872 -0.026139 0.006543 -0.013059
8a838345673ec61901673ed55503010f -2.910374 -2.550387 -0.445815 0.717239 -0.701984 3.134475 0.458182 -0.769052 -0.150791 0.167235 0.187086 -0.301200 0.231088 0.099071 0.011648 0.140540 -0.062304 -0.052956 0.100818 -0.089754 0.103871 0.010287 0.096903 -0.030236 0.095218 0.024223 -0.052434 0.051338 -0.132164 0.011762 0.128577 0.040798 -0.074160 0.023493 -0.050977 -0.074355 0.043597 -0.010040 -0.019617 -0.066586 0.129970 0.009106 0.009758 0.040175 -0.076124 -0.038109 0.033284 0.000254 0.032976 0.024871 0.048017 0.053948 -0.003469 0.094697 0.005249 0.105912 -0.042262 -0.025667 -0.028956 0.061982 -0.043026 0.029960 -0.029241 -0.017964 -0.000218 -0.035631 0.033647 -0.027338 0.029601 0.047888 -0.025120 -0.019896 -0.037427 0.020241 -0.006952 0.026846 0.030342 -0.048465 -0.041448 -0.017122 -0.016131 0.014585 -0.000745 0.006182 0.023550 -0.004564 0.021787 -0.020085 0.060811 -0.037300 0.003103 0.019164 0.001788 0.004659 0.010488 0.002927 -0.007719 -0.017555 0.016870 0.016614
8a838345673ec61901673ed5dadc0117 -2.929673 -2.477532 -0.310852 0.055910 -2.009081 0.983869 -1.152024 0.438442 -1.042992 -0.244514 0.020707 -0.006969 -0.132401 0.055737 -0.213117 0.035997 -0.167462 -0.032564 -0.027807 -0.049297 0.028172 -0.013502 0.004794 0.024944 -0.057425 -0.001691 0.020967 0.001290 -0.050886 -0.008403 0.045555 0.050611 0.007107 0.015042 0.003010 -0.037520 0.023351 -0.024087 -0.022068 0.023692 0.027303 0.054060 -0.008806 0.008190 -0.011189 -0.009897 0.036187 0.051133 0.001217 0.027392 -0.003545 -0.026627 0.014259 -0.001702 -0.017052 0.018396 -0.024482 -0.042354 0.007584 -0.034372 -0.034905 0.052079 0.028120 -0.043608 0.013357 -0.063847 0.043012 0.025154 0.064388 0.019222 0.034909 -0.018964 0.028928 -0.011863 0.036857 0.006871 0.031030 -0.016597 -0.026541 -0.017016 -0.005160 0.020523 0.007217 0.013540 0.047720 0.011128 -0.002599 -0.042068 -0.008579 -0.004458 0.010400 0.028607 -0.017798 0.016468 0.010725 -0.003147 0.007380 -0.026297 -0.007924 0.021128
8a838345695bde6601698ff54c8a02e7 -2.873441 -2.360227 -1.889439 -0.521730 0.041223 -0.537306 0.034626 -0.256876 0.651523 0.860753 0.042090 0.156005 0.010764 -0.149937 -0.024313 0.214031 -0.307774 0.054606 -0.050564 0.058928 0.026628 -0.031461 -0.068337 -0.003900 -0.089090 0.092147 0.042340 -0.021873 -0.039820 0.013388 0.051335 0.006996 0.028175 -0.018482 0.043700 -0.007392 0.044309 -0.007240 -0.009385 -0.017468 0.012300 -0.047733 0.000386 -0.022378 -0.062295 0.027904 -0.025814 -0.029251 0.020068 0.020050 0.028195 -0.045270 -0.034104 -0.003604 -0.044223 -0.030441 -0.040681 -0.008112 -0.055277 -0.012015 -0.037253 0.067284 0.015259 -0.038030 -0.009660 -0.005544 -0.013985 -0.014081 -0.050327 -0.022729 0.032228 0.044409 0.006276 0.008200 0.004860 0.001189 0.028802 0.039917 0.004520 -0.008767 -0.056488 -0.035134 0.001420 -0.026192 -0.031451 0.003925 0.028960 0.010906 0.012359 0.022988 0.020318 0.013845 0.013857 -0.018164 0.022152 0.003168 -0.017107 0.028738 0.007370 -0.020795
8a838345695bde6601698ff5907a02eb -2.986401 -2.406524 -0.492964 -1.362952 -0.106949 -0.150327 -1.392031 -0.023456 0.405726 0.646712 0.115535 0.130519 0.066329 -0.090160 -0.200837 0.093040 -0.220775 -0.021849 -0.029902 0.017445 -0.130876 -0.055691 -0.046275 -0.011203 -0.064035 0.095520 -0.024965 -0.058891 -0.026686 0.036956 -0.012347 -0.014759 0.033479 -0.020248 0.001871 -0.006674 0.002395 -0.032060 0.055464 -0.035120 0.020640 0.002578 0.015159 -0.019191 0.007512 0.043025 -0.003514 -0.018861 0.010107 -0.003787 0.011711 -0.037026 -0.034600 0.002428 -0.037527 -0.026145 -0.036744 -0.023045 -0.033304 -0.005943 -0.020755 0.000692 -0.014172 -0.049009 -0.004228 -0.029144 -0.009434 -0.006079 -0.030261 -0.022628 -0.015263 0.049843 -0.021778 0.010346 0.020152 0.006298 0.044647 -0.003270 0.011206 0.010691 -0.022376 0.011690 0.027808 -0.027202 -0.030488 0.003953 0.050858 -0.000788 0.002598 0.021251 0.034979 -0.012402 0.010554 0.005935 0.026850 -0.004542 0.004197 0.014814 0.006032 -0.031896
8a838345695bde6601698ff6152602ef -3.046297 -2.517918 0.218544 -0.973109 1.114851 1.511477 0.583705 -0.958445 0.746162 0.414721 0.153294 -0.135946 0.295630 0.049843 0.027255 0.120662 -0.054654 -0.068850 0.119719 0.013397 -0.018601 -0.034483 0.011872 -0.067826 0.024335 0.012423 0.038452 0.013714 0.008906 0.005771 0.024975 0.049699 -0.006904 0.036904 0.014675 -0.021657 0.019388 0.026795 0.009211 -0.052794 -0.027443 0.007326 -0.059698 -0.018018 -0.058329 0.014876 -0.074270 -0.022813 0.014651 0.010093 0.046571 -0.037816 0.063429 0.027134 -0.036090 -0.099465 -0.035278 -0.027337 -0.084008 0.017722 0.020708 0.037390 -0.031757 -0.012025 -0.032102 -0.026133 -0.083413 0.017907 -0.049949 -0.034470 0.030707 0.036026 0.003042 -0.012532 0.035302 0.018285 0.022363 0.023765 -0.019477 -0.002162 -0.053938 0.011382 0.026391 0.020366 -0.018594 -0.026953 -0.004493 -0.042533 -0.003219 -0.041715 -0.000970 -0.006918 -0.000715 0.007652 -0.046003 0.013854 -0.016992 -0.022005 0.025401 -0.030242
8a838345695bde6601698ff6601502f3 -2.962371 -2.436377 -0.753100 -0.650569 -0.007517 0.779734 -0.325715 -0.089281 0.062412 0.202435 0.060383 -0.093436 0.046734 0.034452 -0.048151 0.107996 -0.166202 0.036009 -0.019944 0.048042 -0.121609 -0.027963 -0.085999 -0.043789 -0.072523 0.099531 -0.011107 -0.059225 0.005513 -0.007666 -0.027380 0.015880 0.036589 -0.008000 0.002639 -0.000305 0.018281 -0.053138 -0.023354 -0.028824 0.004788 -0.022329 -0.002432 -0.017723 0.021071 0.036116 -0.026579 -0.014629 0.021376 -0.002093 0.023139 -0.065748 0.006994 0.009752 -0.047647 -0.026142 -0.022098 0.002879 -0.078706 0.007524 -0.038052 0.009183 0.018614 -0.028095 -0.003882 -0.011999 -0.013207 -0.014045 -0.041617 -0.001642 0.023959 0.033630 -0.000374 0.038726 0.009862 0.001356 0.040566 0.006227 -0.018569 0.016640 -0.025997 -0.016590 0.009242 -0.024717 -0.010362 -0.005806 0.018562 -0.027328 -0.001963 -0.000647 0.037279 -0.030693 0.007233 0.000093 0.009132 -0.006001 -0.022411 -0.023082 -0.014595 -0.002276
8a838345695bde6601698ff6a5fc02f7 -3.095054 -2.708300 2.402822 -0.264875 0.016393 0.275799 0.887276 -1.618161 0.082962 -0.192846 -0.142834 1.427277 0.900269 0.104518 -1.270794 0.226072 -0.165794 0.061345 -0.017508 -0.151071 0.020777 -0.097814 -0.006072 -0.057953 -0.103516 0.065349 0.065668 -0.054583 -0.025376 0.076122 0.064556 -0.000501 0.014238 0.018641 -0.015221 -0.021598 0.035310 -0.024787 -0.005848 0.010606 0.054507 -0.056278 0.016125 -0.066534 0.026359 0.010769 -0.068627 0.026374 0.018894 -0.026922 -0.003644 -0.056100 0.046696 0.006841 -0.008572 0.015251 -0.069775 -0.031888 -0.049909 -0.027261 -0.010064 0.020949 0.014135 0.050193 0.005153 -0.056138 0.011514 0.016405 -0.023468 0.013711 -0.052055 0.022932 0.039088 -0.001779 -0.016690 -0.055040 0.040249 0.004473 0.015752 0.006270 -0.015210 0.027786 0.038368 0.025473 0.006662 0.022083 -0.010235 0.005434 -0.027062 0.030443 0.061392 -0.017586 -0.001747 0.013234 0.000471 0.005050 -0.000760 -0.015156 -0.012764 0.013499
8a8383456a8215e2016b7414617d3f91 -2.860818 -2.474075 -0.856823 0.319063 -1.321673 -1.090757 0.648614 -0.603582 -0.226934 0.402948 0.208152 0.307719 -0.131362 0.644679 0.186369 0.114282 -0.128261 0.085214 0.069130 0.234261 -0.016611 0.113929 -0.074051 0.041375 0.106408 0.002985 -0.086875 0.016460 -0.012014 0.066961 -0.073017 0.065811 0.037971 -0.008616 0.027510 -0.009636 -0.007356 -0.004908 -0.037144 0.026321 -0.044368 0.002714 -0.049934 0.000767 -0.050307 -0.021898 -0.040163 -0.002684 -0.054771 0.002596 -0.016230 -0.004067 0.069819 0.054423 0.026066 0.017139 -0.000307 0.000171 -0.010072 -0.043881 -0.000007 0.015915 -0.012934 -0.033084 0.027853 0.021447 -0.024120 -0.025607 -0.004284 0.028501 0.018302 0.003159 -0.014945 0.001126 -0.046522 -0.004933 -0.014562 0.007139 0.011378 0.003919 -0.005941 0.029548 0.012078 -0.011787 -0.010794 0.019973 0.013415 -0.000173 0.011705 -0.010445 -0.024936 0.003467 0.000449 0.013116 -0.010140 -0.012559 0.000810 -0.003655 -0.009777 -0.012834
2c9fadbd7b285198017b29d10eca0032 -2.911113 -2.572926 0.677657 0.415558 -2.763513 -0.605535 -0.353964 -0.682043 -0.702159 0.384122 0.304074 0.464674 -0.093839 0.596953 -0.057521 0.006324 -0.006069 0.073541 -0.102261 0.125913 -0.072496 0.031011 0.034042 0.031161 0.131823 0.005565 -0.033875 0.016361 -0.054877 0.047070 -0.074250 0.045820 0.041673 -0.009609 -0.015253 0.007355 -0.013372 -0.012073 0.000586 0.016653 -0.036142 0.026484 -0.014073 -0.001300 -0.045901 -0.049677 0.000306 -0.006799 -0.029268 0.027806 -0.000049 0.009898 0.023047 0.020987 0.024846 -0.019247 0.008418 -0.011168 0.034853 -0.049298 0.002540 0.031379 -0.005049 -0.010634 0.008092 0.022852 -0.014563 -0.009600 -0.010726 0.020677 -0.014606 -0.024641 0.002181 0.001685 -0.027221 -0.022351 0.003738 0.008789 -0.020814 -0.003022 0.005363 0.009650 -0.002070 0.002590 -0.023341 0.007720 0.008454 -0.010948 0.006582 0.001322 0.014630 -0.015912 -0.019819 0.005623 -0.020240 -0.012602 -0.005654 0.019457 -0.010213 -0.000588
2c9fadbd7b285198017b29d149470036 -2.995095 -2.563560 1.091715 -0.389524 -1.898029 -1.132504 -0.361197 -0.478100 -0.659536 0.069847 0.226143 0.445209 -0.109014 0.680146 -0.013943 -0.053141 0.034775 -0.172203 0.104348 -0.054110 0.027717 -0.036907 -0.145191 0.073592 0.086946 -0.107152 0.064656 0.014004 0.011278 0.013351 -0.000131 0.128216 0.018405 -0.025479 0.005743 0.047135 -0.027654 -0.012916 0.027655 0.010822 0.018947 0.060241 0.030274 -0.036397 -0.033749 -0.040673 0.006516 0.056330 0.039302 0.009774 0.030948 0.012831 0.045746 -0.000123 0.030100 -0.037310 0.068503 0.036390 -0.036803 -0.027099 0.008438 -0.017077 -0.028974 0.032713 -0.035908 0.004959 -0.012130 -0.005761 0.018712 -0.010526 0.018396 -0.005724 -0.002962 -0.008503 0.023739 -0.011855 0.012424 -0.009738 -0.022599 -0.012975 0.008904 -0.012077 0.016218 -0.035567 0.025512 -0.010094 0.037215 0.016692 0.003625 -0.003820 0.007021 -0.006327 -0.016895 -0.003886 -0.015615 0.027183 -0.017210 0.009813 -0.030499 0.001764
2c9fadbd7b285198017b29d16716003a -2.996219 -2.561283 1.086517 -0.408585 -1.902749 -1.143044 -0.350394 -0.476698 -0.662599 0.085044 0.235870 0.439996 -0.131313 0.669498 -0.016026 -0.025504 -0.039516 0.000660 0.068980 -0.017230 -0.037862 -0.021192 -0.043404 0.058122 0.043747 0.002618 0.022953 0.002558 -0.016753 -0.009037 -0.062773 0.059029 0.045120 -0.002878 0.003053 -0.019427 0.015757 -0.006193 -0.028681 0.011731 -0.013057 0.062000 -0.026513 -0.063722 -0.036213 -0.025210 0.005077 -0.008366 -0.039040 0.061658 -0.005454 0.016597 0.030175 0.006419 -0.000196 -0.034771 -0.011288 0.021559 -0.014478 -0.020278 0.020329 -0.004189 -0.000931 -0.004251 0.011966 -0.012291 0.006106 0.014946 0.023804 0.008557 0.013230 0.000197 -0.009745 -0.048794 0.001562 0.018756 -0.019009 -0.039410 0.010985 0.011370 -0.003857 -0.015663 0.003832 -0.048809 0.037042 -0.000197 -0.005172 0.011318 0.000326 -0.024772 -0.005930 0.009309 0.021260 -0.010134 0.024364 -0.007680 -0.007236 -0.000513 0.016087 -0.011263
2c9fadbd7b285198017b29d17e74003e -2.965474 -2.579822 1.087198 -0.235273 -1.842925 -1.338706 -0.510906 -0.792155 -0.753167 0.085592 0.498910 0.376632 -0.129403 1.456139 0.292700 -0.036578 -0.035505 0.145791 -0.008155 0.053176 -0.119786 0.007255 -0.017412 0.043755 0.108087 -0.029708 0.012531 0.007088 -0.024591 0.032207 -0.083126 0.032245 0.068538 0.000661 -0.005610 -0.010371 -0.007049 0.042958 0.028023 0.028491 -0.037759 0.035680 -0.023561 0.014525 -0.068271 -0.009357 -0.011259 -0.000859 -0.032651 0.049286 -0.025068 -0.008511 0.022329 0.030069 -0.001149 0.014055 0.018757 -0.026939 0.011735 -0.020345 -0.018827 0.000446 0.004810 -0.002634 0.027347 -0.011060 -0.003988 0.016102 -0.015768 0.027964 0.011080 0.005480 -0.032867 -0.017362 0.003433 -0.028605 0.003429 -0.010352 0.017457 0.012182 0.024489 -0.004389 -0.020136 -0.003988 0.000310 0.016211 0.003824 -0.010636 -0.009024 0.004301 0.011641 0.003286 -0.007471 0.004160 0.007260 0.007045 0.002957 -0.008899 0.022566 -0.005066
8a838345673ec61901673fda7d1d07f3 -2.903149 -2.329820 -2.171502 -0.688990 0.699738 -0.797187 0.685872 0.197302 0.241790 0.141119 -0.138996 -0.033284 -0.137872 0.014758 0.114183 0.067522 -0.041795 0.101112 -0.098106 -0.065726 -0.034903 0.043842 -0.026052 0.011495 0.027299 0.005524 -0.015720 -0.021980 -0.021255 -0.018895 0.006155 0.009813 -0.003898 0.008910 0.026937 -0.048408 0.004755 -0.051078 -0.019666 0.058027 0.017479 0.001452 -0.012816 0.009845 0.034102 -0.014106 0.027345 -0.013121 0.041731 -0.004006 0.013049 0.013256 -0.027198 0.003999 -0.003390 -0.018910 -0.008641 -0.013479 -0.024864 0.013932 -0.001695 0.054795 -0.001210 0.027881 0.027898 0.003183 0.009945 -0.005301 0.005652 0.016743 0.025266 -0.011690 0.014798 -0.003407 0.012811 -0.017191 -0.002324 -0.038511 0.012310 -0.021587 0.009790 0.013532 0.025115 -0.010794 -0.018793 -0.001503 -0.014645 -0.015390 0.013265 0.023116 0.014067 -0.017004 0.010339 -0.001401 0.001170 -0.000297 0.006503 0.031133 0.022885 -0.008128
8a838345673ec61901673fdac8a907fd -3.004993 -2.411573 -0.763768 -0.832674 0.142510 -1.713111 1.488485 0.370565 -0.485904 -0.600964 -0.279813 0.165166 -0.324456 0.073963 0.113794 0.072162 -0.164012 -0.033616 -0.075382 -0.130396 0.028884 0.156115 -0.101495 -0.017722 0.042493 -0.020677 -0.000736 -0.011164 0.033970 0.037125 -0.008830 -0.000550 -0.061950 -0.002527 -0.066448 -0.027737 -0.017398 0.034065 -0.013364 0.051395 -0.007870 0.002658 0.037566 0.028707 0.124588 0.004874 0.045008 0.008573 0.036084 -0.012039 -0.068931 0.011860 -0.020781 0.039821 -0.006915 -0.020688 0.050969 0.054083 -0.046617 0.039345 0.002613 -0.001964 -0.032494 0.026604 0.033612 -0.038051 -0.021572 -0.035052 -0.013813 0.024412 0.040741 -0.016614 0.047109 -0.080366 -0.031691 0.025196 -0.005124 -0.014254 -0.016904 -0.046043 -0.003770 -0.015774 0.005649 -0.005446 -0.043291 -0.023020 -0.036980 -0.015994 0.029687 -0.000871 0.054472 -0.004891 -0.007815 0.006495 0.036511 0.001860 0.000780 -0.000221 0.022753 -0.051304
8a838345673ec61901673fdb1b680801 -3.145403 -2.575123 1.740681 -1.404060 0.004989 0.145391 0.288928 -0.532140 -0.034998 -0.124816 0.046246 0.174712 0.073095 0.037968 -0.126977 0.036879 -0.074876 -0.040355 -0.172497 -0.095190 -0.108787 0.012678 -0.023321 -0.042985 0.080540 0.047659 0.007135 -0.072240 -0.006604 0.057484 0.008184 -0.018104 -0.002527 0.055643 -0.008916 0.034334 0.007170 -0.057226 0.016234 0.040766 -0.016789 -0.108197 0.008700 0.055812 0.076377 0.000630 0.034801 0.002456 -0.015150 -0.008393 0.050016 0.067671 -0.013447 0.040304 -0.022350 0.009921 0.004568 0.007519 0.016743 0.042568 -0.016622 0.047663 -0.039163 0.033078 -0.020177 0.024961 -0.030033 0.082387 0.039620 0.051664 0.030433 0.002925 0.078177 -0.010948 -0.049793 -0.054798 -0.022826 -0.077819 -0.009691 0.019374 -0.069694 0.011660 0.014080 -0.026280 -0.048736 0.048754 -0.035431 -0.012377 -0.011513 0.036915 0.037734 0.074682 -0.004887 0.005784 -0.017051 0.008638 0.068369 0.009230 0.052954 0.037321
8a838345673ec61901673fdb87dc0805 -2.959988 -2.327520 -1.894271 -1.065117 1.056782 -0.825402 0.633521 0.584123 -0.132330 -0.414081 -0.210095 -0.148118 -0.223095 0.143805 0.182176 0.071916 -0.157158 0.014809 -0.106527 -0.063666 0.021741 0.103933 -0.041067 0.032609 0.062561 0.001335 0.004413 0.009758 -0.020299 0.011819 -0.017548 -0.027357 0.014230 0.034742 -0.010077 -0.075354 0.013658 -0.006445 -0.023025 0.010289 0.018018 -0.028466 0.007190 -0.004303 0.058331 0.042964 0.089132 -0.036784 0.031069 0.024722 0.016301 0.043717 -0.008236 -0.006881 -0.034983 -0.031547 0.027226 -0.038924 -0.023936 0.033569 -0.002351 0.038714 -0.038723 0.028278 0.049268 0.030054 -0.014659 0.028329 -0.013346 -0.002472 0.033085 0.022503 -0.032453 -0.010259 -0.020825 -0.021470 -0.013708 -0.012032 -0.008809 0.016981 0.052962 -0.005734 0.015454 -0.064830 -0.005027 0.000662 -0.009963 -0.009968 0.007979 0.036068 -0.001226 0.023007 -0.012603 -0.009560 0.022900 0.025875 0.000758 -0.015582 -0.002031 -0.050242
8a838345673ec61901673fdbcc7e0809 -3.018760 -2.491017 -0.350658 -0.749268 1.390107 1.292299 1.283661 -0.878614 0.701052 0.244915 0.071887 -0.185410 0.221387 0.082850 0.149506 0.128410 -0.028256 0.025204 0.043986 -0.100889 0.054064 0.033722 -0.031912 0.075205 0.036227 -0.085761 0.022334 0.060545 -0.052470 0.035214 -0.025335 -0.025224 -0.015444 0.028673 -0.033562 -0.083886 0.027405 -0.024069 0.036411 0.071754 0.005937 0.050633 0.044116 0.029710 0.162919 0.034390 0.066923 -0.006389 0.036210 -0.014679 -0.080643 0.018748 -0.034430 -0.003274 -0.038613 -0.011122 -0.025508 0.072149 -0.034969 0.017455 -0.022589 0.036173 -0.005240 0.018129 0.063755 0.027877 0.000427 -0.013131 0.017652 0.026773 0.015679 0.000019 -0.079156 -0.033049 0.014288 -0.051919 0.015926 -0.011154 0.019820 0.002882 0.079748 0.028711 -0.011081 -0.051727 -0.006846 0.024533 0.012294 -0.024436 -0.042959 0.007242 0.025446 -0.043973 0.008353 0.004131 -0.015754 -0.016232 -0.006039 0.038180 -0.021791 0.011024
8a838345673ec61901673fdc4a530817 -3.042779 -2.400848 -0.228062 -1.758650 0.292215 -0.190633 -1.449435 0.353966 0.047542 0.090213 0.015940 0.002842 -0.012735 0.040148 -0.147129 -0.023234 -0.056954 0.008291 -0.050330 -0.123833 -0.039396 0.023730 0.050906 -0.031523 0.075957 0.020017 -0.011761 -0.054985 -0.000584 -0.010584 0.010430 -0.057045 0.011478 0.032098 0.001640 -0.013776 0.008221 -0.008716 -0.031458 0.028994 0.000264 -0.010996 0.012089 -0.001727 0.054403 -0.013195 0.030538 -0.001614 0.016749 -0.000407 -0.016684 0.007304 -0.013492 -0.001835 -0.027672 -0.008048 -0.023061 0.000158 0.007312 0.043262 -0.013224 0.031645 -0.024972 -0.016113 0.049157 0.005136 0.007307 -0.002713 -0.041200 -0.000842 -0.018909 -0.003759 0.008479 -0.003518 -0.000276 -0.028582 -0.005684 -0.023884 0.017118 -0.016472 0.021304 0.057154 0.031515 -0.023345 -0.031008 0.006151 -0.008412 -0.027819 -0.010924 0.010894 -0.026297 0.014765 0.002651 -0.016656 -0.022092 0.008401 0.006807 -0.005415 0.004243 -0.009911
8a838345673ec61901673fdc0fa50813 -2.904071 -2.331166 -2.163354 -0.687750 0.687939 -0.780049 0.684230 0.207211 0.227132 0.134703 -0.137113 -0.025926 -0.138256 0.012035 0.121767 0.109090 -0.134700 0.045799 0.000978 -0.051809 0.006157 -0.026617 0.004155 0.018038 0.058011 0.025610 -0.023858 -0.048777 -0.034792 0.043832 0.008496 -0.013645 0.022012 0.013128 -0.053662 -0.033424 0.062735 -0.002685 -0.048910 0.037223 0.000305 -0.012559 -0.017872 0.024840 0.045521 0.007724 0.033770 0.005585 0.052104 -0.046015 -0.000489 0.009652 -0.003589 -0.003881 -0.018228 -0.003445 0.008186 0.023571 -0.031923 0.024877 0.009037 0.056736 0.004933 0.027033 -0.033246 0.005915 0.029576 -0.006616 -0.004766 -0.017249 0.020318 -0.029833 -0.062352 -0.037808 -0.039984 -0.017829 -0.020631 -0.006491 0.061491 0.037757 0.011780 0.040293 0.048375 -0.074248 -0.046646 -0.023977 -0.067040 0.006513 0.027671 0.028134 -0.022415 0.010205 -0.024640 0.006388 0.037613 -0.018651 0.006474 -0.017655 0.010190 -0.040633
8a838345673ec61901673ecfefe300a2 -2.767689 -2.375576 -2.804987 1.095012 -1.133499 0.862085 0.474247 0.462269 -0.665182 -0.177171 -0.295618 0.184777 0.268188 -0.133819 0.868069 0.240440 -0.272117 -0.127045 -0.009736 -0.088465 0.059505 0.155716 -0.098602 -0.148072 0.012199 0.133569 0.215432 -0.009990 -0.085193 -0.008694 -0.112948 -0.015834 -0.017781 -0.036845 -0.025490 0.042762 0.055594 -0.005115 0.001919 0.073774 0.025550 -0.005178 0.030776 -0.066793 -0.007159 -0.008809 0.016154 -0.013313 -0.051161 -0.033032 -0.013561 -0.008255 0.025200 -0.050996 0.014410 0.018937 -0.028656 0.016130 0.027134 -0.054839 -0.020454 -0.002126 0.026508 0.000046 -0.064785 -0.006677 0.018963 0.015418 -0.033766 0.000251 -0.038667 0.020207 -0.025624 0.023302 0.024556 -0.031548 -0.000548 -0.018191 -0.038885 -0.000747 0.041818 0.005475 0.023017 -0.022272 0.034684 0.037195 -0.022258 0.003446 -0.007362 -0.019416 0.008209 -0.018280 0.029202 0.015199 -0.027894 0.028211 0.011274 -0.000218 -0.013047 0.029197
8a838345673ec61901673ed8012c013b -2.861349 -2.678299 0.210478 2.100888 0.334339 3.093785 -0.055929 -0.392756 -0.351851 0.994722 -0.792968 0.350065 -1.717412 -0.064772 0.480604 0.033591 0.035324 -0.253569 0.068368 0.115657 0.098931 0.030624 -0.106565 -0.120103 0.084476 0.030041 0.143704 0.027320 0.023357 0.025472 -0.043473 0.045723 -0.005461 -0.106869 -0.117799 -0.006372 0.050466 -0.033799 0.029869 0.074995 0.032924 0.028622 0.026073 -0.039208 0.017287 0.041762 0.004887 0.048259 0.040746 -0.043847 -0.060105 0.024474 0.015748 0.012783 0.002933 -0.027619 -0.061594 -0.014468 0.062136 0.009467 -0.007216 -0.056905 0.003070 -0.009966 -0.054237 -0.022783 -0.038867 -0.044621 -0.013917 0.030519 -0.040264 0.023421 -0.001201 -0.044543 -0.004748 -0.031678 -0.030079 -0.052319 -0.003504 0.009793 0.032712 -0.025149 0.032452 0.026817 0.023641 -0.026430 -0.008242 -0.013842 -0.000440 -0.008739 -0.000329 -0.025099 -0.008261 -0.021057 0.019682 0.035635 -0.004541 0.001565 -0.048241 -0.000470
8a838345673ec61901673ed92af7015a -2.986267 -2.395067 -1.257882 -0.749173 0.615483 -1.235288 0.815383 0.699809 -0.302555 -0.751726 -0.869896 1.107176 1.131481 -0.457363 2.343735 0.136110 -0.003285 -0.094332 0.073013 0.030562 -0.098281 -0.021008 0.040201 -0.160419 0.010113 0.082421 0.140140 -0.077151 -0.147744 -0.056348 -0.137314 0.056021 -0.001888 -0.022034 -0.021694 -0.043851 0.058995 0.003051 -0.001071 0.083758 0.015741 0.001538 0.019355 -0.049479 0.026498 -0.050061 -0.013716 -0.081995 -0.042372 0.030925 0.020815 -0.019401 -0.046408 0.003977 0.008729 0.006178 -0.102067 0.041326 -0.031907 -0.025990 0.015665 -0.066242 -0.006047 -0.026393 0.012395 0.042882 0.061524 0.005144 0.014041 0.002410 -0.005192 0.007716 0.069982 -0.002838 0.058328 0.071861 0.003876 -0.015154 -0.022194 0.024020 -0.027961 0.022798 -0.038612 0.021384 -0.040857 0.030106 0.022579 0.035382 0.021816 0.046114 -0.018188 -0.010542 -0.010526 -0.028648 -0.003932 -0.038021 -0.015556 0.007527 0.037607 0.010963
8a838345673ec61901673ed0464300b1 -2.866199 -2.623864 0.040883 1.385901 -0.441197 2.750325 -1.207171 -0.774475 -0.476027 0.756721 -0.815460 0.624123 -1.941588 -0.265585 0.405242 0.015358 -0.027614 -0.197074 -0.077866 0.005213 0.094383 -0.035038 -0.059521 -0.171038 0.105183 0.097688 0.212725 -0.044648 -0.046422 -0.014325 -0.063648 0.030592 0.030681 -0.023669 -0.113361 -0.034193 0.071582 -0.003705 -0.031255 0.081200 0.054680 -0.064858 0.066641 0.010111 0.058324 0.022996 -0.017146 0.055459 -0.015394 0.012416 -0.028415 -0.066359 0.066286 -0.032782 0.033862 0.049188 -0.015557 -0.025129 -0.020001 -0.057172 0.059599 -0.051573 0.000436 -0.030164 -0.010481 0.039991 0.019175 -0.008352 0.019219 -0.008696 0.002023 0.052891 -0.007160 0.011325 -0.022982 -0.016548 -0.087437 0.063538 0.054962 0.008348 0.009645 0.053884 0.011949 0.036551 0.028793 -0.024078 -0.026273 0.025631 -0.039499 -0.012485 0.027302 0.024085 -0.048244 0.059454 0.027992 -0.067042 -0.000507 -0.017524 -0.002820 -0.010285
8a838345673ec61901673ed890c0014e -2.933693 -2.690220 0.848263 2.076335 0.632189 2.877706 0.177131 1.595714 -0.421141 0.885326 -0.488805 0.118947 0.938645 0.135751 1.525024 0.055241 0.199651 -0.130487 0.035062 0.079388 -0.027232 -0.033399 -0.029991 -0.145966 0.054484 -0.063262 0.184940 -0.033134 -0.088334 -0.012326 -0.113062 0.042662 0.038726 -0.010733 0.013903 -0.035140 0.091649 -0.039889 0.100787 0.090047 -0.049407 -0.046926 0.025837 0.016999 -0.006005 0.038576 0.024884 -0.044247 0.007661 0.014674 -0.013995 -0.054651 -0.024213 -0.026386 -0.047228 -0.012526 -0.010014 -0.016958 0.019991 0.008331 0.070408 -0.012545 0.013974 0.038561 -0.025548 0.003384 -0.036405 0.059037 0.040096 0.036794 0.033467 0.029183 0.018957 0.045757 0.033695 -0.004706 0.041037 0.026759 -0.025581 -0.009107 -0.009949 -0.016970 -0.008801 0.016061 0.001937 0.018708 -0.011504 -0.029603 0.005016 0.001910 0.000837 0.005316 0.004354 -0.012572 -0.007354 0.031496 0.006436 0.008550 -0.008166 -0.012129
8a83834568fa429a0169143440422fdc -3.131384 -2.638515 2.311762 -0.553992 0.444244 -0.000027 0.340007 0.758682 0.062213 0.734914 0.163374 -0.123774 0.451859 0.296950 -0.241646 0.053688 -0.096546 0.058763 -0.064050 -0.022687 0.023072 0.008618 -0.085267 -0.031203 0.004862 0.044916 0.020142 -0.029831 0.003096 0.026413 0.010667 -0.015008 -0.074954 0.033383 0.038020 -0.025304 -0.041952 0.004409 0.030625 0.026177 0.001935 -0.001761 0.015112 0.013182 0.022010 -0.012840 -0.036311 0.053203 -0.025489 0.001345 -0.006987 -0.007712 -0.034514 0.009704 0.039211 -0.008105 -0.045627 -0.013383 0.039502 0.022162 0.077209 -0.025915 0.003005 -0.024292 0.006295 -0.001564 0.039610 -0.000582 0.016400 -0.011966 0.000622 -0.046038 0.027160 0.030388 -0.022665 0.006517 0.000372 -0.012135 0.013919 0.022108 0.030463 0.001704 0.029050 0.002799 0.030618 -0.011625 0.017004 0.014563 -0.024870 0.002842 -0.004528 -0.026575 0.063614 0.003083 0.007772 -0.019632 0.010856 0.018028 0.001834 0.012538
8a83834568fa429a016914346b982fe0 -3.131687 -2.638694 2.307872 -0.553410 0.448374 0.001933 0.347995 0.757165 0.057508 0.736482 0.161795 -0.122103 0.448527 0.290958 -0.235201 0.067885 -0.138254 0.041389 -0.073272 -0.093233 0.007674 0.014041 -0.074791 0.001979 0.036048 0.037550 0.036859 -0.000509 0.009862 0.008712 -0.005090 -0.008722 -0.091306 0.052935 0.026109 -0.012277 -0.032791 0.018006 0.042279 0.018948 -0.025193 0.000294 0.004294 0.029128 0.020555 -0.023581 0.011459 0.053854 -0.030768 0.007997 -0.001187 -0.029213 -0.038167 0.021238 0.040536 -0.021994 -0.024063 -0.013558 0.045266 0.029482 0.074464 -0.026634 0.013568 -0.022688 -0.010136 -0.002829 0.035746 0.027386 0.009624 -0.010844 0.006358 -0.037288 0.024281 0.044124 -0.039709 -0.009143 -0.002468 -0.016048 -0.003338 -0.004116 0.022352 0.000395 0.024198 0.002326 0.039016 0.003580 0.021961 0.001393 -0.018743 0.028468 -0.003470 -0.035333 0.067105 -0.016021 0.004267 -0.031039 0.000738 0.007383 0.004527 -0.004059
8a83834568fa429a0169143494762fe4 -3.132216 -2.638742 2.313978 -0.560230 0.446024 0.009350 0.338698 0.758154 0.051722 0.727838 0.153353 -0.121122 0.448864 0.294262 -0.243871 0.039056 -0.078765 0.043119 0.018496 -0.075158 0.045701 -0.022653 -0.016873 0.001651 0.030909 0.024597 0.029355 -0.007926 -0.019432 -0.017267 0.006955 -0.009357 -0.059690 0.036546 0.009009 -0.000908 -0.007689 0.008427 0.021050 0.003138 0.000247 0.022163 0.007803 -0.008450 -0.002020 -0.020964 0.023210 0.036903 0.015184 0.018301 -0.001969 -0.011373 -0.011616 0.008072 0.010383 -0.020324 -0.019939 -0.016013 0.014245 0.035935 0.069855 -0.007108 0.001118 -0.030931 -0.006243 -0.002410 0.035148 0.032997 0.004807 0.001137 0.000440 -0.024594 0.030395 0.010150 -0.018217 -0.024158 -0.013870 -0.001106 -0.000398 0.004338 0.012978 -0.009294 0.014572 -0.013844 0.021368 0.002358 0.015369 -0.004083 0.004882 0.003418 -0.015101 -0.039947 0.037640 -0.009721 -0.007223 0.004765 -0.016560 0.009334 -0.010379 -0.005773
8a83834568fa429a01691434b3242fe8 -3.160700 -2.683747 2.735113 -0.500832 0.751979 0.618968 0.770206 0.419807 0.190481 0.716910 0.204903 -0.189654 0.549687 0.325347 -0.199367 0.074272 -0.087001 0.063709 -0.026420 0.043992 0.025940 0.017991 -0.067268 0.011541 0.094515 0.046650 0.009037 -0.001317 0.045188 -0.003648 -0.006607 -0.013001 -0.078689 0.063132 0.037527 0.021793 0.007985 0.036599 -0.007593 -0.018002 -0.021876 0.024177 -0.028644 0.005684 -0.004436 0.009969 0.004386 0.007792 0.011454 0.027849 -0.012335 -0.049904 -0.017553 0.000955 0.039313 -0.022871 -0.060180 0.018525 0.034636 0.032632 0.058430 -0.013477 -0.029134 0.011148 0.017472 0.020946 0.008545 0.031736 -0.002895 -0.004154 0.024360 -0.011779 0.017141 0.033753 -0.018980 -0.003318 -0.013863 0.013332 0.011077 -0.013248 0.034430 -0.021718 0.007188 0.011025 0.039509 0.007554 -0.024087 -0.020098 -0.021153 0.006639 -0.016077 0.004393 0.040889 -0.009763 0.012672 0.009736 -0.020382 0.006277 0.010463 -0.001930
8a83834568fa429a01691434f5702ff0 -3.160458 -2.683989 2.737213 -0.492935 0.754504 0.613037 0.775901 0.423101 0.195604 0.717670 0.208375 -0.193840 0.549789 0.333284 -0.203903 0.069266 -0.066641 0.042443 -0.090801 0.068681 -0.012906 -0.040206 -0.077902 -0.004106 0.041365 0.043485 -0.018657 -0.009494 -0.000973 0.008080 0.010783 0.003363 -0.055815 0.023848 0.022846 -0.011802 -0.032764 -0.005788 0.023178 0.018357 -0.002204 0.018548 -0.004819 0.024003 0.013749 -0.026541 -0.014279 0.017822 0.008057 -0.005118 -0.018664 -0.007788 -0.038225 -0.018996 0.010903 -0.018977 -0.050449 -0.025057 0.029222 0.024437 0.084892 -0.008972 -0.010939 -0.016305 0.017019 0.023012 0.035411 0.007372 -0.000898 -0.002445 0.015729 -0.025222 0.007339 0.022737 0.004045 -0.026515 -0.003947 -0.011923 -0.002777 -0.004275 0.022442 0.001300 0.052174 -0.003766 0.020258 -0.016897 0.014397 -0.003959 0.005089 0.015431 -0.007760 -0.038263 0.042363 0.001103 -0.002875 0.001783 -0.013749 0.016323 -0.020540 -0.006278
8a838345673ec61901673f6b134d069b -2.904472 -2.330684 -2.153678 -0.693010 0.683446 -0.791602 0.683197 0.201898 0.229242 0.138642 -0.144210 -0.037941 -0.136494 0.012542 0.093718 0.053632 -0.007991 0.074261 0.001911 0.041888 -0.088238 -0.054448 -0.015169 0.045089 -0.021241 0.000752 -0.051918 -0.035632 0.015800 0.000716 -0.015280 0.004844 -0.029037 0.026506 -0.031201 -0.008642 -0.017617 -0.008632 0.016309 0.035281 0.015292 0.003378 0.032200 -0.000666 -0.002898 0.030676 -0.047627 -0.007839 0.040225 -0.018686 0.027160 0.039524 -0.007196 0.014571 -0.048929 -0.000646 -0.021438 -0.010974 -0.000567 -0.017954 0.019368 0.038013 -0.007648 0.008527 0.025881 0.017679 -0.047019 0.006824 0.010576 0.005275 -0.007095 -0.022567 0.041570 -0.009062 0.016180 -0.004318 0.010595 0.012458 0.010991 -0.017505 -0.016962 0.028693 -0.012483 -0.004672 -0.003616 -0.009929 -0.019332 0.018532 0.016092 -0.029214 -0.024307 0.032092 0.003515 -0.021731 0.030477 0.001181 -0.011580 0.005526 -0.008880 0.011507
