118 50
8a838345673ec61901673ece37410055 -5.035940 1.370561 -0.883874 -0.755984 -1.265652 -0.865827 0.249154 0.018792 0.135248 0.799581 0.794399 0.937783 -0.289216 0.200992 0.060329 -0.123587 0.019003 -0.036802 -0.092402 -0.018584 0.000231 -0.018214 0.035726 -0.029071 0.002233 0.007767 0.025896 0.099513 0.006603 -0.010724 -0.029501 0.010743 0.051476 -0.026700 -0.002301 0.024158 0.030852 -0.020949 -0.052572 0.056215 -0.055743 0.065545 0.064624 0.033959 0.063731 0.013287 0.007442 0.015039 0.026298 -0.043720 -0.014832 0.031203 0.049254 -0.006905 0.009571 -0.001555 0.030593 -0.004435 -0.000056 -0.020739 0.007006 0.004870 0.005692 0.007283 -0.015661 -0.043459 0.012554 0.029746 -0.050318 0.000952 0.016655 -0.011852 -0.005399 0.015326 -0.013598 -0.000782 -0.008624 0.008109 0.037614 -0.014337 0.001921 0.015925 0.018244 -0.004692 -0.041769 -0.001965 0.014395 -0.010901 0.049771 -0.019085 -0.004759 -0.010930 -0.037546 0.008929 -0.017431 0.005735 0.007534 -0.006702 -0.002285 0.017945
8a838345673ec61901673ecec7a4006b -5.035078 1.362464 -0.891123 -0.746607 -1.273683 -0.860581 0.247058 0.019341 0.125994 0.802275 0.796915 0.918447 -0.293387 0.202168 0.086827 -0.162202 -0.044790 -0.074328 0.000775 0.002990 -0.110874 -0.038798 0.039196 -0.036962 0.020064 0.050271 -0.013386 0.089060 0.004610 -0.034260 -0.028032 0.018538 0.034124 -0.055355 -0.062393 0.041663 0.067881 -0.009319 -0.053705 0.060844 -0.026161 0.087916 0.028895 0.039814 0.047194 0.003501 -0.004931 0.019216 -0.000168 -0.052181 0.014561 0.054584 0.024324 -0.051235 0.000704 0.001936 0.000085 -0.011068 -0.016122 0.033209 0.014413 -0.000092 0.003025 0.020897 -0.016032 -0.007714 0.011582 -0.004103 -0.008557 -0.016025 0.007468 0.009933 -0.015009 0.033072 0.010101 -0.033105 0.017280 -0.033605 0.013665 0.001524 0.007929 -0.017528 0.016055 -0.031770 -0.003862 0.026082 0.002014 0.023744 -0.015635 -0.018777 0.005386 -0.004338 0.021736 -0.012726 0.010632 0.000103 0.020310 0.006145 0.006495 -0.009971
8a838345673ec61901673ecf2740007e -5.077014 2.083701 -1.414350 -0.751534 -0.965768 -0.062520 1.004101 -0.849982 0.124186 1.212183 0.114106 1.596734 -0.359611 0.499175 0.050105 -0.227743 0.046685 0.006493 -0.051161 -0.078752 0.006776 -0.042768 0.029829 0.028663 0.026886 -0.016025 -0.002350 -0.006815 0.032655 0.001846 -0.039738 -0.025381 0.000815 -0.020623 0.034323 -0.016524 -0.023227 -0.062729 0.018296 0.003274 0.067942 0.001414 0.077618 0.045210 0.045460 0.016344 0.032001 -0.045976 0.020585 -0.052524 0.010911 -0.048436 -0.004660 0.012571 -0.027304 -0.018190 -0.015947 0.028563 -0.013787 -0.032150 -0.036051 0.035448 0.028732 -0.003470 -0.026160 0.044061 -0.018254 0.001776 -0.005546 0.010272 -0.001003 0.003686 0.021099 -0.030223 -0.007996 0.043592 0.019672 0.061849 -0.047517 0.028325 -0.000395 0.007228 -0.023371 0.019062 0.035809 -0.018183 -0.007083 -0.033930 -0.002442 0.020480 -0.008162 -0.001971 0.024589 0.013775 0.008474 -0.002001 -0.005435 -0.003794 0.006283 -0.011551
8a838345673ec61901673ecd4877002d -4.953013 -2.206972 1.454462 -1.189399 -0.206792 -0.973438 0.287002 0.699229 -0.406379 0.092064 0.419654 -0.186916 -0.202420 -0.024146 -0.195191 0.213537 0.227701 0.070931 -0.178750 -0.037944 -0.164243 0.018971 0.020500 -0.040479 -0.127107 -0.054455 -0.048203 0.185557 0.005287 0.175853 -0.015285 0.168558 0.185986 -0.086440 0.160035 -0.116967 0.069397 -0.020853 0.053167 -0.076467 -0.002733 -0.062143 -0.026632 -0.042239 -0.016385 -0.011885 0.012530 0.005092 -0.027585 0.011299 0.032381 0.033007 -0.013789 0.008259 0.017364 -0.015067 0.008397 -0.019559 0.021189 0.023615 0.006631 0.035080 0.021866 0.014505 0.023714 -0.019463 -0.012133 -0.004640 -0.008231 0.002372 -0.001077 -0.018714 0.012403 -0.019815 -0.031302 -0.001854 0.002601 0.016958 0.007828 0.004290 0.034436 -0.021668 0.000510 0.005204 0.005203 -0.003267 0.001135 -0.005630 -0.002319 0.000800 -0.001777 -0.007798 0.009439 -0.000966 -0.000957 0.012633 0.010399 0.011990 -0.003619 -0.004534
8a838345673ec61901673ecddb630041 -5.037574 1.628166 -1.128879 -0.436007 -1.122509 -0.126696 0.038737 -0.665309 0.373400 0.854465 0.029446 0.982203 -0.206365 0.352233 0.065067 -0.060947 0.138068 -0.072190 -0.004290 0.007517 -0.055403 0.005431 0.053878 -0.040017 -0.004000 0.043713 0.019657 0.038104 -0.098670 0.009176 0.055697 0.043409 0.081857 0.010197 0.036584 -0.016539 0.013383 0.040277 0.006872 -0.044523 -0.001099 0.000385 0.005399 -0.031625 0.014912 -0.035956 -0.058838 -0.025583 -0.049850 -0.001518 0.053008 -0.023665 -0.037669 0.039936 0.019611 -0.048218 -0.063559 -0.044948 -0.027305 -0.018373 -0.039928 -0.041580 -0.021200 0.021890 0.012589 0.074893 0.027017 0.016917 0.059039 0.002466 -0.044350 0.004063 -0.027739 -0.023901 -0.009358 -0.010418 -0.018383 -0.037566 0.000109 -0.044825 -0.032893 0.001192 -0.005045 -0.026963 -0.001340 -0.027293 -0.005010 0.038994 -0.020552 0.018708 -0.011210 0.013696 -0.033436 -0.005182 -0.010648 -0.026148 -0.015255 -0.003509 0.003656 0.009516
8a838345673ec61901673ecf738f008e -5.060137 0.339808 -0.150333 -0.861806 -0.351710 0.616340 0.831461 -1.265426 0.312962 1.638687 0.386122 1.454620 -0.460598 0.717073 -0.007551 -0.005656 0.148123 0.010979 -0.065648 -0.065007 -0.016303 -0.098654 0.035135 0.067944 -0.064722 0.052682 0.043223 -0.001436 -0.073936 0.073617 0.017405 -0.005643 -0.008188 0.043735 -0.011096 0.012608 -0.005196 0.098325 0.002718 0.005409 0.002054 -0.102125 -0.087903 -0.039672 -0.108085 0.056433 -0.056239 0.069563 0.001255 0.107196 -0.086666 -0.018559 -0.018513 -0.001956 -0.014299 0.044720 0.004791 0.029659 0.031064 0.024832 0.037014 -0.018929 -0.036427 -0.010818 -0.010356 -0.030349 0.003866 -0.048707 -0.012023 -0.001122 0.029944 -0.016607 -0.007917 0.020806 0.015795 0.018154 0.006386 -0.020153 -0.000798 0.016038 -0.012024 0.009245 -0.005915 0.018304 -0.015855 0.001509 -0.001069 -0.004705 0.017648 0.009476 0.011316 0.003876 0.016923 -0.001914 -0.000428 -0.000332 -0.006321 0.002347 -0.003163 0.004950
8a8383456788d6e00167a1ac5a2a4000 -4.994602 0.529584 0.674479 -1.071963 -0.338666 -1.171125 -0.809332 -0.973013 1.136072 -0.263053 -0.175617 -0.329503 0.160606 0.163397 -0.047915 0.072418 0.184783 -0.020168 -0.040171 -0.009711 -0.077959 -0.027778 -0.042613 -0.069352 -0.031112 -0.007729 0.009950 -0.077890 -0.129134 0.138347 0.110254 -0.110940 0.012237 -0.020248 0.059542 -0.013393 -0.096708 0.041219 -0.032873 -0.044986 -0.059323 0.038589 -0.061151 0.004376 -0.103792 -0.037195 0.038207 -0.095900 0.056840 -0.071119 0.019809 0.003075 0.033447 -0.039657 0.025899 0.050953 -0.018719 0.027532 -0.007706 -0.035424 -0.027069 -0.001897 -0.041755 0.012632 -0.013273 -0.000010 0.010429 -0.011360 -0.025664 -0.005347 0.016897 0.049041 0.027360 -0.027522 0.020063 0.023600 -0.009369 0.014828 0.010393 -0.036189 -0.005971 0.015866 0.045497 -0.022754 0.004038 -0.004910 -0.010276 0.002220 0.012368 -0.016976 0.017740 0.005704 0.009289 0.010592 -0.000738 0.011880 0.005653 -0.004774 -0.007349 -0.008665
8a8383456788d6e00167a1ac8e8d400c -4.981663 0.278780 0.885474 -1.378971 -0.316998 -1.840488 -0.697506 -0.465664 0.933670 -0.181528 -0.370319 -0.267452 0.082267 0.129915 -0.055019 -0.007535 0.142044 0.056427 -0.151238 -0.056399 0.031772 0.018480 -0.022673 -0.025134 0.065362 -0.128759 0.000586 -0.020538 0.018021 -0.044782 -0.005042 -0.075042 0.038849 -0.047901 -0.011139 0.002359 0.006543 -0.102919 -0.035796 -0.089152 0.048777 -0.009855 -0.019981 0.083344 0.026113 -0.042889 0.019180 0.200571 -0.057515 0.070054 -0.007374 -0.040894 0.022900 -0.012074 0.071139 -0.007247 0.015639 0.015337 -0.015469 -0.019956 0.012427 -0.044942 0.028177 0.020713 -0.050944 0.018808 -0.038149 0.015903 0.010795 0.003702 0.025465 0.044743 -0.016442 -0.005518 0.047084 0.001792 -0.020740 -0.005132 0.008081 -0.009965 0.007898 -0.010903 0.006904 0.007420 0.001363 -0.011160 -0.011885 -0.010663 -0.014832 0.001071 0.001872 -0.002730 -0.001476 -0.006814 -0.011594 0.000564 0.005540 -0.016162 -0.005753 -0.011859
8a8383456788d6e00167a1acc34b404f -5.001770 1.620483 -0.631897 -0.255362 -1.339530 -0.773949 -1.242312 -0.520866 0.945331 -0.452927 0.696644 -0.345759 0.206912 -0.121160 0.061110 -0.116925 -0.037771 0.014128 -0.094558 -0.021164 0.010017 -0.008625 -0.034724 -0.029474 0.043402 -0.036644 0.000524 0.055937 0.026710 0.042763 -0.007988 -0.093317 0.026696 0.003969 -0.000792 0.030765 0.002262 -0.031067 -0.033566 0.074529 -0.074222 0.005015 0.042893 0.033355 -0.060837 0.022977 0.040151 -0.007085 -0.006076 0.098168 0.022211 0.037255 -0.000034 0.083701 -0.005218 0.001579 -0.024694 0.031206 0.034137 -0.043396 -0.011369 0.003189 0.010289 0.000919 0.042161 0.001322 -0.005221 -0.042117 0.013423 -0.006274 -0.010397 0.013918 0.030326 0.012106 -0.009983 -0.016287 0.002589 -0.004671 0.011843 0.028528 0.023217 0.054655 -0.031798 -0.004154 0.006634 0.018208 0.016550 0.045716 -0.020371 0.012357 -0.038798 -0.011766 0.004550 0.017166 0.007047 0.007778 -0.002811 -0.007295 -0.024249 0.004019
8a8383456788d6e00167a1acf7004062 -5.056758 2.549426 -1.295616 -0.751700 -0.665409 -0.618021 0.964837 -0.955674 0.161082 -1.344078 -0.462372 -0.019674 0.369188 -0.201948 0.020568 -0.153337 0.104722 0.022306 -0.087518 0.025656 -0.056933 -0.007298 -0.021598 0.011490 -0.030581 -0.009604 -0.081895 0.005477 0.044706 0.094955 0.017997 -0.018874 0.005232 0.115653 0.009162 0.042524 -0.010966 -0.042845 -0.017472 -0.011491 -0.011613 -0.009072 0.065744 -0.000545 -0.014710 0.022778 -0.009571 -0.009121 0.023759 0.032620 -0.025067 0.003774 -0.047215 0.038073 -0.067163 0.019532 -0.012565 0.008871 -0.042166 0.011744 -0.063511 0.082238 0.022250 -0.011740 0.021832 -0.023109 -0.061016 0.000436 -0.042481 -0.012075 -0.052796 -0.024490 -0.013333 0.021635 0.024998 0.009499 0.004546 -0.035431 -0.009529 0.007615 0.013388 -0.043871 0.020146 -0.007683 0.001094 -0.008559 -0.012481 0.006032 -0.004037 -0.000109 0.012805 0.016976 -0.010393 -0.012031 -0.040373 0.000240 0.022449 -0.012472 0.001140 -0.001950
8a8383456788d6e00167a1ad2814407f -5.034069 2.239106 -1.091070 -0.578020 -0.838301 -0.641268 0.192122 -0.869157 0.429579 -1.004589 -0.402569 -0.095455 0.317152 -0.131559 0.065159 -0.202373 -0.018916 -0.006324 -0.030719 0.021525 -0.018516 0.000632 -0.003904 0.014466 0.057811 -0.029908 0.016633 -0.013973 -0.004542 0.009147 0.020827 -0.069355 0.032826 -0.000194 0.009916 -0.002255 -0.035679 -0.022081 -0.012534 0.031284 0.042531 0.012931 -0.032691 -0.023598 0.002340 0.034666 -0.021010 0.017750 0.016190 0.020954 0.020778 0.027217 -0.023053 -0.001885 -0.017446 -0.022241 -0.016263 -0.027540 0.003444 -0.006422 0.039988 0.029226 0.017410 0.039848 0.004318 0.007965 0.004079 0.003860 0.002882 0.006810 -0.027020 -0.028312 -0.016058 0.011962 -0.014461 -0.005385 0.009097 0.010562 0.003033 0.027430 -0.007570 0.001378 0.002385 0.009827 -0.019165 -0.009761 -0.026273 -0.004154 0.013238 -0.009494 0.023289 -0.004091 0.019261 -0.033620 0.052337 -0.018304 -0.011390 0.010791 0.012062 -0.024176
8a8383456788d6e00167a1ad56b64083 -5.104024 3.986384 -1.554995 -1.675606 0.597857 0.263163 1.639374 0.014946 0.061163 2.113287 -0.155378 -1.698358 0.399456 -0.002481 0.029641 0.332767 -0.345714 -0.113251 -0.200786 -0.065540 0.010083 -0.009837 -0.052978 -0.012258 -0.002383 -0.068510 -0.040020 -0.041291 0.014882 0.060133 -0.011521 -0.027156 -0.055052 0.102562 0.030213 0.018180 0.029386 -0.001533 0.003708 -0.012039 0.077890 -0.103266 0.124527 -0.005089 0.015501 -0.032524 -0.110973 -0.020202 0.033864 -0.035238 0.017760 0.033647 0.045463 -0.002618 0.056707 -0.018101 0.028172 0.027283 0.010676 0.006201 0.003291 0.010935 -0.011632 -0.004012 0.022149 0.002772 0.016586 -0.013676 0.030695 -0.003959 0.019411 -0.004181 -0.022984 0.010481 0.012612 0.007936 0.006545 -0.011523 0.015759 -0.015729 0.007289 -0.001360 0.015269 0.009712 0.010650 0.008081 0.007004 -0.001304 0.003793 0.000049 -0.003909 -0.003363 -0.002356 -0.008491 0.010420 -0.002372 0.001064 0.003558 -0.006059 -0.003021
8a8383456788d6e00167a1ad8c104099 -5.103390 3.741644 -1.407436 -1.470960 0.444252 0.040507 1.385051 -0.364936 0.001638 1.539082 -0.127426 -0.612407 0.030071 -0.740892 -0.008088 -0.072600 0.128963 0.557836 0.471316 0.382877 0.156230 -0.014301 -0.086687 0.028040 -0.050647 -0.053093 -0.006583 0.098834 -0.011846 -0.020498 0.052223 -0.061670 0.026736 -0.064005 -0.038504 -0.058642 0.058871 0.001072 -0.009035 -0.005022 -0.063768 -0.049781 -0.007246 -0.018252 -0.019427 -0.004339 0.057235 0.015751 -0.011530 -0.025846 -0.014803 0.012502 -0.004430 -0.001236 -0.003878 0.006633 0.013246 0.012083 0.017156 0.001650 -0.019656 0.002560 0.003644 -0.002445 -0.007032 0.002100 -0.001470 0.016836 -0.004180 -0.001028 -0.008465 0.001244 -0.002636 -0.003790 -0.008227 0.002807 0.002455 -0.003806 -0.004583 -0.002073 -0.005563 0.000396 -0.005500 0.003249 -0.008294 -0.001890 -0.010602 -0.002709 0.001215 0.000217 -0.001131 -0.005657 -0.003395 -0.000219 0.003340 -0.007319 -0.003306 -0.000533 -0.007025 -0.000451
8a8383456788d6e00167a1adf7d640b4 -5.056755 2.550992 -1.297095 -0.748170 -0.666664 -0.615332 0.964164 -0.954635 0.160478 -1.348291 -0.466687 -0.024159 0.357400 -0.208313 0.088601 -0.185496 0.048626 0.037679 -0.043687 -0.012342 -0.056126 0.017039 0.009056 -0.042347 -0.025795 -0.013822 -0.096115 0.007383 0.003594 0.012963 0.082361 -0.030292 0.007927 0.087231 0.031937 0.009622 -0.032341 -0.010419 0.018692 0.007459 0.009911 0.053760 -0.025707 -0.050881 0.032620 -0.080076 0.016941 -0.023294 -0.015667 0.041703 -0.009205 0.055049 -0.003094 -0.006846 0.040942 -0.047670 0.010317 -0.061883 0.034725 -0.049425 0.050979 0.002357 -0.053382 0.005779 -0.016592 -0.016061 0.040578 0.012159 -0.040943 0.013643 0.052052 -0.010188 -0.011530 0.021102 -0.011998 -0.012369 -0.005944 0.004056 0.001832 0.016944 -0.026316 -0.015727 -0.021757 0.016735 0.007812 -0.005017 0.030206 -0.020945 -0.001971 0.001257 -0.012226 -0.000090 0.018140 0.013331 -0.001763 -0.009278 -0.031490 0.019132 0.009423 0.013584
8a8383456788d6e00167a1ae468d40c2 -5.115176 4.755714 -1.209061 -1.920775 1.954210 0.938682 1.123150 1.052047 -0.022257 2.248547 -0.064866 -1.503627 0.330415 -0.594764 -0.086551 0.242324 -0.038601 -0.153682 -0.080820 -0.121408 -0.085113 0.038062 0.098206 -0.015847 0.040348 0.078835 0.047818 -0.028427 -0.019347 -0.033632 -0.029929 0.079250 0.026753 -0.045980 0.010851 0.031225 -0.078871 -0.002326 0.007487 0.018384 -0.014276 0.147367 -0.109690 0.018839 0.008175 0.032542 0.051524 0.003642 -0.021330 0.061822 -0.005154 -0.044313 -0.039304 0.000488 -0.051851 0.013225 -0.040962 -0.037773 -0.025704 -0.005289 0.013378 -0.012343 0.008468 0.007298 -0.014636 -0.005573 -0.014601 -0.005110 -0.025689 0.005647 -0.009952 0.004152 0.024453 -0.006115 -0.004578 -0.010517 -0.007919 0.014984 -0.011610 0.018410 -0.002236 0.000864 -0.010328 -0.013462 -0.002390 -0.005351 0.003014 0.004237 -0.005747 -0.000452 0.005484 0.008729 0.005466 0.008652 -0.014230 0.009737 0.002500 -0.002990 0.013053 0.003340
2c9fadbd77ff5d05017802ff98824cc9 -4.958208 -1.284876 0.436674 -0.293621 -0.482515 0.367142 -0.274182 -0.115802 -0.161273 0.073317 -0.360357 -0.136647 -0.019746 0.050598 -0.265771 -0.036507 -0.026568 -0.022019 0.005170 0.062465 -0.028260 -0.062232 -0.071735 0.028732 0.049434 -0.050954 -0.007542 -0.035195 0.081251 -0.032371 0.000417 0.017040 0.012096 -0.013951 -0.059793 -0.008971 -0.035487 0.011027 0.027720 -0.030113 0.003417 0.012198 -0.005518 0.009708 -0.003353 0.009156 -0.030592 0.001875 -0.044596 0.014126 0.056367 0.043527 -0.030511 0.001617 -0.012173 0.015874 0.009789 0.005459 0.003844 -0.021017 -0.047379 -0.034013 -0.010200 -0.006084 -0.030186 0.035177 -0.023025 0.010560 -0.018882 -0.002984 -0.008239 -0.030277 -0.034107 0.022719 -0.021926 0.071643 -0.019347 0.022713 0.033712 0.031049 -0.012062 0.005068 0.030962 0.005418 -0.041868 -0.006668 0.013153 0.007134 -0.004266 -0.016985 0.023571 -0.005359 -0.017934 0.015368 -0.004791 -0.007411 -0.026136 0.012537 0.011420 -0.011326
2c9fadbd77ff5d05017803000a984ccd -4.963032 -0.613520 -0.342464 0.275132 -0.923432 0.926046 -0.594854 -0.231878 -0.136529 0.010122 -0.290796 -0.124353 0.040246 -0.005067 -0.188577 -0.057662 -0.026039 -0.084833 0.085924 0.070089 -0.083386 0.008880 -0.037572 0.009277 0.079942 -0.050948 0.008671 0.019365 0.043577 -0.044584 0.008856 0.017296 0.041347 -0.053573 -0.009753 0.013006 -0.046466 0.015612 -0.018279 0.008670 0.048069 0.005521 -0.012416 0.009665 -0.003522 0.010744 -0.038419 0.020100 -0.011196 -0.018420 -0.010001 0.010577 0.030673 -0.011467 -0.015432 -0.009517 0.015297 -0.014513 0.014056 -0.016298 -0.034750 0.006467 -0.000141 -0.022601 0.021220 0.008690 0.026102 -0.039775 -0.007447 -0.008643 0.013338 0.016226 -0.006140 -0.019132 -0.014432 0.009556 0.010177 0.007837 -0.030057 -0.003122 -0.014453 -0.002454 0.004587 -0.001013 -0.006756 -0.001793 -0.004093 -0.001685 0.026098 -0.015367 -0.007484 0.014074 0.006344 0.001229 0.009975 0.020527 0.009536 0.010211 -0.002517 -0.006269
2c9fadbd77ff5d050178030068b04cd1 -4.963789 -0.612709 -0.347611 0.279946 -0.923967 0.925478 -0.577997 -0.225080 -0.118055 -0.002221 -0.275104 -0.125356 0.043867 -0.009189 -0.132300 0.024694 -0.018038 -0.052107 0.108834 0.033151 -0.078367 -0.117965 -0.016143 0.032158 0.055367 0.005068 -0.031521 0.007968 0.030769 -0.058487 -0.008629 0.028862 0.026754 0.030818 -0.029339 -0.007748 -0.012822 0.016798 -0.055106 0.023479 0.003990 0.001678 -0.014478 0.004307 -0.002453 0.008634 -0.032992 0.012628 -0.023759 0.004337 0.014810 0.024442 0.033745 0.024681 0.007910 -0.011701 0.017801 -0.020829 0.001443 0.006096 0.018315 0.018594 -0.016222 -0.022467 0.016683 0.004492 0.016850 -0.017335 -0.007837 -0.002278 0.002722 0.022440 0.004898 -0.003275 0.014176 0.004447 -0.010417 0.018833 0.009568 -0.025627 0.031833 -0.022974 -0.047902 0.027216 0.028406 -0.017485 -0.014755 0.001565 0.010758 -0.020046 -0.037533 -0.003241 0.009705 0.032808 -0.029680 -0.023289 -0.009891 -0.007762 -0.009415 0.017815
2c9fadbd77ff5d0501780300d7a74cd5 -4.950649 -0.868343 -0.137658 -0.019848 -0.911185 0.259383 -0.470576 0.279550 -0.322638 0.085423 -0.459689 -0.074656 -0.026787 -0.035821 -0.193672 -0.045278 -0.033610 -0.091881 0.075756 0.074500 -0.074863 -0.080202 -0.071521 0.000229 0.055634 -0.065719 -0.017378 -0.019381 0.037146 -0.030493 -0.010791 0.010584 0.000735 -0.010730 -0.008715 -0.018460 -0.038500 0.012501 0.001263 0.000152 0.002716 0.011280 -0.019891 0.009049 -0.005066 -0.002920 -0.012432 0.010585 -0.031745 0.010046 0.017474 0.042065 0.003277 -0.027242 -0.009086 -0.016013 0.011812 0.000455 -0.001447 0.003910 -0.009950 0.020800 0.004253 -0.036734 -0.000041 0.026450 0.000855 -0.028915 -0.004846 -0.017572 0.014418 0.006734 0.003958 -0.018777 0.005579 0.016541 0.001291 0.002824 0.000602 -0.000845 -0.002287 -0.010871 -0.015371 -0.037386 -0.000373 -0.012330 0.025705 0.003328 0.026661 0.012085 -0.008939 -0.019023 -0.005002 -0.015290 0.009147 0.007571 0.013880 0.001937 -0.004957 0.004182
2c9fadbd77ff5d050178030132334cd9 -4.963287 -0.612640 -0.341672 0.278985 -0.923396 0.928609 -0.594642 -0.229691 -0.134620 0.008382 -0.288014 -0.126288 0.043386 -0.006845 -0.183473 -0.051705 -0.045949 -0.088870 0.106751 0.080567 -0.094277 -0.022319 -0.082067 0.013312 0.037442 -0.021494 -0.024977 -0.023011 0.048330 -0.040059 -0.025232 0.025370 0.021911 -0.020820 -0.004313 0.004359 -0.037006 0.003083 0.007163 -0.021178 0.007896 0.002937 -0.022245 0.005747 -0.008229 -0.003431 -0.045310 -0.002209 -0.042324 -0.018091 0.017094 0.027759 0.011143 -0.012990 0.011702 0.003146 -0.002086 -0.022858 0.019739 -0.001350 -0.009827 0.012519 -0.011378 -0.046346 -0.009372 0.028523 0.015462 -0.037788 0.003127 -0.029016 0.010681 0.000058 -0.004765 0.011547 0.001442 0.001788 0.006821 0.001092 -0.004191 0.034295 0.007243 -0.018460 0.013675 -0.010735 -0.002337 -0.011708 0.000073 0.015482 0.002706 0.017149 -0.014707 0.005790 0.021084 -0.011269 -0.006157 0.017516 0.016003 0.004394 -0.007708 -0.005407
8a838345683c675d016875389dfc21fb -4.957598 -1.283675 0.433019 -0.291858 -0.477544 0.371639 -0.273470 -0.116622 -0.165466 0.075849 -0.365681 -0.135486 -0.022195 0.044689 -0.232357 -0.116951 -0.114235 0.026497 -0.051947 0.043985 0.049456 -0.102334 -0.046996 0.090069 0.054988 0.000385 -0.056236 -0.002161 0.087129 0.082018 0.012451 -0.010666 0.054262 0.004302 0.016577 0.044039 0.055459 0.053213 -0.041424 -0.030200 0.042917 0.060340 -0.017190 0.005742 0.034079 0.001888 -0.014766 -0.024900 -0.000418 -0.038113 0.023614 -0.084320 -0.053247 0.011506 0.019291 0.028083 0.044667 0.017138 0.023042 0.060665 0.022282 0.000635 0.011540 0.045178 -0.017988 -0.022527 0.028547 -0.001523 -0.050418 -0.035155 -0.017077 0.013235 0.007635 0.005412 -0.009759 -0.018960 -0.022841 0.011277 0.000333 0.016505 -0.034034 -0.023974 0.012529 0.001405 0.028337 0.001496 -0.033322 0.001446 0.006304 0.004351 -0.024169 -0.005412 -0.001987 0.002529 0.025637 0.002560 -0.010533 -0.043548 -0.008470 0.028930
8a838345695bde660169b8afcc104723 -4.963002 -0.610363 -0.343750 0.279162 -0.918983 0.928434 -0.592240 -0.224883 -0.130475 0.002133 -0.292395 -0.121756 0.036920 -0.008411 -0.134981 -0.066237 -0.082278 -0.030620 0.086630 0.021851 -0.000110 0.022880 0.007100 0.024711 0.072527 0.034302 -0.027771 -0.040893 0.011163 0.065905 0.000072 -0.038845 0.012867 -0.012050 0.036252 0.066888 0.041466 0.071285 -0.012773 0.014071 0.031608 0.024157 0.026174 -0.007369 0.018545 -0.019471 -0.031245 -0.020078 -0.011831 -0.011648 0.037952 -0.052132 -0.022511 0.027480 0.034724 0.047937 -0.011624 -0.005890 0.030150 0.000937 0.043218 -0.032516 0.001033 0.020928 0.005290 -0.040664 -0.004467 0.044796 0.011808 0.033022 -0.009436 -0.032779 0.030448 -0.010626 0.011574 -0.030403 -0.024311 -0.009690 -0.009204 -0.005628 -0.005796 -0.000430 -0.032795 -0.001036 -0.018140 -0.016289 0.005860 -0.013611 -0.002019 -0.010362 0.024563 -0.006423 0.013837 -0.017240 -0.002003 0.003903 0.021474 -0.006324 -0.046175 -0.020124
8a838345695bde660169b8bffafa54f4 -4.962368 -0.605028 -0.341441 0.274669 -0.906234 0.932574 -0.597979 -0.230161 -0.137447 0.009768 -0.306662 -0.114474 0.041806 -0.018237 -0.170084 -0.148520 -0.091428 0.009000 -0.030853 0.041450 0.087935 -0.006271 -0.026956 0.020603 0.063960 0.003042 -0.035244 -0.024800 0.088270 0.114454 0.036375 -0.029651 -0.007155 -0.013327 0.048516 0.017867 0.059271 0.062566 -0.021092 -0.024163 0.033166 0.032991 0.006473 -0.002629 -0.017152 0.014652 0.004589 -0.022152 0.008210 -0.010872 0.040098 -0.058231 -0.059211 -0.009091 -0.025604 0.040229 0.014273 0.017052 0.040023 -0.034926 0.023750 -0.004322 0.027661 0.040401 -0.043898 0.020598 -0.042155 0.008951 0.029055 0.022814 -0.002657 0.015248 -0.026410 -0.000992 0.026529 -0.016777 0.060072 -0.006167 0.019810 -0.028715 0.007831 0.011074 -0.028261 0.018829 -0.012573 0.039369 0.013637 0.005294 0.011175 0.003829 -0.011657 -0.006729 -0.020896 0.010642 -0.027580 0.027752 -0.003123 0.051451 0.034895 0.005240
8a838345695bde660169be9415b069e7 -4.959175 -1.239859 0.429368 -0.298205 -0.464147 0.352009 -0.270989 -0.096551 -0.137887 0.060631 -0.344281 -0.101163 -0.027204 0.028677 0.113458 -0.052507 -0.041079 -0.111459 -0.143738 0.153238 0.392683 -0.018223 -0.012266 -0.065130 -0.111107 0.066146 -0.070067 -0.108054 0.011084 0.130178 0.035217 0.029017 -0.052079 0.026487 0.103545 0.019863 0.096243 0.051456 -0.012218 0.104410 -0.002472 0.055377 -0.009331 0.008846 0.007701 0.005402 0.047106 0.049693 -0.053633 0.012150 -0.057420 -0.027534 0.017316 -0.069278 -0.070975 -0.049801 -0.019852 -0.014277 -0.028103 -0.024377 -0.036179 -0.040502 0.019678 -0.044906 0.024407 0.035843 0.032258 -0.017138 0.002005 -0.007944 0.007807 -0.017968 -0.010307 0.016629 -0.027336 0.017177 -0.020579 0.005842 0.014135 -0.014578 0.030799 -0.018991 0.015029 0.013876 0.004459 -0.018992 -0.014770 0.004974 -0.012897 -0.016918 -0.007015 -0.008641 0.011889 0.001179 0.003541 0.003000 0.006942 0.005633 -0.015241 -0.006885
8a838345695bde660169be94a2006a25 -4.974316 -0.590074 -0.301271 0.255217 -1.062124 0.858257 -0.516846 -0.051543 -0.174231 -0.125785 0.637111 -0.214728 0.021628 -0.154493 -0.048523 -0.175254 -0.197731 -0.129632 -0.045830 0.110808 0.217956 0.037096 -0.096934 -0.019791 0.000568 0.055366 -0.081220 -0.081527 0.046379 0.118293 -0.024303 0.001314 -0.002989 -0.079786 0.031047 -0.037359 0.063909 -0.026854 0.053379 0.008065 -0.003591 -0.030364 -0.055033 0.030046 0.038619 -0.008396 0.033377 -0.005449 0.030531 -0.000200 -0.006671 0.030703 -0.020156 -0.021799 0.087570 -0.019890 -0.000734 -0.027216 -0.022252 0.047529 -0.005565 0.015508 -0.005778 -0.013814 0.025873 -0.025479 -0.019825 -0.030650 -0.033878 0.014293 0.011920 0.013169 -0.005151 -0.016306 0.022739 -0.003125 0.004774 -0.010238 -0.033995 0.005335 -0.047851 0.037350 -0.014664 -0.026280 -0.019408 -0.017575 0.027487 0.009833 0.005870 0.025814 0.011640 0.030656 -0.001929 -0.011958 -0.001751 -0.025382 0.001296 -0.015323 0.022624 -0.002894
8a838345695bde6601699aaf65fe1fec -1.047768 -1.099765 3.552554 0.499700 -0.984604 -1.028302 1.244102 1.327630 -0.543957 0.115674 1.254562 -0.398529 -0.021658 0.565025 -0.112596 -0.019444 0.565363 0.254612 0.166923 0.158777 -0.001452 0.052051 0.010750 -0.039970 -0.028526 0.068526 0.040032 -0.059946 -0.025152 0.011560 -0.133475 -0.019937 -0.033831 0.121574 0.057494 0.165265 -0.031046 0.028928 -0.008969 0.051543 0.076892 0.054994 0.024573 -0.054359 0.002997 0.005374 0.005679 0.010407 0.033872 0.039746 0.071609 -0.019221 0.034073 0.021005 0.057030 0.005622 0.000821 -0.054343 0.011204 -0.008455 0.015439 0.015114 0.013237 -0.016729 -0.007514 0.010966 -0.023548 -0.024883 0.015851 0.002504 0.039245 -0.001798 -0.005652 -0.010076 -0.005669 0.012347 0.012319 0.008757 -0.006083 0.008974 0.002569 -0.006995 0.009826 -0.009668 0.012546 -0.012534 0.004135 0.014425 0.001719 -0.001947 0.000010 0.014635 -0.009291 -0.009648 -0.007851 0.008069 0.001289 -0.004533 0.009659 0.001744
8a838345695bde6601699aafb9b61ff3 -1.075693 0.468792 1.798303 1.966407 -1.865583 0.718244 0.448535 0.369511 -0.325242 -0.012039 1.441821 -0.270316 0.086919 -0.214937 -0.017695 0.131121 -0.075418 -0.020142 0.043464 -0.060142 -0.014503 0.125278 0.102419 0.005414 0.108978 0.047838 0.059809 0.006492 0.045480 0.096217 -0.032182 0.012387 -0.031727 0.015716 -0.030359 0.012561 0.008582 -0.027796 0.052940 0.041092 -0.028411 -0.101413 0.017218 0.042821 0.018172 -0.045295 -0.005732 0.020287 -0.051211 -0.060112 -0.008414 -0.027484 0.001911 -0.003759 -0.001485 0.017531 -0.002203 -0.049258 0.034466 -0.056121 0.033524 -0.010703 -0.049601 0.007990 -0.011232 -0.008364 -0.011643 -0.006010 -0.057455 -0.043754 -0.057642 0.025732 -0.015245 0.004362 -0.004269 0.029067 -0.009572 -0.000138 0.010734 0.014065 0.040931 0.016638 0.000676 -0.021299 -0.007994 -0.000269 -0.039996 -0.002277 -0.012105 0.009619 0.025823 0.010654 0.008690 0.018289 -0.001366 -0.013694 -0.024337 0.007674 -0.006214 -0.011340
8a838345695bde6601699aaffdb81ffa -1.060551 1.900017 1.914142 1.048417 -1.420325 -1.355435 -0.204776 1.553715 0.057619 -0.042372 0.194885 0.169431 0.149657 -0.244524 0.110765 0.122939 -0.120778 -0.003087 -0.063557 0.006716 0.010193 -0.047711 0.062929 0.007242 0.126119 0.018066 0.080404 0.038141 -0.038834 0.083379 0.100825 0.061482 -0.024559 0.096620 -0.074455 0.012340 -0.027965 0.005791 -0.048772 -0.030426 -0.055542 0.039784 -0.054000 -0.043852 -0.027045 0.012740 -0.005697 -0.023230 -0.040543 -0.001159 0.006886 -0.043371 -0.014301 -0.011392 0.029604 -0.045752 0.058523 -0.008253 0.034204 0.053286 -0.030656 -0.000381 0.040092 -0.000452 0.030073 0.031429 -0.004133 0.051546 0.011326 0.050717 0.000330 0.002695 0.029637 0.016776 0.016512 0.041996 -0.009845 -0.002553 -0.003492 0.019748 0.030055 0.009268 0.006042 0.022722 0.005897 0.016354 -0.006169 0.011567 0.035121 0.006862 -0.006299 -0.005391 -0.008904 -0.010353 0.032363 -0.021226 0.001881 -0.002513 0.002233 -0.006555
8a838345695bde6601699ab087462004 -1.087005 3.553039 2.036709 0.753544 -0.127102 -0.331258 -0.846935 2.356408 0.809311 -0.346281 0.591410 -0.197081 0.745300 1.394772 0.011713 -0.290505 0.298384 0.198930 0.186317 0.006204 0.133100 -0.085730 -0.015328 0.014688 0.053456 -0.074535 -0.040205 -0.043106 -0.023255 0.017499 0.054424 0.100234 -0.016627 -0.038949 0.024407 -0.080713 -0.056390 -0.037152 0.028286 -0.029439 0.045421 0.024837 0.006100 0.079360 0.045933 -0.014249 -0.123343 -0.045992 -0.003478 0.018090 -0.044143 -0.000413 -0.023068 -0.022954 -0.051609 -0.015964 -0.025748 0.035108 -0.043366 0.016187 0.017141 -0.016033 -0.020679 0.023021 0.023643 -0.021801 0.030153 -0.015892 -0.002789 0.004512 -0.020589 0.001261 0.005357 0.018047 0.021562 -0.017447 -0.013625 -0.001489 0.012811 -0.003295 0.003880 0.003377 -0.001216 0.002432 0.002832 0.018573 0.015618 -0.008492 -0.007766 0.001336 0.003505 -0.003056 0.015913 0.009832 -0.000648 0.007214 0.006784 0.005190 0.004020 -0.001241
8a838345695bde6601698fae7dce0270 -4.939377 -1.109513 0.065100 -0.325959 -0.902552 -0.436059 -0.322496 0.808444 -0.484824 0.155352 -0.601374 0.006667 -0.105694 -0.050978 -0.119699 0.160539 0.176685 0.003343 -0.027699 -0.087742 0.103143 -0.034249 0.038138 -0.041712 0.056092 -0.009100 0.081236 -0.012245 0.061178 -0.038138 -0.049828 0.010599 -0.051188 0.082855 0.009738 -0.097080 0.051308 -0.048826 -0.006826 -0.035621 0.013366 0.014495 0.012067 -0.018852 0.013103 -0.088065 0.021884 -0.002750 0.023790 0.004188 -0.058164 0.015099 0.018731 0.001212 -0.072429 0.090997 -0.080508 0.016206 0.078331 -0.045471 -0.019592 0.008049 -0.020955 0.008223 -0.032523 -0.021750 0.022258 -0.001963 -0.002062 -0.000636 0.012549 -0.000150 -0.003626 -0.047577 0.018314 -0.018854 0.003523 -0.046852 -0.025349 0.020349 0.011757 -0.006241 -0.004694 -0.025526 0.017520 -0.017636 -0.022291 0.010138 0.022885 -0.010142 -0.028057 0.001098 -0.018263 -0.017128 0.028016 -0.016009 0.004858 0.005632 0.014249 0.005707
8a838345695bde6601698faedcf30274 -4.952555 -0.848036 -0.141198 -0.025822 -0.909922 0.238368 -0.441556 0.298266 -0.289309 0.067751 -0.430201 -0.044186 -0.040068 -0.037319 -0.060442 0.140744 0.104304 -0.015441 0.008655 -0.100609 0.152753 -0.045845 0.032496 -0.007655 -0.000382 0.040401 0.059279 -0.005984 0.005754 -0.078386 -0.062899 0.012268 0.031773 0.052469 -0.056857 -0.080229 0.092466 -0.020303 0.005379 0.024319 0.083444 -0.005784 0.007058 -0.060467 -0.026044 -0.005278 0.022036 -0.010463 0.048000 0.089271 -0.038061 0.008457 0.022582 -0.000643 0.058667 -0.005347 0.038303 0.016674 -0.051320 -0.009791 -0.047459 0.071438 0.015582 0.020657 -0.014390 -0.006437 0.023062 0.007653 0.011099 -0.002820 -0.041723 0.016721 0.045890 0.022743 0.017490 -0.022347 -0.022507 0.051454 0.051004 -0.006095 -0.030590 -0.000715 -0.008851 -0.022094 -0.001285 -0.004032 -0.009672 0.026642 0.009603 -0.018809 0.035219 0.021530 0.002233 0.026559 0.009810 -0.002351 -0.005224 0.023128 0.003490 0.010347
8a838345695bde6601698fafeeca0284 -5.035499 1.366787 -0.873213 -0.747642 -1.260430 -0.851961 0.216350 0.012204 0.108722 0.804384 0.754817 0.907013 -0.301734 0.175982 -0.016692 -0.249472 -0.080666 -0.068954 0.011739 -0.057159 0.030359 0.071297 -0.097489 -0.095412 0.127439 -0.070899 -0.028124 -0.152807 0.060709 -0.025356 0.032752 0.022874 -0.131026 0.045414 -0.058821 -0.051985 -0.026293 -0.036731 0.051968 -0.067322 -0.027920 0.005530 -0.083296 -0.064677 -0.017297 -0.066893 0.070808 -0.009549 -0.006088 -0.036070 0.002161 0.008318 0.005379 -0.030170 0.031795 -0.017697 0.012203 -0.024971 0.044503 0.023246 0.013062 0.028267 0.021605 -0.025120 0.040607 -0.005456 -0.028832 0.007889 0.048098 -0.026669 0.000171 -0.005059 0.016183 -0.006959 -0.027042 -0.034963 0.012446 0.005663 0.003045 0.006843 0.015621 -0.003136 0.002944 0.020531 0.007496 0.014808 -0.004506 -0.010386 -0.034209 -0.025404 0.021784 0.004643 -0.002482 -0.003200 -0.015387 0.012005 0.020392 0.006220 -0.005679 0.017027
8a838345695bde6601698faf20eb0278 -4.964648 -0.595987 -0.345050 0.273391 -0.924693 0.911296 -0.575657 -0.220548 -0.113507 -0.002999 -0.270453 -0.104182 0.033433 -0.010957 -0.067307 0.071785 0.067838 -0.050935 0.064528 -0.051571 0.061450 0.010731 -0.002932 -0.027167 0.045619 -0.044847 0.065100 -0.001143 0.028119 -0.051220 0.016226 0.004730 0.045858 0.021213 -0.059657 -0.013162 0.030507 -0.027337 -0.029313 -0.008750 0.025666 0.009837 -0.032443 -0.032057 -0.001378 0.006541 -0.018981 -0.006653 0.014058 0.007472 -0.004538 0.025118 0.006762 0.018474 -0.008672 0.009519 -0.024177 -0.025089 0.032051 0.018188 -0.014643 0.015160 -0.018843 -0.014980 -0.007140 -0.021796 0.006807 -0.012817 0.028495 -0.008739 -0.009362 -0.024592 -0.010314 -0.010703 -0.018860 0.011801 -0.032712 0.001847 -0.017868 0.002662 -0.018537 -0.013561 0.067508 0.033753 -0.001838 0.039071 -0.001182 0.014704 -0.017187 0.017960 0.011834 -0.022583 -0.000916 0.000342 -0.023877 0.024610 -0.006673 -0.032765 0.008629 0.006872
8a838345695bde6601698fafbce80280 -4.956909 -0.188974 -0.912900 0.542850 -1.342976 0.808003 -0.765917 0.173125 -0.268217 0.004961 -0.378900 -0.032854 0.036865 -0.097856 -0.146406 0.091535 0.101267 -0.027127 0.025303 -0.056577 0.083108 -0.032793 0.032632 -0.044428 0.037753 -0.052086 0.040596 0.025060 0.000710 -0.023831 0.006638 0.001854 0.018881 -0.011633 0.011998 -0.016674 0.040752 0.013237 -0.017220 0.016161 0.069576 0.012831 -0.003108 -0.010237 -0.022274 -0.024829 0.010202 -0.011304 0.035244 -0.001607 -0.005362 -0.011391 0.008685 0.019873 -0.009138 0.027670 -0.036568 -0.027868 0.004805 0.029936 0.011523 0.011622 -0.011465 -0.021398 -0.036627 -0.026617 -0.009116 0.017528 0.013339 -0.020190 -0.001459 -0.042177 0.033189 -0.018439 -0.019654 0.018249 -0.009033 -0.000103 0.018531 -0.022324 0.022372 0.010080 -0.005272 0.003329 -0.020012 0.028446 0.042105 -0.041465 -0.033377 0.001180 -0.006852 -0.014594 -0.007297 0.001486 -0.004816 -0.031095 -0.014595 -0.015764 -0.000202 -0.033833
8a8383456721a4a101672a88b8ee0079 -5.104364 0.736552 0.514903 -1.362051 2.113131 2.178505 1.769515 0.069935 -0.438721 0.010243 0.224915 1.947216 -0.029309 0.207438 -0.200344 0.373237 -0.085021 -0.072268 0.078418 0.077823 0.064114 0.164595 -0.088482 0.065153 -0.072492 -0.047702 -0.072628 -0.097763 0.102266 -0.059971 -0.004058 -0.042971 -0.030029 -0.001447 0.045123 0.019350 -0.054725 -0.023954 0.015088 -0.020189 0.005888 -0.002479 -0.009014 0.019397 -0.019137 -0.019291 0.024657 -0.034496 -0.004699 0.050958 0.062613 0.027729 -0.007996 0.036209 0.000096 0.023596 0.037635 -0.003369 -0.029463 -0.009353 0.007645 -0.018007 0.002416 -0.005002 0.033637 -0.038208 -0.001643 0.022356 -0.022923 0.024786 -0.024680 0.021481 0.013671 -0.003997 0.028281 -0.013809 -0.043144 -0.004833 0.018662 -0.016517 0.026841 -0.021061 0.012099 -0.012472 0.009727 0.012413 0.005853 0.016336 -0.001665 -0.000262 -0.016277 -0.005608 -0.010290 -0.005646 0.021331 0.011785 -0.015675 -0.000000 -0.006951 -0.024601
8a8383456721a4a101672a8aa0f0007d -5.036566 1.309094 1.540577 -1.329866 1.806400 0.532751 -1.481374 -0.347617 1.589245 -0.686949 0.218321 0.471855 0.409100 0.077601 -0.090318 0.386320 -0.169617 0.059087 0.018266 0.000655 0.042092 0.108576 -0.027952 -0.002128 -0.063995 -0.009633 0.004525 -0.026390 0.039397 -0.024861 -0.044517 0.018621 0.083640 -0.012534 -0.010574 0.031440 0.015469 -0.010237 -0.032024 0.047342 -0.009147 -0.003313 0.001858 -0.012126 0.008199 -0.015428 -0.001216 0.006099 -0.022427 -0.018544 0.027720 0.034427 0.011647 0.018268 -0.012240 0.012254 0.005171 0.029009 0.035292 0.023693 0.004701 -0.042041 0.004541 0.003288 -0.011376 -0.003427 0.060222 0.013685 0.015199 0.000581 -0.004681 -0.019071 0.015713 -0.010986 0.016730 -0.005781 0.050473 0.013384 -0.012952 0.031303 0.013255 0.008746 0.029096 0.030581 -0.001048 -0.011990 -0.011725 0.001753 0.011160 0.007994 0.004054 0.042672 0.008576 -0.019024 -0.022715 -0.026846 0.018219 0.008524 0.024734 0.007670
8a8383456721a4a101672a8b20c10081 -4.974255 1.793543 0.434388 -1.411477 0.573487 -1.793463 -1.711440 2.386915 0.530668 -0.415617 -0.611032 0.823328 0.198463 -0.269012 -0.027077 0.266970 -0.245231 -0.035629 -0.014664 0.093712 0.055604 -0.028627 -0.056739 -0.054154 -0.053108 0.002344 -0.012721 0.061677 0.005528 -0.051188 -0.059178 0.021995 -0.037841 -0.004004 0.000523 0.076881 -0.042328 0.063998 0.022717 -0.080566 -0.013619 0.032510 0.050481 -0.052207 -0.039627 0.048768 -0.006708 0.114284 0.035901 -0.106931 -0.056220 0.016082 -0.069197 0.010928 0.007165 0.005506 -0.001836 -0.043215 -0.002544 -0.048471 0.014270 0.022395 -0.027228 0.013912 0.026819 -0.030680 -0.017610 -0.059645 0.019430 0.010781 -0.027946 -0.016919 -0.010892 -0.004189 -0.010930 0.000482 -0.028848 0.015705 -0.002451 -0.009814 -0.020755 0.027659 -0.019714 -0.001161 0.017276 -0.000780 -0.011460 -0.010825 0.006926 0.002523 0.006374 -0.003732 -0.005745 -0.006814 -0.011531 0.000828 -0.012481 0.002678 -0.007508 0.003888
8a8383456721a4a101672a8b9a3c0085 -1.124446 2.382992 3.600407 0.399425 1.189776 0.490112 -0.637606 -0.118235 1.465122 -0.427695 0.029224 0.526487 0.515823 0.114978 -0.061389 0.374419 -0.232829 -0.008812 -0.040053 0.079006 0.052336 0.043640 0.017508 0.045580 -0.039185 0.009878 0.040219 0.045532 0.020802 0.010435 -0.076542 -0.037887 0.036588 -0.040198 -0.000170 0.020686 0.013448 0.048660 0.001304 0.026062 0.026844 -0.013249 -0.012553 0.014190 -0.005780 -0.023875 0.001751 -0.032123 -0.010714 0.000996 -0.009765 0.004705 0.059876 0.006584 0.000380 -0.013173 -0.007092 -0.000449 0.001199 0.007398 0.002962 0.020500 0.020711 0.004722 -0.022449 0.016942 0.008442 0.027582 0.002274 -0.033417 0.007974 -0.014704 0.003743 -0.009459 -0.020546 0.004164 0.033546 -0.007518 -0.007166 -0.026347 -0.012574 -0.002491 -0.011309 0.011878 0.004840 -0.017158 -0.011684 -0.001219 -0.027783 -0.028412 0.013894 0.001095 0.010006 0.024522 0.005507 0.010758 -0.001991 -0.006364 0.012105 0.014033
8a8383456721a4a101672a8bf76f0089 -1.147182 3.154312 2.813815 0.033570 1.117653 -0.223005 0.814466 0.612273 0.552458 -1.018140 -0.402044 0.779408 0.534192 -0.133980 -0.080043 0.263913 -0.258144 -0.017624 -0.003786 0.062793 -0.001608 -0.001751 0.039436 0.087091 0.030785 0.033733 0.022644 0.050644 0.037194 0.013219 -0.045456 0.051756 -0.035608 0.010273 0.016238 -0.039765 0.060447 0.030658 -0.016308 -0.006207 0.015332 -0.014702 -0.013800 -0.009233 -0.000266 -0.045621 0.016297 -0.031865 -0.006004 0.035578 -0.001738 0.003145 0.007854 -0.014559 -0.018227 -0.022462 -0.014952 0.012517 -0.001632 -0.000227 -0.003375 0.018885 -0.007402 -0.020893 -0.047388 0.051838 -0.037347 0.002482 -0.000118 0.000987 0.048890 0.012437 0.014530 0.013765 -0.022767 0.015754 -0.006381 -0.024098 -0.006552 0.011103 -0.021086 0.010208 -0.003875 -0.039059 -0.009308 0.020068 0.026655 -0.006802 0.014375 0.021988 0.001574 -0.039158 -0.003673 0.003055 -0.006945 0.003889 0.010764 -0.005295 -0.019727 -0.001571
8a838345673ec61901673ee4fd6d02fb 12.895813 1.528191 1.541824 -0.587999 -1.611361 -0.317477 -0.547193 -0.574206 -0.342958 -0.095304 -0.275906 -0.029400 -0.056021 0.179218 -0.051948 0.236991 -0.061080 -0.128267 0.090805 0.037712 0.023652 0.061170 0.067895 -0.073953 0.032145 -0.081323 0.004398 0.036442 -0.113601 0.015309 0.084825 -0.007806 -0.050855 -0.050584 -0.002314 -0.029012 -0.007073 -0.067625 0.058593 0.040218 0.063573 -0.038509 0.004099 -0.005268 -0.011924 0.072528 0.021839 0.022080 0.010542 -0.005587 0.036592 0.001438 0.009384 0.015634 -0.004921 0.073724 0.023231 -0.032809 -0.018045 0.027589 -0.025483 -0.021835 -0.010705 -0.010519 -0.009753 0.005862 0.021718 -0.010848 0.022960 0.021311 -0.011695 0.014146 -0.008179 0.010859 -0.023080 -0.035729 0.003002 0.016877 0.003547 0.018758 -0.001021 0.003975 -0.032376 0.002405 -0.004724 -0.011365 0.009595 0.019256 0.030302 -0.010638 -0.008470 -0.010755 0.002245 -0.003639 0.000262 -0.003397 0.029979 -0.006408 0.003413 -0.024438
8a838345673ec61901673ee84559037f 12.895369 1.528068 1.543625 -0.588781 -1.607158 -0.316371 -0.540373 -0.576420 -0.337352 -0.101826 -0.277789 -0.021950 -0.051779 0.173969 -0.083230 0.258994 -0.034025 -0.073761 0.032469 0.003995 0.080200 0.008586 0.063237 -0.037722 0.015242 -0.093921 0.003900 0.039761 -0.090138 0.025571 0.104989 -0.032236 -0.036266 -0.020753 -0.018213 -0.034336 -0.023041 -0.034698 0.036429 0.081864 0.025729 -0.026483 0.005608 -0.038494 0.008277 0.063207 -0.001325 -0.002771 -0.007409 -0.002215 0.026259 -0.009831 -0.010530 -0.013175 -0.020630 0.068063 0.043048 -0.036386 -0.037516 0.010705 0.011563 0.001495 0.007507 -0.005431 -0.008747 0.035074 -0.001697 -0.003371 -0.034311 -0.017691 -0.003092 0.014560 0.008518 0.017786 -0.013262 -0.019232 0.021676 -0.028523 0.020398 0.010888 0.008869 -0.001734 0.006246 0.005484 0.035338 -0.020793 0.022532 -0.038303 -0.018371 0.010017 0.007457 0.008408 -0.033789 -0.013946 -0.007136 0.014936 -0.022229 -0.018289 0.006039 0.034470
8a838345673ec61901673fdc4a530817 -4.956284 -0.187185 -0.920093 0.548079 -1.339530 0.812050 -0.764801 0.176140 -0.270287 -0.004093 -0.381757 -0.043719 0.033397 -0.097796 -0.075189 0.032672 0.014719 0.004839 0.051199 -0.076856 0.038902 -0.061077 0.051300 0.037366 -0.016518 -0.026749 0.063182 0.048636 0.012482 -0.020545 0.048807 0.004726 -0.004790 -0.077670 -0.015846 0.056400 -0.007359 -0.022650 0.028515 0.030259 0.011301 0.028435 0.028143 -0.002931 -0.060208 0.012738 -0.014834 -0.031685 0.037884 0.017599 0.026089 0.019954 0.063703 0.015734 0.013323 -0.016244 -0.042614 -0.005500 -0.028380 -0.007950 0.015732 -0.004786 -0.024121 0.004225 0.027836 -0.043607 -0.007357 0.036243 0.001885 -0.010495 0.033690 0.020338 0.025209 0.022288 -0.016413 0.018661 -0.003208 -0.006936 -0.016835 -0.031248 0.014741 0.002119 -0.010432 0.018315 -0.019088 -0.034098 -0.045187 -0.005728 -0.021836 0.023785 0.012527 -0.034377 0.006340 -0.025618 -0.009317 0.000816 0.010282 0.013261 -0.000524 0.008248
8a838345673ec61901673ed5dadc0117 -4.989958 0.164692 -0.512048 -0.073331 -1.762895 -0.582597 -0.564047 0.939092 -0.161988 -0.427762 2.355999 -0.379482 -0.026785 -0.472566 0.069282 0.061742 -0.120698 -0.091013 -0.057544 -0.009649 0.021975 0.020006 -0.084326 -0.068186 0.002989 0.029543 -0.032144 -0.041975 -0.021391 -0.047820 0.028874 -0.017100 0.004168 -0.055634 0.020898 0.026598 -0.011428 -0.009649 0.000592 0.004150 -0.064572 -0.024572 -0.030565 0.008716 0.009394 -0.009587 0.005737 0.022136 0.044247 0.050650 0.034590 0.010958 0.032222 0.021148 -0.020746 0.020861 -0.038472 0.074231 0.002343 0.035900 -0.030997 -0.020756 -0.015886 -0.034200 -0.033646 -0.009305 0.028074 0.004295 0.012764 0.060402 -0.033943 -0.025209 -0.029955 0.004460 -0.009785 0.013227 0.032889 0.028128 0.005596 -0.014552 -0.052463 -0.049326 -0.006240 -0.004632 0.034474 0.011234 -0.018721 -0.031118 0.001646 0.022123 0.001684 -0.020748 -0.007692 -0.005115 0.001866 0.005191 -0.015520 0.012545 -0.017127 0.008582
8a838345673ec61901673fda7d1d07f3 -4.966996 -1.697488 1.006921 -0.566500 -0.058619 0.458111 -0.057587 -0.508162 0.015315 0.054975 -0.233101 -0.193480 -0.020160 0.148232 -0.265805 0.094309 0.095461 0.077357 -0.079733 -0.085960 0.030280 -0.050253 0.019169 0.044660 -0.033744 -0.018095 0.069299 -0.005505 0.066156 -0.039706 0.010786 -0.031695 -0.039427 -0.031175 -0.017226 0.038930 0.029676 -0.028434 0.027703 -0.015351 -0.040169 0.005311 0.013839 -0.000587 -0.019563 0.003707 -0.025363 -0.032446 0.011245 -0.024309 -0.010646 0.015634 -0.010862 -0.017153 0.003661 -0.017726 -0.014480 0.031264 0.001533 0.039006 -0.012745 -0.016247 -0.009275 0.041124 0.012019 -0.036291 0.011345 0.014228 0.004168 0.063813 0.030810 0.016049 -0.028968 0.062034 -0.028806 0.047160 -0.025590 -0.001044 -0.041279 0.047272 0.009363 0.012711 -0.035544 -0.031692 0.002548 -0.020140 0.009955 -0.001768 -0.048702 -0.017956 -0.001427 0.018569 -0.034630 -0.004070 -0.001571 0.012072 0.018417 0.004319 0.008537 0.012322
8a838345673ec61901673fdac8a907fd -5.003739 -0.242421 0.965190 -0.787297 0.030767 0.116741 -0.542606 -1.593592 1.061114 -0.244777 0.038840 -0.370842 0.173481 0.244781 -0.168257 0.117379 0.155462 0.156333 -0.071003 -0.124136 -0.055104 -0.022725 0.074800 0.006531 -0.032282 -0.006353 0.091962 -0.037718 0.015165 -0.048063 0.099852 0.123338 -0.017400 0.026290 -0.011860 0.083683 0.033700 0.003041 0.041686 0.051469 -0.092504 -0.023092 0.046347 0.005435 -0.015697 -0.036278 0.018521 -0.022148 0.008640 -0.055544 -0.026180 0.024826 0.029245 -0.031725 -0.049883 0.024591 0.038492 -0.029853 -0.007628 0.038459 0.040570 0.010084 0.093267 -0.046869 0.000506 0.009868 -0.030359 -0.004460 0.020462 -0.000483 -0.004163 0.031337 -0.036666 -0.036820 0.021000 -0.002132 -0.054001 -0.007888 -0.002832 -0.008889 -0.046850 -0.022233 -0.041273 0.005229 -0.008418 0.015442 -0.002424 0.013127 0.001485 0.011469 0.010241 -0.008595 0.016336 0.005752 0.009842 -0.002263 -0.014398 0.002553 0.003753 -0.002209
8a838345673ec61901673fdb1b680801 -5.023862 1.632360 -1.165522 -0.320436 -0.884705 -0.146688 0.389132 -0.578798 0.019512 -0.897884 -0.446343 -0.014181 0.263608 -0.157792 -0.089355 -0.039673 0.110325 0.041932 -0.057729 -0.049369 0.049171 0.063446 0.109935 -0.014045 -0.028518 -0.014012 0.104566 -0.006886 -0.043712 -0.144703 -0.049586 0.099461 -0.112193 -0.061115 0.015945 -0.093656 0.024646 0.076372 0.047572 -0.004630 -0.062875 -0.033283 0.097686 -0.025346 -0.038834 0.044963 -0.017896 0.039695 0.021924 0.042027 0.116929 -0.100496 -0.055491 -0.081512 0.024009 -0.051379 -0.022290 0.018282 0.043693 -0.022700 0.034584 -0.006077 -0.005889 -0.053297 0.016172 -0.030840 0.016183 0.028826 -0.034530 -0.015872 -0.012285 0.014294 0.004486 0.012926 0.005412 -0.000691 0.028514 0.013127 -0.010657 -0.013375 -0.012140 -0.004789 0.028775 -0.014748 -0.001502 0.006391 0.004260 0.008109 0.005551 -0.008534 -0.021466 0.012827 0.015394 -0.001915 0.000409 0.008260 0.003385 -0.010681 0.001477 0.000028
8a838345673ec61901673fdbcc7e0809 -5.025047 -0.350533 -0.199168 -0.803150 0.028366 0.437511 2.050778 -0.369386 -0.967866 -0.976328 -0.555623 0.087140 0.115081 -0.158232 -0.103065 0.023947 0.071768 0.129131 0.008453 -0.156854 -0.004127 -0.075571 0.028605 0.083106 -0.041220 0.005798 -0.034194 -0.006408 0.106095 0.028020 0.152825 0.121649 -0.100350 -0.054539 -0.051799 0.115590 0.033226 -0.002703 0.025774 -0.047507 -0.066247 0.013144 -0.026028 -0.020095 0.061482 0.003459 -0.008654 0.033842 0.024830 0.047488 -0.044558 -0.005391 0.065111 0.054489 0.056181 0.024615 0.009224 -0.010148 -0.063578 -0.013876 0.011606 -0.027591 -0.017015 0.039750 0.007029 0.044528 0.037899 -0.025580 0.014089 -0.016165 -0.039615 -0.015781 0.001734 -0.042567 -0.019903 0.016310 0.057918 0.007424 -0.010028 -0.007801 0.013207 0.024619 0.015868 -0.026518 0.004222 0.020119 0.003617 -0.016941 0.006505 -0.016202 -0.004187 0.002520 -0.004471 0.004801 0.011472 0.003489 0.014431 -0.003932 -0.010063 0.002600
8a838345673ec61901673fdc0fa50813 -4.968174 -1.693173 1.003393 -0.563291 -0.069577 0.450813 -0.047433 -0.502185 0.030744 0.042385 -0.213372 -0.189267 -0.024114 0.148697 -0.173174 0.166479 0.096653 0.072791 0.001048 -0.113807 0.035792 -0.049541 0.075898 0.055510 -0.113606 -0.036747 0.052757 -0.008673 0.027940 -0.053481 0.026383 0.003570 -0.027107 -0.066778 -0.011116 0.069717 0.004904 -0.036904 0.059563 0.002011 -0.011910 0.007056 0.000794 0.073468 0.011989 0.039448 0.042026 -0.080834 -0.019313 -0.042166 -0.038749 0.017413 -0.012118 -0.044242 0.052341 -0.079268 -0.064731 -0.033324 0.033281 0.007192 -0.049363 -0.017244 -0.046097 -0.001296 -0.012680 0.000160 -0.072802 -0.038791 0.013947 0.022119 -0.006749 -0.043362 0.020011 0.019794 0.054283 -0.053376 0.026976 0.002868 0.037186 0.008953 0.015068 -0.006142 0.013118 0.038667 0.004621 -0.005500 -0.001964 0.001049 0.033742 0.018040 -0.011947 0.005963 -0.013705 0.001717 0.008371 -0.001153 -0.019678 -0.009819 -0.012769 -0.000136
8a838345673ec61901673ed4d06d010b -4.992106 -1.697820 1.083609 -0.602085 -0.396532 0.308270 0.137769 -0.146680 -0.043572 -0.227123 1.697073 -0.419776 -0.059404 -0.112368 -0.158158 0.244788 0.024630 -0.009202 -0.036017 -0.081237 -0.023524 -0.093207 -0.016539 0.073660 -0.112947 -0.037814 -0.106986 -0.033882 -0.047585 -0.152220 0.068102 -0.104356 0.032519 -0.038817 -0.006539 0.004906 0.033352 -0.030454 -0.044499 -0.018341 0.031350 -0.033361 -0.026591 0.018248 0.023275 0.019475 0.043265 -0.030139 -0.044599 -0.009408 -0.015761 -0.092112 -0.071053 0.024552 -0.063292 -0.028724 0.028362 -0.031145 -0.020201 -0.016244 0.028446 0.096357 -0.048482 -0.004574 0.027007 0.030104 0.028399 0.036232 0.043278 -0.037552 0.037486 -0.020421 -0.023191 0.013097 0.029784 0.006724 -0.011932 -0.007578 -0.000677 -0.006114 0.002522 0.035476 0.002023 -0.023229 -0.007137 0.004066 -0.008603 -0.004880 0.013267 -0.016614 0.002820 -0.009408 0.010311 -0.025304 -0.000973 0.002997 0.005424 0.008559 -0.001750 0.008525
8a838345673ec61901673ed55503010f -5.038566 -0.181242 -0.452615 -0.894206 -0.865842 -0.554976 2.240410 1.083313 -1.449453 -1.296222 2.037225 -0.122350 -0.028618 -0.659776 0.111664 -0.032500 -0.144820 -0.025281 -0.067418 -0.023710 -0.045549 -0.059203 0.005740 0.108950 -0.044992 -0.056944 -0.043906 0.049607 -0.003606 -0.093639 0.095056 -0.019591 -0.027224 -0.030316 0.023629 -0.021204 -0.006009 0.099704 -0.023668 -0.030791 0.107314 0.025086 0.033404 -0.029039 -0.077669 0.054711 -0.036177 -0.016440 -0.027515 -0.035130 -0.058189 0.037853 0.014865 -0.035326 0.004550 0.022878 -0.002102 0.034636 0.004930 -0.017214 -0.022586 -0.059291 0.044986 0.000715 -0.032749 0.012266 -0.019047 0.002230 -0.008548 -0.028074 0.009601 0.016785 0.038386 -0.013634 0.005447 -0.028877 -0.022541 -0.013472 -0.023209 0.006816 -0.008249 -0.003928 -0.003598 0.027013 -0.010556 -0.016077 0.006147 0.018329 -0.022940 -0.002482 -0.001399 0.017618 -0.002273 0.018045 -0.003057 -0.011555 0.005061 -0.006321 0.013896 -0.011507
8a838345695bde6601698ff54c8a02e7 -4.948047 -1.529427 0.639559 -0.598611 -0.497094 -0.338542 -0.124023 0.415288 -0.326291 0.143569 -0.464123 -0.073715 -0.101791 0.051300 -0.177764 0.258698 0.249212 -0.064343 0.052702 -0.023940 -0.079296 0.080098 -0.044067 -0.054019 -0.063241 0.070919 0.077603 0.007197 -0.032476 0.016970 -0.060780 -0.123250 0.046474 0.064670 0.010513 0.016963 -0.027865 -0.033564 0.039093 0.011143 -0.012410 -0.023568 -0.023046 -0.002302 0.042545 0.066465 0.006055 -0.031367 0.015793 -0.011368 -0.051044 0.005646 -0.018743 -0.043551 -0.016405 -0.052843 0.064669 0.055781 0.036941 -0.029668 0.000107 -0.043558 0.011201 0.024446 0.007637 0.021534 -0.019073 -0.014678 -0.006648 -0.005736 -0.002963 0.001680 0.004671 0.025116 -0.029840 -0.022402 0.011877 0.001822 0.007550 -0.009669 -0.030653 -0.013120 0.012396 -0.034509 0.012140 0.027718 0.002850 -0.019829 -0.040466 -0.009580 -0.026581 -0.023896 0.005048 -0.010988 0.006102 -0.029068 0.002198 -0.005739 0.003224 -0.013668
8a838345695bde6601698ff5907a02eb -4.945457 -0.427424 -0.709901 0.241890 -1.343557 0.119797 -0.640903 0.697468 -0.452061 0.077399 -0.522546 0.019463 -0.042394 -0.120406 -0.029838 0.176938 0.158088 -0.083587 0.086904 -0.071557 0.075957 0.091909 -0.021792 -0.030146 -0.041137 0.028871 0.083447 0.001415 -0.031395 0.002825 -0.004377 -0.062983 0.061418 0.040307 -0.022153 -0.024567 -0.037677 0.005231 -0.002125 -0.030119 -0.044656 -0.011975 -0.006335 -0.017118 0.057115 0.044477 -0.039045 -0.032115 0.013878 0.006923 -0.031985 0.010308 0.001643 0.008045 0.003943 -0.049046 0.033979 0.012505 -0.030963 -0.035072 0.030897 -0.009844 0.018115 0.013683 0.015219 0.029356 -0.010232 0.019395 -0.018097 0.016861 -0.018848 0.007016 0.005428 -0.026594 -0.001453 -0.014668 0.025235 -0.024466 -0.038412 0.013447 -0.012161 -0.024521 -0.010862 0.038895 -0.031802 -0.019506 0.000586 0.000310 0.000857 -0.033535 0.004703 0.003627 0.002372 -0.005128 -0.007373 0.025219 -0.000505 0.015857 -0.024327 -0.006729
8a838345695bde6601698ff6152602ef -5.017553 0.081089 -0.779678 -0.540199 -0.400563 0.324031 1.854253 0.039865 -1.123947 -0.972976 -0.644751 0.160534 0.103183 -0.228567 0.063442 0.022548 0.066240 -0.045609 0.048570 0.002456 0.009707 -0.020029 0.103080 0.077027 -0.030094 0.032493 0.088519 0.043137 -0.012951 0.078374 0.007908 -0.073360 0.099142 0.046324 -0.083115 -0.075469 -0.063338 0.039592 -0.032237 0.024448 0.060266 0.036738 -0.008903 0.055767 0.050344 -0.027158 0.025092 0.035016 -0.002101 -0.025885 0.035952 0.013832 0.020028 -0.019131 -0.025236 -0.011366 -0.003020 0.045268 0.003648 0.074323 0.020278 -0.052382 -0.005712 -0.044552 0.060514 -0.043464 -0.046833 -0.000088 0.071702 0.006936 -0.008153 -0.009683 -0.010970 -0.021769 0.001446 0.025352 0.009189 -0.006964 0.047888 0.006610 -0.003817 0.038453 -0.013576 -0.033228 0.027279 -0.010420 -0.018490 -0.009577 0.010069 -0.004178 0.006496 0.012543 0.022135 0.005412 -0.015018 0.013677 -0.009637 0.000346 0.010760 0.010498
8a838345695bde6601698ff6601502f3 -4.986366 -0.536654 -0.306430 -0.219784 -0.904544 0.189571 0.406160 0.390723 -0.612094 -0.409447 0.442550 -0.079637 -0.007355 -0.217811 -0.060654 0.144403 0.068342 -0.058493 0.048789 -0.071487 0.105825 0.100098 0.000866 -0.007865 -0.017087 0.021428 0.124460 -0.050615 0.008514 0.027238 -0.059657 -0.077647 0.052272 0.036621 -0.015171 -0.037471 -0.040805 -0.041146 0.011858 -0.019058 -0.048046 -0.033472 -0.012083 0.003329 0.075735 -0.015504 -0.022336 -0.011961 0.029985 0.001719 -0.025585 0.003654 -0.033748 0.006447 -0.018351 0.019803 0.025491 0.003843 -0.046266 -0.028283 0.019115 -0.024745 0.031719 -0.003257 0.004767 -0.004898 -0.001984 0.004354 -0.004052 -0.023132 0.010544 0.005084 -0.039556 -0.009522 -0.018019 -0.001374 -0.012009 0.006158 -0.034290 -0.037170 0.013184 0.017444 0.003981 0.030439 -0.021050 0.006116 0.028311 0.014625 0.039401 0.041376 -0.002172 -0.003606 0.013639 0.016619 0.002210 0.003179 0.017418 -0.013215 0.001498 0.016531
8a838345695bde6601698ff6a5fc02f7 -4.932125 2.032106 -1.464497 -0.808918 -0.560093 -1.189603 1.646835 0.066492 1.337052 -1.471942 -0.754595 -0.156957 -0.780686 -0.336431 -0.119930 -0.138695 -0.008042 -0.040842 -0.012203 0.077280 -0.051806 0.070105 -0.075897 -0.077154 -0.030052 0.128620 0.090859 -0.018210 -0.082277 -0.052164 -0.087182 0.013245 -0.036271 -0.014458 -0.011578 0.018093 0.026817 0.032378 -0.052353 -0.017829 -0.010565 -0.087548 -0.074907 0.011735 0.088301 0.002959 -0.024649 -0.029947 0.014573 -0.039820 0.002067 -0.058334 0.004424 -0.013910 -0.007790 0.028524 -0.013260 0.025142 -0.041052 0.070932 -0.006333 0.012179 -0.037086 0.018048 -0.030505 0.002373 0.022040 -0.037029 0.008425 -0.014093 0.034082 0.003983 0.012896 0.005847 -0.001371 -0.009501 -0.018715 0.034786 0.003685 0.003059 0.057503 -0.010648 -0.021869 0.021597 -0.011928 0.005454 0.000602 0.028971 -0.019577 0.014710 0.002361 0.004383 -0.023661 0.000465 0.000337 0.002047 -0.010035 0.010918 -0.007766 -0.003171
8a838345695bde6601699f4874f532ad 13.183005 -1.154236 1.462940 0.490113 0.149339 0.359036 0.990074 -0.327977 0.879361 0.159530 -0.009075 -0.050475 -0.291825 0.002162 0.302365 0.168704 0.009433 -0.045494 0.045426 0.015120 0.022286 -0.049419 0.075991 -0.130300 0.039009 -0.161328 -0.043285 -0.046956 -0.035995 -0.012150 0.051483 -0.046594 0.046140 0.113658 -0.066867 0.010418 0.087144 0.125193 0.081117 -0.019344 -0.028538 0.036291 -0.005748 0.048868 0.067632 0.014753 -0.026349 0.023118 -0.063211 0.016316 -0.015013 0.049731 0.018080 -0.027827 -0.012227 -0.013585 -0.023315 0.024414 0.007419 0.005880 0.015150 0.042440 -0.009222 0.027356 0.020071 -0.010264 0.000148 0.013940 -0.016263 -0.025266 0.004029 0.021512 0.065856 -0.015929 -0.005594 0.001411 0.025851 0.024023 -0.019554 0.007330 -0.024686 -0.004972 -0.011071 -0.018587 -0.008883 0.022828 -0.020828 -0.000288 0.006177 0.025847 -0.011490 0.012819 -0.020858 -0.019627 -0.028349 0.011009 -0.012188 0.004818 -0.008833 -0.024797
8a838345695bde6601699f4cd38a32d0 13.208164 0.089698 -0.250583 1.294907 -1.102768 0.044008 0.417063 0.876205 0.403790 0.193784 -0.334236 0.171467 -0.264753 -0.242532 0.294226 0.241936 0.035988 0.072534 -0.124803 0.125084 -0.020007 -0.186424 0.002498 -0.168008 0.030079 0.014307 -0.002110 -0.191282 0.055986 -0.049664 -0.053237 0.071637 0.111331 -0.084298 -0.067007 0.023693 -0.006160 0.008983 -0.045466 0.024197 -0.002016 -0.026145 0.009835 0.001032 -0.054931 -0.002965 0.022409 -0.068213 0.028563 0.026561 -0.010514 -0.032959 0.005398 0.019978 0.022976 -0.028239 0.027694 0.021716 -0.012507 0.002763 0.029971 -0.003119 -0.013307 -0.006656 -0.018194 0.005182 -0.004542 0.002998 -0.018339 0.022261 -0.025305 -0.007231 -0.037118 -0.031529 0.018505 -0.008130 0.013020 -0.040955 -0.008722 0.034266 0.006609 -0.006464 0.004503 0.003528 0.007294 -0.007199 0.012437 0.005360 0.001575 -0.019687 0.006920 -0.015353 0.010905 0.004543 -0.023804 -0.018809 -0.002396 -0.007392 -0.006902 -0.011316
8a838345695bde6601699ebf1bc22b16 -4.692629 -2.725065 0.235145 0.786106 2.109769 -2.308053 0.143195 0.024674 -0.618292 0.514224 -0.068960 -0.069261 0.178674 0.432079 -0.170633 -0.036984 -0.231837 0.031232 -0.021786 -0.055447 0.104008 -0.162261 -0.036742 -0.132651 0.081250 -0.027478 0.005219 0.074432 0.001085 -0.037879 -0.040968 -0.012896 0.012939 0.002325 -0.002375 0.049838 -0.000159 0.031794 0.025200 0.011781 -0.045500 0.005402 -0.024388 0.022002 -0.038442 -0.042948 -0.010068 -0.036086 0.005083 0.022049 0.034573 0.011184 -0.043853 0.001519 0.005165 0.016816 0.041302 0.037839 -0.058920 -0.021675 0.004087 0.004159 -0.035219 -0.022379 -0.006377 -0.006510 -0.035203 0.015430 0.010373 -0.043763 -0.028050 0.015393 -0.006271 0.003564 -0.042513 0.016510 0.021956 0.005593 0.013999 0.001736 -0.007103 0.011473 -0.008991 0.033797 -0.016460 0.004732 -0.017404 0.012082 -0.013310 0.010610 -0.026292 0.023077 0.004426 -0.009299 0.018860 0.000144 0.013216 -0.006468 0.010296 -0.004252
8a838345695bde6601699ebf483c2b1a -4.763475 -1.579936 -0.596477 1.036880 2.419129 -0.936772 1.434995 -1.167898 -0.782309 -0.330587 0.151527 -0.024124 0.406986 0.359334 0.011437 0.048021 -0.077214 -0.057844 0.110917 -0.054914 0.097659 0.029371 -0.029194 -0.170731 0.107778 0.022441 -0.046727 0.097748 -0.015512 -0.019501 -0.070358 0.039018 -0.012240 -0.027395 -0.011660 0.009026 0.011514 -0.018180 -0.009947 0.002108 -0.019334 -0.004200 -0.053740 0.008459 -0.010023 0.023535 -0.012438 -0.008407 -0.020980 -0.008485 -0.009315 0.023239 -0.011083 0.005833 0.011579 0.025300 -0.004769 -0.010050 0.006546 0.012897 0.003196 0.002353 -0.007184 0.023324 -0.000458 0.007851 -0.021533 -0.009992 -0.001436 0.006128 -0.008301 0.019827 -0.011530 0.019507 0.005178 -0.030302 0.010443 -0.020003 -0.009195 -0.015401 0.007723 -0.024543 -0.012820 -0.008290 0.010012 -0.013276 -0.003019 0.006160 -0.007532 0.002666 0.010125 -0.025471 0.031644 -0.007358 0.005112 0.009439 -0.026137 0.004099 0.015067 0.005856
2c9fadbd780bb5ed01780e679d232cf0 9.261325 -1.356944 -1.706673 -0.512044 0.289324 -0.222616 -0.737393 -0.302038 -0.536368 0.284295 0.197813 0.313987 1.214137 -0.114505 0.373333 -0.046158 0.138384 -0.063113 -0.000797 0.056631 -0.066875 -0.005279 -0.177772 0.083259 -0.012917 -0.066735 0.119600 -0.008458 0.089546 0.027750 -0.028675 0.013536 -0.075903 0.007434 0.095829 0.049895 -0.016398 -0.053796 0.016802 0.033454 0.013249 -0.074504 -0.087326 -0.039229 -0.011360 0.056207 -0.016786 -0.009859 -0.007561 -0.010595 -0.000189 0.013935 0.002489 -0.052159 0.011273 -0.004214 -0.061837 0.025468 -0.000069 0.019802 0.020913 0.002584 0.027578 0.041646 0.021589 0.012147 0.022020 0.041232 0.005521 -0.023715 0.002289 -0.001512 -0.018037 -0.000150 0.006747 -0.005171 -0.002784 0.031853 -0.000065 0.000896 0.012143 0.003289 -0.022160 -0.024924 -0.008672 0.015471 -0.025497 0.010108 0.026195 -0.027289 -0.012539 -0.019926 -0.013947 0.010525 -0.033674 -0.010983 -0.013692 -0.022543 0.014377 -0.006493
2c9fadbd780bb5ed01780e6809ce2cf4 9.177134 -1.145887 -1.372223 -0.943740 -0.166718 0.093194 -0.822972 -0.270233 -0.709096 0.140481 0.095761 0.227605 0.732217 -0.066895 0.317838 0.125148 0.200662 -0.086131 -0.082774 0.155038 -0.114085 -0.053779 -0.210119 -0.024302 -0.124789 -0.156734 0.060541 0.099860 -0.078016 -0.005342 -0.002503 0.097578 -0.085594 0.102617 -0.026401 -0.014283 0.072081 0.076260 0.044575 0.000519 -0.011102 0.020810 -0.057294 0.088692 0.108241 0.002429 0.007165 -0.026119 -0.008641 -0.009995 0.043636 -0.024262 -0.002162 0.081981 -0.019203 0.005574 0.010561 0.006677 0.007510 -0.042403 0.007876 -0.006927 -0.014520 -0.047134 -0.047316 -0.030466 -0.024973 -0.012316 -0.001379 0.028055 0.005661 0.003664 -0.003657 0.007239 0.022191 0.002380 -0.004046 -0.001430 -0.000065 0.001197 -0.005441 0.011099 -0.000872 0.016245 0.003900 -0.012414 -0.000912 0.004680 -0.015818 -0.013700 0.032071 0.005682 -0.001000 0.010926 0.028470 -0.000772 0.017654 0.001726 -0.003643 0.007181
8a838345695bde6601699ebf8d752b1e -4.764462 -1.568743 -0.600117 1.032238 2.407420 -0.954953 1.446998 -1.161953 -0.766647 -0.334422 0.180231 -0.018095 0.402770 0.362171 0.130206 0.162003 0.055909 -0.076621 0.103488 -0.051398 0.098550 0.089740 -0.002804 -0.197620 0.080592 0.025671 -0.056821 0.104461 -0.029787 -0.005951 -0.014623 0.015571 0.003161 -0.026032 0.021733 -0.033418 0.016945 -0.057165 -0.110009 0.015240 -0.009555 0.012298 -0.010744 0.007381 0.010805 0.067782 -0.032071 -0.012419 0.013620 -0.036104 -0.051175 -0.021280 0.006154 -0.011546 0.051103 0.014913 -0.034026 -0.010930 0.055635 0.004532 0.017237 0.011829 0.019448 -0.033018 0.000183 0.024727 0.028677 0.020124 -0.014070 0.017626 -0.027661 -0.011584 0.017020 -0.009528 0.047586 0.064411 -0.029156 -0.003746 -0.000036 0.011856 -0.018770 0.029099 0.000754 0.012623 0.015952 -0.004140 0.021898 0.000669 -0.008691 -0.012404 -0.009556 0.003990 -0.010919 -0.008346 -0.011666 0.015703 0.002118 0.012930 -0.018577 0.003673
8a838345695bde6601699f50233832fb 13.139949 -0.543161 1.048475 0.142998 0.497404 0.414239 2.522263 -0.500839 0.322280 -0.517704 -0.167902 0.099747 -0.190291 -0.116606 0.221369 0.172773 0.062054 0.009736 -0.001051 0.076914 -0.047111 -0.011535 0.091140 -0.154451 0.112627 -0.086639 -0.063758 -0.163441 0.010015 0.060688 0.029094 0.091687 0.110456 -0.088516 -0.042178 -0.025399 -0.064210 0.000502 -0.004106 0.016059 0.014151 -0.005965 0.039886 -0.027735 0.009901 -0.013332 0.002681 -0.009090 0.033249 0.005508 -0.007915 0.007347 -0.025397 -0.013693 -0.013688 0.003101 0.007719 0.008507 0.044349 -0.058208 -0.015087 -0.016752 0.023164 0.005304 -0.009893 -0.020425 -0.000964 -0.036219 0.022406 -0.009225 0.023072 -0.051651 -0.033776 0.047570 0.013217 -0.011390 -0.012436 0.044484 -0.011368 -0.034188 -0.003777 0.018684 -0.027437 -0.005352 -0.014647 0.003853 -0.028246 0.005842 -0.012226 -0.012283 -0.002353 -0.000558 -0.019288 0.001178 0.019918 0.007706 0.013068 -0.017799 0.000455 0.009497
8a838345695bde6601699f50d00a32ff 13.164426 0.702796 -0.670263 0.951967 -0.770432 0.101553 1.940853 0.702677 -0.154264 -0.491584 -0.475090 0.298510 -0.173613 -0.355618 0.274475 0.170046 0.052501 0.054490 -0.024712 0.082597 -0.140686 -0.103217 -0.012992 -0.050833 0.055083 0.011553 0.020526 -0.080092 0.098100 -0.020720 -0.058042 -0.082781 0.008641 0.005418 0.071545 0.049040 0.082879 -0.079082 0.142551 -0.038002 -0.003279 0.017838 -0.017865 0.084241 -0.065398 0.039104 -0.012124 0.025079 -0.002966 -0.010383 -0.007106 -0.016410 0.002521 -0.016576 -0.023371 0.015673 -0.030890 -0.015939 0.011354 0.038730 0.006396 0.016054 -0.023370 0.016088 0.020906 0.011559 0.015566 0.021531 -0.009057 0.027891 -0.001075 0.038244 0.002274 -0.016753 -0.032405 0.010131 -0.022127 -0.017613 0.039582 -0.027727 -0.020489 0.017289 0.027863 0.041891 -0.001435 -0.014437 0.015670 0.001006 0.000048 0.002603 -0.014889 0.001324 0.022165 0.001211 0.008667 -0.006640 0.019841 0.017646 0.006533 0.026219
8a838345695bde6601699ebfbcbb2b22 -4.746787 -0.756349 -1.731009 1.574523 1.593701 -1.129803 1.042762 -0.379531 -1.108661 -0.312308 -0.089105 0.118202 0.409769 0.174419 -0.100372 -0.086016 -0.146404 0.038147 -0.049701 -0.079702 0.144103 -0.108292 -0.047176 -0.141743 0.051985 -0.022325 0.033026 0.115301 -0.040028 -0.030172 -0.035711 -0.069609 0.024946 -0.005281 -0.011115 0.012888 -0.033158 0.034381 0.056371 0.030670 -0.014220 0.004863 0.028662 -0.001178 -0.065553 -0.027190 0.003512 -0.015978 -0.026521 -0.002795 0.018125 -0.049008 0.006545 0.010030 -0.040890 -0.015775 0.013387 -0.036880 -0.019425 -0.004800 -0.006906 -0.010090 -0.003056 0.025094 0.021315 -0.003691 0.027522 -0.019628 0.019630 0.026966 0.062966 -0.004594 -0.020323 -0.025973 -0.000491 -0.027383 0.020413 0.003873 0.008649 0.011650 0.012714 -0.035563 0.010656 -0.019462 0.002907 0.008334 -0.005283 -0.016165 0.024074 0.013081 0.039530 -0.002362 -0.015101 0.025675 -0.010455 -0.023807 0.017814 -0.015558 -0.001623 -0.015811
2c9fadbd780bb5ed01780e688f642cf8 9.178348 -1.142826 -1.376968 -0.944924 -0.160344 0.096897 -0.813743 -0.265720 -0.705691 0.134037 0.081389 0.238981 0.732303 -0.052350 0.362864 0.126599 0.137941 0.035898 -0.154047 0.113138 -0.010494 -0.139615 -0.162559 0.034466 -0.058459 -0.028489 0.126270 -0.052174 0.032920 0.033741 -0.035139 0.082494 0.056760 -0.042365 -0.094106 -0.008084 -0.062114 -0.042691 -0.125123 0.036020 0.026544 -0.009673 0.065567 -0.065562 0.006800 -0.025230 0.048091 -0.002534 -0.033076 -0.020773 -0.029719 -0.050125 -0.008646 -0.031250 0.044610 0.028807 -0.003473 -0.007663 -0.035048 -0.009308 -0.013574 -0.019578 -0.026195 0.012057 0.027234 -0.005172 -0.004688 0.004267 0.002310 -0.026130 0.010753 0.022568 0.028541 0.011667 -0.023916 -0.008699 0.004533 -0.023243 -0.007713 0.002495 0.001573 -0.010012 0.002194 -0.006660 -0.000458 0.015754 0.016372 -0.014452 -0.012992 0.041267 -0.005235 0.019665 0.010369 -0.012652 0.012447 0.016959 -0.016298 0.025075 -0.005240 -0.000374
8a8383456750357a01675450bf6202dc 13.252450 -1.145796 0.945275 1.219702 0.593603 0.705877 0.968991 -0.888374 1.246560 0.250435 0.269115 -0.016685 0.308698 -0.004016 -0.197250 0.207226 0.229218 0.016301 0.035637 -0.117756 -0.070055 0.073996 -0.130038 -0.059098 -0.050066 0.095111 -0.066955 -0.020702 -0.051302 0.055208 0.016309 -0.030927 -0.078508 -0.017660 -0.029119 -0.011675 0.023684 0.016761 -0.082246 -0.048394 0.033077 0.101453 0.029232 -0.036571 0.019281 0.016355 -0.026958 0.047224 -0.002301 0.002831 0.014392 -0.007456 0.012921 -0.014358 0.021723 0.001276 -0.042274 -0.013211 -0.035052 0.017447 -0.066614 0.020027 0.007085 -0.015792 -0.008760 -0.052524 -0.030480 0.013451 0.009366 -0.022496 -0.025413 0.018382 -0.014080 0.020212 -0.031862 -0.000617 0.009178 0.004953 -0.023247 -0.007083 0.003755 0.006300 -0.005964 0.016950 -0.010141 -0.000310 -0.000376 -0.005634 0.025618 0.012856 -0.008054 -0.035113 0.012629 -0.005162 0.008410 -0.025751 -0.004654 0.015365 0.007994 -0.000477
8a8383456750357a01675451c3be02e1 13.275863 0.106982 -0.774731 2.033060 -0.663548 0.399481 0.379672 0.297858 0.767810 0.266378 -0.071264 0.188213 0.300426 -0.276159 -0.091986 0.047702 0.048796 -0.036155 0.025196 -0.102292 0.058701 -0.087606 -0.079985 0.067905 -0.001996 0.024323 -0.055586 0.085404 -0.042515 0.049865 0.024076 -0.021072 -0.075136 -0.039626 -0.018308 -0.040047 -0.022297 0.049595 0.005895 0.044676 -0.028307 0.019795 -0.027011 0.050610 -0.026343 0.018106 0.020522 0.006868 0.080718 0.006681 0.016346 0.025350 0.001473 0.013224 0.007122 -0.066570 0.014670 0.026353 0.017772 0.004151 0.073090 0.034131 0.069191 0.039109 -0.051182 -0.011777 0.011394 -0.030169 0.053418 -0.039735 -0.013630 -0.012966 -0.037825 -0.033421 -0.000669 -0.015967 -0.039677 0.008795 -0.002404 0.019791 0.023659 0.003611 0.051200 -0.013270 0.006606 -0.040026 0.015338 -0.003190 -0.012182 0.016164 -0.021073 0.012963 -0.009697 -0.005613 -0.000922 0.004614 -0.010846 0.014814 -0.005010 -0.007514
8a8383456750357a01675451fd0f02e5 13.278143 0.108620 -0.782164 2.036101 -0.657005 0.407665 0.382181 0.312339 0.767090 0.269164 -0.074099 0.188290 0.301814 -0.269823 -0.011736 -0.010096 -0.007757 0.053004 -0.036761 -0.089231 0.003687 -0.157369 -0.099494 0.082346 0.001008 0.205428 0.016901 0.077653 0.010985 0.083643 -0.028427 -0.075967 -0.051033 -0.077704 -0.006931 -0.052323 0.003729 -0.082231 0.048031 -0.070689 -0.010248 0.015863 0.069711 0.004187 0.034194 0.009850 0.001655 -0.010310 0.014279 0.023317 -0.007992 0.062320 -0.065885 0.004345 0.000533 0.038561 0.030285 -0.055264 -0.008683 -0.010305 0.040811 -0.042128 0.002975 -0.058585 -0.022000 0.037472 0.013859 -0.007439 0.007361 0.016376 0.047639 -0.031752 0.063147 0.006076 0.026927 0.028184 0.012621 0.010148 0.000689 -0.020894 -0.007840 -0.026909 -0.006335 -0.003051 0.008054 0.023656 -0.036206 0.034375 -0.010457 -0.012661 0.013069 0.009034 0.001327 -0.018592 -0.008521 0.006561 -0.004562 -0.009929 0.000050 0.001045
8a8383456750357a01675452592202e9 13.275724 0.078231 -0.751729 2.028025 -0.659463 0.399331 0.381767 0.290233 0.759129 0.288301 -0.076287 0.192013 0.311172 -0.264387 -0.483430 0.182359 0.252751 0.087313 -0.055238 -0.176468 -0.068784 0.001629 -0.136798 -0.075166 -0.059857 0.118499 -0.074689 -0.009466 -0.008051 -0.009833 0.003312 -0.080385 -0.056181 -0.031142 -0.007068 -0.046575 0.023007 0.051985 -0.057723 -0.032009 -0.020569 0.007800 0.003369 0.005831 -0.019577 -0.045631 -0.026548 0.029438 -0.057995 -0.026097 0.004910 -0.001931 0.019696 0.000607 -0.015353 -0.009209 0.023495 0.008078 0.018626 -0.012687 -0.047416 -0.016618 -0.008460 -0.020820 0.054962 0.004153 0.021594 0.013721 -0.025305 0.011531 -0.018232 0.000258 -0.023586 -0.007979 -0.003400 -0.033976 -0.003892 -0.002156 0.023361 0.035459 0.000358 -0.002558 -0.035222 0.001468 -0.011948 0.009638 0.009177 -0.026908 -0.003189 -0.002167 0.002605 0.022936 -0.004257 0.020454 0.001602 0.008885 0.005332 -0.016365 0.007714 -0.000239
8a8383456750357a0167545cdc190319 9.286755 -1.426139 -1.736687 -0.692292 -0.069701 0.204038 -0.242509 0.231567 0.680706 -0.073559 -0.050823 0.020972 -0.388083 -0.186173 0.025450 0.143111 0.020067 0.091749 0.092259 -0.133161 -0.052315 -0.044877 0.069801 0.023710 0.063261 -0.099119 -0.168235 0.036840 -0.037006 -0.028837 -0.041422 -0.000803 -0.036675 0.009702 0.080734 0.076015 0.041566 -0.052727 -0.039635 0.134425 0.046039 -0.041940 -0.064890 -0.071040 0.026794 -0.042557 -0.023355 0.045347 0.043514 -0.022763 0.063928 0.039899 -0.084213 -0.080695 -0.036612 -0.061014 0.017504 0.024527 -0.032933 -0.031045 -0.036988 -0.033715 -0.013526 0.024258 -0.003235 -0.024872 -0.007230 -0.008819 0.008170 0.024754 -0.007073 0.009086 0.043942 -0.055793 0.014399 0.034207 0.004302 -0.029491 -0.015765 0.008233 0.011162 0.002867 -0.002670 0.000517 -0.004452 0.018760 0.004208 0.010203 0.000689 0.002068 0.025957 -0.004818 0.007514 0.016280 0.008498 0.004995 -0.002477 -0.006667 -0.009502 0.022079
ff8081816e64fa27016e6e335e4367dc -4.967395 -1.694465 0.997605 -0.562018 -0.082917 0.458216 -0.068153 -0.505232 0.017651 0.057709 -0.213397 -0.211357 -0.019719 0.155025 -0.099385 0.093335 0.024246 -0.140271 0.131209 0.133417 -0.116961 -0.088789 -0.018912 0.035199 0.074438 0.027808 -0.040032 -0.016908 0.016260 -0.017590 -0.042297 0.005479 -0.030209 0.046162 0.039185 -0.005279 -0.093346 0.028572 0.006448 0.029048 -0.068863 -0.029702 0.045501 -0.000583 -0.011311 0.039841 0.004771 0.030514 0.017465 -0.014100 -0.031756 -0.014066 -0.009427 0.003525 0.009993 0.002511 -0.021209 -0.010002 0.007736 0.021255 -0.017847 0.013325 0.027301 0.017595 -0.035987 0.026295 0.003276 0.014486 -0.003156 0.007707 -0.019679 -0.014638 0.023916 -0.007701 0.030243 -0.000717 0.002894 0.014046 0.036911 -0.015311 0.008450 -0.014036 -0.012166 -0.027183 -0.023220 0.012261 0.011633 -0.033679 -0.025691 0.027907 0.003840 0.024538 0.024786 0.003072 0.001678 -0.028878 0.035292 0.014593 -0.008014 0.020768
ff8081816e64fa27016e6e33a5cb67e0 -4.967071 -1.693557 0.993425 -0.559355 -0.072470 0.459481 -0.059541 -0.499833 0.021876 0.053507 -0.212138 -0.212824 -0.028819 0.146886 -0.048128 0.097424 0.033234 -0.073543 0.089337 0.073310 -0.112783 -0.129233 0.070401 0.059034 0.058487 -0.000906 -0.067219 0.003966 -0.075281 0.027617 -0.060655 0.003682 -0.051201 0.040425 0.106160 -0.068236 -0.043230 0.025991 -0.026346 -0.017985 0.019522 0.034428 0.094750 0.058918 -0.016949 0.010321 0.135778 0.045510 -0.000605 -0.000989 -0.033563 0.028984 0.029301 -0.024739 0.000951 0.008941 -0.000324 0.023558 -0.013190 0.028320 0.072334 -0.013645 -0.071963 0.020946 0.041736 0.022031 0.017379 0.038653 0.012527 -0.001860 -0.040308 -0.004069 -0.030437 0.009705 -0.003676 -0.001990 0.012076 0.019883 -0.049200 0.018215 0.000750 -0.021137 0.007533 0.026755 0.008936 0.020479 0.022343 0.040241 -0.001080 0.009086 0.034036 -0.012485 -0.029924 0.016486 0.011155 -0.003753 -0.004083 0.000327 -0.001169 0.002702
ff8081816e64fa27016e6e33e8de67e9 -4.989188 -1.100599 1.111623 -0.831426 -0.179041 -0.100505 -0.164678 -0.611652 0.398763 -0.184673 0.760493 -0.388577 0.022995 0.055071 -0.024939 -0.007770 -0.158917 -0.106425 0.112508 0.118281 -0.111979 -0.175863 0.043705 0.029593 0.108998 0.089863 -0.066181 -0.029856 -0.025924 0.004908 -0.133238 0.058582 -0.047220 0.049456 0.012150 -0.085086 -0.015435 0.030210 -0.001333 -0.024898 -0.100988 -0.043659 0.026648 0.001827 0.017235 -0.008191 0.010814 -0.001888 0.021646 0.043789 0.004193 0.014198 0.008086 0.000898 -0.005904 -0.008039 -0.027333 -0.002438 -0.075926 -0.005926 -0.028561 -0.013782 0.020311 0.018491 0.011928 -0.013822 -0.017868 0.014728 0.012628 0.007348 0.034401 -0.007183 0.014506 -0.019218 -0.001426 -0.015112 -0.009974 -0.023643 0.006410 -0.006535 0.007533 0.020162 -0.002861 0.027254 -0.011894 -0.016406 -0.005717 -0.044522 0.010213 -0.041241 -0.019766 0.007283 -0.008753 -0.024784 0.007493 0.015632 -0.030816 -0.023399 0.017860 -0.007510
8a83834565dc8cac0165e6cc70320383 9.189162 -2.525861 0.198412 -2.087288 0.712066 -1.009328 -0.207045 -0.051902 -0.805619 0.296195 -0.105550 0.184057 0.577748 0.102339 -0.150023 -0.088199 -0.057205 0.276643 -0.295260 0.065477 -0.022934 0.193026 -0.012840 0.132688 0.180482 0.096228 -0.077705 -0.050499 -0.056129 -0.056161 0.015935 -0.036489 0.052000 0.027426 -0.041537 -0.050305 -0.029574 0.022994 0.043145 0.041217 0.003837 0.001179 -0.009401 0.030330 0.002551 0.012808 -0.009425 -0.010560 0.031673 0.006774 -0.019433 0.009798 0.005273 0.005138 -0.006343 -0.024956 -0.022578 -0.026418 0.003286 0.006288 0.004258 -0.006114 0.000221 -0.014220 -0.004927 -0.003974 0.023052 0.006330 0.002514 -0.007937 -0.007987 -0.002627 0.013177 -0.007819 -0.008205 -0.002056 -0.005890 0.002745 -0.000373 -0.005429 0.009974 -0.006330 -0.005559 0.005463 -0.014919 -0.000030 -0.006170 -0.003178 0.002985 0.019131 0.000733 -0.001882 -0.018289 -0.002696 -0.001409 0.000291 0.007193 0.004495 -0.012107 0.008677
8a83834565dc8cac0165e6ccc9780392 9.172715 -0.494960 -2.143887 -0.365522 -0.600824 0.683090 -1.150183 -0.382699 -0.689369 0.077693 0.112409 0.228602 0.766634 -0.099804 0.152239 -0.051918 -0.100945 -0.009602 0.137616 0.027925 -0.025192 0.109552 0.082319 -0.008689 0.042182 0.122715 -0.048652 0.016852 -0.112028 -0.029951 -0.004295 -0.003931 0.069940 -0.003515 -0.009348 0.098152 0.037741 -0.000403 0.013694 -0.093081 0.010556 -0.038186 0.002537 0.018031 -0.046587 -0.085405 -0.002839 -0.013779 -0.019001 0.035219 -0.021505 -0.007279 0.033485 -0.038662 -0.035022 -0.015653 0.002809 0.001503 -0.001501 -0.015612 0.018183 -0.009415 0.023558 0.012603 -0.002292 -0.004517 -0.023202 -0.003587 0.009931 -0.011385 -0.012752 -0.013330 0.018040 0.031300 0.006299 0.007688 -0.012053 0.028064 -0.006229 0.003329 0.013648 -0.007853 0.008157 -0.001280 0.008174 -0.006878 0.017786 -0.010409 0.011381 0.010310 -0.003513 0.011605 -0.018144 -0.005441 0.011891 0.001925 0.014372 -0.002607 0.001043 0.016216
8a83834565dc8cac0165e6cd270f039b 9.239150 0.796053 -2.778147 -0.915905 1.167330 1.801951 0.746215 1.741994 0.292126 -0.658511 0.023163 -0.615430 0.436272 1.599835 0.049103 -0.270141 0.048747 -0.112340 -0.017810 -0.052840 -0.046728 0.048681 0.003090 0.018396 -0.013630 0.019122 -0.003318 0.005770 0.029578 -0.029636 0.010510 -0.052278 0.061526 0.000199 -0.024852 -0.001323 0.029895 0.024311 0.002970 0.003376 -0.033352 -0.042951 -0.010661 -0.025293 -0.029791 0.000757 0.078380 0.023155 0.002243 -0.011441 -0.000406 0.006209 0.003322 0.006010 0.002023 -0.005481 0.010130 -0.014114 0.019727 -0.005117 -0.006987 -0.010874 0.013375 -0.008966 -0.014309 0.006121 -0.002883 0.021018 0.000440 -0.012282 -0.000857 -0.003047 0.009786 -0.000055 -0.013373 0.006959 -0.002509 0.001584 -0.001042 0.000158 0.000473 -0.007073 -0.006471 0.005607 -0.011647 -0.010964 -0.009573 -0.004716 0.009183 0.015223 -0.000663 0.003216 -0.023710 -0.005305 0.008601 -0.005182 0.005821 -0.001364 -0.012210 0.010132
8a8383456788d6e00167995954313ea8 -4.689220 -2.312172 -0.061521 0.531099 0.952999 -0.108977 0.706967 -0.028734 1.784467 0.100858 -0.062043 -0.204711 -0.138555 -0.126181 0.451563 -0.106071 0.052105 -0.125635 -0.035492 0.078177 0.207421 0.007904 -0.037572 0.170992 -0.044587 0.167532 0.000499 0.010697 -0.074069 -0.089537 0.106846 0.114323 0.042309 -0.018228 0.045142 0.056422 -0.072946 -0.064663 0.011993 -0.011049 0.000774 0.001598 0.010615 0.076045 0.032906 0.025940 -0.046287 0.011944 0.016367 0.028044 0.033888 0.008821 -0.002221 -0.044527 0.015053 0.081435 0.056584 0.023538 0.087707 -0.045933 -0.023072 0.055924 -0.031325 0.006643 0.031660 -0.001213 -0.026521 0.027693 0.033171 0.001360 0.008168 0.003171 0.011356 -0.035620 -0.050471 -0.010636 -0.004155 -0.014539 0.011363 0.015873 0.008262 -0.020154 -0.008806 -0.006276 -0.008426 -0.008179 0.011706 -0.008509 0.001060 -0.000971 0.009402 0.005745 -0.005566 0.008278 0.000468 -0.006873 -0.003626 -0.007983 0.001222 0.000505
8a8383456788d6e001679959908d3eac -4.663826 -2.867074 0.363559 -0.060630 0.952813 -1.433285 0.933373 0.966080 1.379752 0.283936 -0.427419 -0.119803 -0.277092 -0.169555 -0.038466 -0.129572 0.082164 -0.245842 0.040639 0.113602 0.013889 -0.013327 -0.166895 0.020249 0.018231 0.184464 -0.008585 0.005435 -0.070450 -0.094334 0.166517 0.034410 0.036061 0.029449 -0.027077 -0.013536 0.038178 -0.036965 0.077043 0.063650 0.075631 -0.047709 0.070960 -0.091344 -0.010460 -0.040210 0.039359 -0.023894 -0.054789 -0.006454 -0.008897 0.024784 -0.020487 0.070385 -0.024747 -0.035543 -0.046502 -0.012993 -0.000908 0.027423 0.040156 -0.038447 0.014363 0.018060 -0.020367 -0.030182 -0.017559 -0.010294 -0.017901 0.006897 -0.021301 0.067910 -0.012364 0.021955 0.027979 0.019238 0.027287 0.012520 -0.009887 -0.001765 0.003796 0.023210 0.022708 0.001314 0.002550 0.007110 0.002526 -0.017124 0.010322 -0.013607 -0.008646 -0.006916 0.008273 0.006871 -0.002946 0.012106 0.008088 -0.008676 -0.001387 -0.001811
8a8383456750357a0167545d4bac0321 9.286475 -1.402503 -1.737777 -0.696029 -0.061579 0.202433 -0.237751 0.238840 0.696796 -0.092974 -0.056112 0.042338 -0.390711 -0.196372 0.168177 0.096209 -0.066148 0.098005 0.040389 -0.155643 0.194395 -0.127707 0.055355 0.096278 0.032339 -0.123617 -0.056967 -0.026145 -0.014887 -0.049801 -0.086466 -0.038152 0.106029 0.052691 0.101338 0.018439 -0.033105 -0.003659 0.029634 -0.056928 -0.090915 0.046500 0.001121 -0.030708 0.027378 0.018734 -0.030574 -0.001084 0.001926 -0.015224 0.019735 -0.011228 -0.013778 0.059030 0.028883 0.024390 -0.032285 -0.002919 0.030977 0.057505 -0.007790 -0.020520 0.044554 -0.052520 0.012431 0.025548 0.006651 -0.026574 -0.003237 -0.024114 0.007902 0.039931 0.003141 0.066934 -0.000544 -0.015780 0.001138 -0.010224 -0.036817 -0.016112 0.030841 0.004354 0.015382 -0.026412 0.004586 -0.003940 0.009114 -0.022450 0.012979 -0.013822 0.028291 0.000487 -0.001454 0.027493 0.007804 -0.006590 -0.019387 0.021137 -0.000539 -0.008751
8a8383456750357a0167545d814c032d -0.773037 -0.192388 0.674127 3.098506 -0.523385 0.318397 1.020551 0.453259 1.481576 0.328449 -0.338728 -0.075583 0.015811 -0.222632 0.091304 -0.147640 0.069912 0.065552 -0.069598 -0.114421 -0.033696 0.142307 -0.038752 0.223616 0.241157 -0.093790 0.028216 0.108195 0.014388 -0.048710 0.004594 0.038065 0.057299 0.062209 0.039296 0.020512 0.041556 0.072209 -0.004163 0.012224 0.002755 -0.066884 -0.065344 0.021848 -0.006627 0.013751 0.102161 -0.009921 0.019055 -0.054049 -0.020998 -0.028993 0.018834 -0.002189 0.033602 0.028599 0.011306 0.009227 -0.060200 -0.061461 -0.036796 -0.027303 -0.015659 -0.016034 0.023331 -0.018592 0.019783 -0.016068 0.011838 0.012128 -0.011932 -0.032018 -0.005174 0.052614 0.005988 0.003026 0.000012 -0.015911 -0.002680 -0.016231 -0.015983 -0.019160 0.003263 0.000613 0.025254 -0.008886 0.025318 -0.000284 0.004610 -0.011782 -0.013547 0.002592 0.017807 -0.020619 -0.011662 0.001783 0.007596 0.001253 0.015037 -0.007957
8a8383456750357a0167545dbef2033e 9.273906 -1.134484 -1.948460 -0.403520 -0.074088 0.855890 -0.368330 -0.269658 0.879701 -0.165171 0.129839 -0.012317 -0.318628 -0.162387 0.322013 0.116719 0.000593 0.052695 0.065449 -0.102361 0.152959 0.067136 0.030057 0.103735 0.086057 -0.069825 -0.026438 0.072901 -0.060118 -0.041020 -0.054165 0.037421 -0.052851 0.031739 0.140190 -0.006265 -0.087763 -0.031933 -0.032918 -0.052195 0.024025 0.040940 0.016816 -0.097043 0.003925 -0.027788 0.004617 -0.036124 -0.037975 -0.011798 -0.039357 -0.024000 0.053521 0.026753 -0.007585 -0.027784 0.010269 0.012577 -0.024332 0.048034 0.025637 -0.004430 -0.024340 -0.015564 -0.028114 0.014004 -0.032500 -0.004010 -0.058202 0.014057 0.011630 -0.020692 -0.053496 -0.026610 -0.018850 -0.009248 0.010383 0.005058 0.065407 0.017423 -0.023691 0.026247 -0.008089 -0.001811 -0.020870 0.003421 -0.033910 0.018513 -0.013474 0.014761 -0.019924 0.009556 0.001674 -0.015056 0.000947 0.015721 0.018000 -0.002236 -0.006968 -0.008272
ff8081816e64fa27016e6e343d5b67ed -4.979534 -1.432433 0.784974 -0.258757 -0.087667 1.131848 -0.189047 -1.010813 0.205232 -0.022523 -0.048697 -0.271043 0.038995 0.165587 0.017005 0.014626 -0.047968 -0.094325 0.159745 0.090911 -0.108182 -0.063937 0.032276 0.024866 0.044038 0.071375 -0.042740 0.026492 0.056082 -0.029146 0.038238 0.028806 -0.026470 0.035123 -0.034394 -0.029701 -0.012782 -0.033652 -0.025866 -0.015646 -0.023841 -0.028142 -0.009526 0.009290 0.006472 0.030531 -0.026854 0.012238 0.006397 0.016258 -0.023704 -0.034797 -0.010380 0.000498 0.004365 -0.048213 0.030219 -0.022033 0.011407 -0.032019 -0.040274 -0.013090 0.047856 0.008046 -0.024076 -0.047010 0.032885 0.016923 -0.028588 0.042390 0.036517 -0.006240 -0.002839 -0.004593 -0.048587 -0.041474 -0.002541 -0.026833 0.004147 -0.013442 0.007331 0.042671 0.028115 0.003355 0.058497 0.008004 -0.031475 0.017844 -0.006258 0.034904 0.024509 -0.003654 -0.009738 0.015021 -0.010435 0.005068 0.006118 0.019068 0.004805 -0.018481
2c9fadbd787b63db01787c4e48a6036b 9.396262 -2.172110 -1.640022 -0.863257 0.412594 -1.436242 0.055932 1.195794 0.440034 0.257752 -0.329448 0.212913 -0.021255 -0.300157 -0.422484 -0.252884 -0.156209 -0.050335 0.102479 -0.016233 0.022774 0.065477 0.005658 -0.051701 -0.072504 -0.010564 -0.017697 -0.002856 0.066844 0.056535 0.034564 0.045785 0.028464 -0.015652 0.035469 -0.020941 -0.089266 -0.013682 -0.006451 -0.000167 0.019778 -0.030064 -0.026541 0.028273 -0.004657 0.037453 -0.006424 0.011660 0.024021 0.022389 0.049290 -0.041345 0.129396 -0.039597 -0.046438 -0.011990 0.042484 -0.036054 -0.021523 0.005701 0.021239 0.030935 -0.024826 -0.014461 -0.009304 -0.015142 -0.025635 0.000682 -0.004452 -0.012471 -0.002048 -0.018692 0.021260 0.031659 0.043588 0.012687 0.008563 -0.055251 -0.031068 -0.007160 -0.029004 0.015820 -0.000856 0.004258 0.005129 0.013976 -0.024953 0.003610 -0.010844 -0.003048 -0.018478 0.004190 -0.024740 0.022447 0.008534 -0.026499 -0.002067 0.018259 -0.001729 0.001713
2c9fadbd787b63db01787c4ea3e2036f 9.333124 -2.229072 -1.084413 -0.525999 1.078069 0.721960 0.174292 -0.950219 1.289369 -0.136914 1.337645 -0.184774 0.182152 -0.168343 -0.217360 -0.294415 -0.265257 0.062716 0.015264 0.009813 -0.005298 0.018161 0.002125 0.024349 -0.064174 -0.041870 0.101711 0.007491 0.106517 0.065830 -0.063346 -0.006415 0.046457 0.029679 -0.075615 -0.072167 -0.020798 -0.009988 0.106469 0.003288 -0.020876 0.076453 0.024387 -0.100857 0.009040 0.023176 -0.038281 0.033771 -0.003123 -0.018239 -0.017187 -0.070594 0.073288 -0.007349 -0.060873 -0.014046 0.014027 -0.003886 0.023924 -0.016015 -0.014919 0.009475 -0.037324 0.056893 -0.014876 0.005245 -0.001628 -0.015312 0.026040 0.031812 -0.018314 0.019375 0.011011 -0.007012 0.008713 0.017107 0.001317 0.006957 0.017119 -0.012587 0.008040 -0.008615 -0.001881 0.004666 0.013506 -0.013327 0.051651 0.025592 -0.002228 -0.011899 0.011053 -0.002050 0.014693 -0.022839 0.002193 0.006955 -0.009634 -0.022497 -0.010726 -0.003550
2c9fadbd787b63db01787c4efc4b0377 9.396884 -2.177246 -1.645346 -0.856426 0.410690 -1.432684 0.063781 1.202597 0.439033 0.254625 -0.316717 0.207654 -0.027590 -0.302716 -0.380882 -0.231994 -0.158437 0.022694 0.144140 -0.076402 -0.067727 0.022716 0.059441 -0.048666 -0.085877 -0.027967 0.060311 0.000288 0.029895 0.037651 0.039999 0.058740 -0.012448 0.075480 0.005243 0.059867 -0.033409 0.012458 -0.051004 0.006255 0.075911 -0.040277 0.011932 0.123409 -0.050724 -0.029783 0.007577 0.002919 0.008164 0.017851 -0.049097 0.001122 -0.031046 0.021970 0.020461 -0.018761 -0.025133 0.021622 0.040121 0.012314 -0.033534 0.011152 0.032694 -0.044167 0.002536 0.030328 0.037095 0.037500 -0.045560 0.002730 0.001727 -0.005643 -0.014211 -0.006768 -0.021406 -0.031701 0.038881 0.015898 0.000595 -0.029363 0.009869 0.030513 -0.010218 -0.011205 -0.009186 -0.008785 0.020150 0.016015 -0.010763 -0.004880 0.036178 -0.009779 0.012858 -0.031489 0.003260 0.013162 -0.022795 -0.020840 0.001121 0.010687
2c9fadbd787b63db01787c4f5e4f037b 9.248783 -1.997464 -0.758259 -0.961190 0.616442 1.023362 0.089884 -0.903265 1.124330 -0.292930 1.250034 -0.263157 -0.314239 -0.109698 -0.063996 -0.052412 -0.229621 0.038733 0.069046 0.018784 0.059158 0.094802 0.068945 -0.032402 -0.061841 -0.054861 0.187554 0.023253 -0.035487 0.050106 -0.013878 0.070867 -0.043648 0.078539 -0.115300 -0.013256 -0.014607 -0.013062 -0.044153 -0.022242 0.077665 0.021186 0.000798 0.076176 -0.059071 -0.050002 0.026008 0.015105 0.051997 -0.006818 0.002698 0.033496 -0.126557 0.010708 0.028953 -0.004293 -0.003597 -0.025787 -0.027684 0.022218 0.020416 -0.003440 -0.008358 0.027979 0.027812 0.029431 0.023504 -0.025937 -0.019687 0.020601 0.004077 -0.004095 0.008174 -0.004004 -0.005028 0.016077 -0.000360 -0.013500 0.006228 -0.003277 -0.007909 -0.037170 0.009300 -0.005033 -0.010440 -0.015688 -0.014269 -0.027373 0.000901 -0.013050 -0.038096 -0.015965 -0.010218 0.028725 -0.001578 -0.000080 0.023757 0.019199 -0.001777 -0.008283
2c9fadbd787b63db01787c4faf8b037f 9.313212 -1.950952 -1.313266 -1.288300 -0.051918 -1.128668 -0.039521 1.231524 0.258189 0.109070 -0.433631 0.123809 -0.524362 -0.231665 -0.289516 -0.104176 -0.147221 -0.079293 0.142864 0.017849 -0.017255 0.140307 0.022368 -0.042372 -0.045207 -0.088195 0.000467 -0.026740 -0.061561 0.065862 0.005891 0.022242 -0.034552 -0.025540 0.004291 0.012995 0.042411 0.005534 0.029436 0.039878 -0.061165 0.011533 0.066014 0.003102 0.020434 0.034484 0.009434 -0.037670 -0.039415 0.032299 -0.000446 -0.016174 0.020602 0.041428 0.047841 0.041891 -0.044118 0.018838 -0.023286 -0.043007 -0.006538 -0.008871 0.016276 0.038869 0.029238 0.013992 0.020919 0.034403 0.028379 -0.015495 0.048808 -0.037533 -0.007436 0.000374 0.019629 0.014714 -0.059573 -0.007890 0.013388 0.045090 -0.017973 -0.013492 0.009304 0.005167 0.009498 0.029454 -0.013106 -0.011127 0.008348 0.020362 0.000183 0.011898 0.040669 0.013732 -0.009274 0.005931 -0.002974 0.000537 0.023308 0.003676
8a838345695bde6601699eecfeac2f22 -4.693379 -1.084135 -1.715569 1.552930 0.050225 -0.828179 -0.369453 0.595651 0.064118 0.516871 -0.195640 0.271583 1.414051 -0.317394 -0.002359 -0.289871 0.232707 -0.069523 -0.004912 -0.028591 -0.031090 0.159486 0.325126 0.079734 -0.036299 -0.042796 -0.115662 -0.099235 -0.027307 0.036367 -0.083504 -0.005824 -0.014251 -0.065439 -0.074716 0.028955 0.004115 0.044196 0.021418 0.013107 -0.026043 -0.031030 0.050265 -0.040565 0.030020 0.026283 0.025189 -0.014053 -0.082005 0.003947 -0.018419 0.036293 -0.054497 0.010858 0.009199 0.051640 0.048036 0.031290 -0.011676 0.056759 -0.037335 0.029181 -0.031414 -0.003008 -0.019071 -0.005429 0.003574 -0.019394 0.002416 0.018353 0.036045 0.028600 -0.014204 -0.040226 0.001419 -0.007056 -0.001475 0.009978 0.000249 -0.008489 -0.005071 0.015231 0.024981 0.012825 0.010980 -0.011441 -0.003977 -0.000165 -0.017679 -0.018705 -0.009679 -0.020251 -0.006717 0.003274 0.002449 -0.010747 -0.000343 0.016926 -0.008499 -0.003854
8a838345695bde6601699eed5c3e2f40 -4.709422 -0.693911 -2.104060 2.480068 0.798123 -0.654649 -0.787152 -0.289863 -0.481253 0.307014 0.192456 -0.026843 0.376561 0.257698 -0.013195 0.291784 0.218916 -0.082894 -0.079000 0.247606 -0.026623 0.001794 0.265475 0.001174 -0.098201 0.058181 -0.124808 -0.011131 0.025896 -0.057521 0.082806 0.000447 -0.039254 0.037556 -0.025058 -0.031453 -0.007297 -0.065285 0.060575 -0.051711 0.028718 0.029042 -0.047323 -0.007605 0.000389 -0.051010 0.030752 0.061022 0.094897 -0.086923 0.042447 -0.041295 0.025440 0.062144 -0.003684 -0.005389 -0.006017 0.058051 -0.002187 0.007844 -0.004435 -0.001301 0.031052 0.018654 0.011990 0.025887 0.026504 -0.028447 -0.015885 -0.007293 0.021110 -0.023513 0.023893 0.043266 -0.008049 0.005977 0.013465 -0.027948 0.004499 0.007619 -0.000009 -0.006755 -0.013204 0.010320 -0.039167 0.014750 -0.000128 0.017516 0.001890 0.009190 -0.009584 0.012234 0.020668 0.006814 -0.008076 0.002890 -0.018098 -0.011438 -0.001048 -0.007802
8a838345695bde6601699eed9b362f4e -4.595250 -0.936411 -2.473641 2.712788 0.914111 -0.555475 -0.249721 0.202949 0.850153 0.105449 0.044284 -0.212765 -0.707076 0.123766 0.006876 0.089891 0.059101 0.002988 -0.188456 0.307078 -0.047976 0.137380 0.144782 -0.012164 -0.031164 -0.143967 0.009526 -0.005065 0.084462 0.013707 0.030780 -0.076498 -0.096213 0.001803 0.048622 -0.025823 -0.007256 -0.054760 -0.107837 -0.040472 -0.039924 -0.011037 0.020379 0.029123 -0.036962 0.040081 -0.049279 -0.060190 -0.070758 0.024084 -0.054325 -0.006697 -0.002496 0.011227 0.003968 -0.036584 0.012080 -0.041530 -0.031614 -0.003571 0.046433 -0.021828 0.003105 -0.023318 -0.046830 -0.059378 -0.003698 -0.011591 0.055817 -0.001615 -0.028944 0.009344 0.031107 -0.009376 -0.037611 0.009043 0.016857 0.011840 -0.004253 0.000864 -0.000802 -0.023182 -0.008529 -0.031271 -0.000349 -0.004654 0.005408 -0.005908 0.019217 -0.004708 0.013024 0.006296 -0.002383 0.003729 0.007248 -0.000131 -0.002288 -0.009795 0.015871 0.014885
8a838345695bde6601699eeddacb2f5c -4.595243 -0.947823 -2.480616 2.718815 0.914780 -0.543543 -0.229559 0.207182 0.867585 0.095902 0.043106 -0.212629 -0.695601 0.129639 -0.029898 0.127549 0.023643 0.076131 -0.197971 0.219967 -0.051647 -0.067820 0.125363 0.072637 -0.072708 0.006902 0.063422 0.097818 0.069090 -0.010674 -0.042630 -0.047085 -0.060315 -0.051416 -0.049901 -0.013441 -0.030416 0.042492 0.017824 0.058785 0.028890 0.013931 -0.073038 -0.056869 0.042127 -0.052615 -0.046817 -0.006531 0.008168 0.042674 0.021734 0.052306 0.006920 -0.034687 -0.004508 0.052435 -0.033209 -0.008819 0.001147 -0.019743 0.000008 -0.002797 0.019365 0.005095 0.060510 0.050150 -0.024170 0.034944 -0.041231 -0.022408 -0.018522 -0.008005 -0.032451 0.010835 0.049175 -0.029922 -0.016339 0.030717 -0.005567 -0.009694 -0.006006 0.024931 0.009179 0.017294 0.039684 -0.000324 0.006347 -0.021818 -0.002991 0.015756 0.010860 -0.009670 -0.017140 -0.011490 0.004820 0.001041 0.021405 0.009326 -0.009374 -0.004606
2c9fadbd7861a4a701786343e83b17c3 -4.993804 -0.330979 1.306211 -0.599759 1.896547 2.139528 -0.979124 0.539325 0.123821 0.003906 0.045738 0.244419 0.002211 -0.545738 0.099394 -0.315393 0.030619 0.109258 -0.027657 -0.052960 -0.046491 -0.023925 0.085787 -0.131749 0.028191 0.036268 -0.065516 -0.049166 0.022875 0.045316 0.041207 0.023999 0.033765 0.037327 0.005184 -0.016370 0.057867 -0.016527 -0.066375 -0.014067 -0.009757 -0.067840 -0.030675 -0.008020 -0.003586 0.048013 -0.066109 0.033566 0.097082 -0.062818 -0.013430 -0.001804 0.002935 0.042502 -0.035171 0.022815 -0.031749 -0.038722 -0.044072 -0.035276 0.028155 -0.035956 -0.010810 -0.044725 0.028555 0.012606 -0.047556 0.057589 0.022120 -0.011184 0.043569 0.042442 0.004733 0.009479 0.003537 -0.032538 0.025506 0.045630 0.031570 0.055421 -0.017763 -0.009227 0.031871 -0.012748 0.006650 -0.013089 0.011422 0.011390 -0.010742 -0.001840 -0.011378 -0.006142 -0.005400 0.005128 0.010420 -0.010177 -0.002219 0.001138 -0.007276 0.001158
2c9fadbd7861a4a701786344164317c7 -4.993752 -0.313671 1.298141 -0.605889 1.897784 2.131234 -0.971690 0.546711 0.137418 -0.011492 0.069625 0.250472 0.010300 -0.550358 0.274028 -0.265879 0.104456 0.016884 -0.079588 0.007767 -0.027316 -0.108265 0.067156 -0.131813 0.025660 0.010151 0.122925 0.037352 -0.067223 -0.039517 0.066369 -0.110817 0.015381 -0.027922 0.056072 0.025557 -0.041828 0.009959 0.055881 0.001025 0.014298 -0.015570 0.009873 0.014190 0.013224 -0.013967 0.002048 0.023804 -0.022835 -0.007488 -0.002551 -0.030838 0.012021 0.014472 0.031328 -0.015674 0.018651 -0.025951 -0.024382 0.010535 -0.026767 0.026187 0.042821 -0.015526 0.024010 -0.054228 0.047391 -0.027097 -0.040890 -0.017856 0.000485 -0.021721 -0.009273 -0.041699 0.025526 0.033192 0.008647 -0.002653 0.007466 -0.005605 0.011189 -0.009203 -0.019827 0.011585 0.015159 0.025766 0.021728 0.008529 -0.018963 -0.001777 -0.006133 -0.005988 -0.022583 -0.013655 0.013017 0.005811 -0.002819 0.009190 0.026043 -0.013161
2c9fadbd7861a4a70178634444a617cb -4.981818 -0.582736 1.509768 -0.892599 1.908845 1.471403 -0.850854 1.051898 -0.061777 0.071703 -0.117217 0.292683 -0.070427 -0.582952 0.171395 -0.327172 0.036715 0.097898 -0.069975 -0.120592 -0.057905 -0.122098 0.045478 -0.136507 -0.119246 -0.011999 -0.106964 0.023409 -0.007476 -0.040981 -0.008504 -0.086891 -0.047375 0.035012 -0.021974 -0.057270 -0.067564 0.049235 0.017556 0.031366 0.024941 -0.059747 0.003873 0.001353 0.055239 -0.043398 0.015576 -0.041132 -0.032855 0.008016 0.012407 -0.009685 0.024578 -0.079746 0.057367 0.072941 -0.013594 -0.017155 -0.002554 -0.010339 0.028693 0.026149 0.040168 0.010070 -0.034976 0.026833 0.010394 -0.019000 0.021987 0.072868 -0.055846 -0.005821 -0.000959 0.046383 -0.036372 0.006367 -0.007919 -0.024117 -0.001996 0.003023 0.018230 0.005361 0.010901 -0.006263 -0.025119 -0.014662 -0.020079 0.003579 0.014212 0.012708 -0.014149 -0.010773 0.019514 0.000920 -0.013739 0.008861 0.003163 -0.013486 -0.003842 0.009390
2c9fadbd7861a4a7017863446a4717cf -4.992642 -0.321037 1.302062 -0.609579 1.900861 2.126841 -0.979801 0.541686 0.115846 0.006458 0.059435 0.248905 0.013589 -0.538185 0.187655 -0.269058 0.168072 0.074995 -0.103075 0.013359 -0.063343 0.056189 0.026076 -0.199428 0.152092 0.048560 0.101892 0.037471 0.005142 0.013710 0.047952 -0.021253 -0.108305 -0.023660 0.042646 -0.004443 0.035688 -0.031275 0.000102 0.008330 0.014957 0.014295 0.030970 -0.017841 0.003888 0.044425 0.010834 0.002196 0.007780 0.028740 0.027329 0.034885 -0.001110 0.050528 -0.006801 -0.050947 0.048011 0.053659 0.044279 0.053309 -0.037608 -0.018564 -0.065026 0.030433 -0.016894 0.045078 -0.031584 0.001196 0.001752 -0.067721 0.006102 -0.029875 -0.002511 0.012573 0.001873 -0.013747 -0.035415 -0.031970 -0.023861 -0.029083 0.000632 -0.000137 -0.010670 -0.004503 0.007506 -0.011088 -0.003507 -0.022705 0.026124 -0.003636 0.017817 0.020705 0.014430 0.011476 0.002324 0.014097 0.004842 0.000947 -0.004617 0.002959
2c9fadbd7857576101785935b2e9060c 12.897664 0.969816 3.187542 -2.040267 -0.467802 -1.887678 -0.133349 -0.620354 -0.128880 0.269435 -0.358504 -0.515886 -0.341246 -0.151533 0.240439 -0.260046 0.291964 -0.210593 -0.019447 -0.049387 0.140221 -0.034149 0.041668 0.070472 -0.108879 -0.000022 -0.147751 0.043850 0.075612 -0.000117 -0.116406 -0.051970 -0.032906 -0.062473 -0.114769 0.045021 -0.065195 0.029528 0.028533 0.005300 -0.026791 -0.066056 -0.035368 -0.004875 -0.031449 -0.054373 -0.034462 0.004679 0.019058 -0.037439 -0.025963 -0.006311 -0.010234 0.045037 -0.008984 -0.028239 -0.012150 -0.034357 0.023835 0.024261 -0.007027 -0.027404 -0.018829 -0.000413 -0.020851 -0.016604 -0.002433 0.074698 -0.002119 -0.032041 -0.020059 -0.034717 0.016247 -0.000141 -0.009123 0.014055 -0.003326 -0.006818 0.000360 -0.011160 -0.013085 -0.023911 -0.017653 -0.006018 0.025792 -0.003999 0.021603 0.021998 0.019299 -0.000850 -0.010719 -0.003971 0.005452 0.018392 0.008238 0.022098 0.013748 0.005924 0.013015 -0.017672
2c9fadbd7857576101785935e4bd0610 12.886353 0.876877 2.705174 -1.199723 -0.539602 -0.041020 -0.210775 -1.356453 -0.202384 0.253148 -0.079930 -0.551199 -0.253150 -0.119774 0.162967 -0.312917 0.309339 -0.125418 -0.015539 0.000788 0.031135 0.208509 0.007423 -0.059464 -0.023582 0.084119 -0.016088 0.114996 0.243916 -0.094890 -0.053526 0.020236 0.022559 -0.039333 0.025566 -0.005087 0.005281 0.059276 -0.028387 -0.046899 0.040328 0.013228 0.018982 0.023548 -0.047155 0.005378 0.006707 -0.041715 -0.006574 -0.002458 0.028232 0.009022 -0.006067 0.000469 -0.017532 0.001778 -0.022925 0.045183 -0.041058 -0.014586 0.041380 0.002687 0.020118 -0.009873 0.031817 0.033137 0.021754 -0.061536 0.010739 0.015331 0.005092 0.030896 0.013708 -0.004456 -0.013001 0.000424 -0.016004 -0.020652 0.013788 0.012727 -0.003419 0.020108 0.004354 0.021233 0.003856 0.031433 -0.012916 -0.026467 0.015225 -0.004392 0.033033 0.005820 -0.015942 -0.018151 0.007263 -0.017277 -0.008385 -0.001011 -0.011492 0.005172
2c9fadbd78575761017859360d2b0614 12.951344 3.503429 0.682930 0.545078 0.606162 -0.376645 -1.805102 -0.367481 -0.580062 -0.115642 0.206285 -0.034321 -0.653605 0.005691 0.104244 0.151145 0.007493 -0.016491 0.060459 -0.010279 -0.037344 0.022771 -0.009186 -0.050445 0.020305 0.082219 -0.097713 0.210517 0.213574 0.013215 0.089252 0.021237 0.010328 0.100456 -0.004655 0.003256 -0.063344 -0.002645 0.052307 0.039662 -0.001977 0.022047 0.019726 -0.016502 0.029546 -0.002718 0.020827 -0.017460 -0.017257 0.041426 -0.043798 -0.061403 -0.029423 -0.029130 0.035178 0.019651 0.022618 0.036194 0.004134 0.017711 -0.030560 -0.008875 -0.038382 -0.025563 0.021235 -0.033192 0.000222 0.008922 0.032999 -0.000629 0.028070 0.008033 -0.023634 -0.022986 0.044627 -0.009643 0.002345 0.039667 -0.030769 -0.015406 0.005571 -0.008832 0.026243 -0.008268 -0.045185 -0.020857 -0.000992 -0.000035 -0.024824 -0.000343 -0.015589 -0.011260 0.004027 0.010020 0.002664 -0.007482 -0.004883 0.000763 0.003515 0.004323
2c9fadbd7861a4a7017863212aaf0709 -1.039448 -0.878404 3.269384 0.883634 -0.655810 -0.232498 0.877254 0.236346 -0.350841 0.414928 -0.625208 -0.112569 -0.011346 0.147056 -0.059514 -0.267250 -0.318615 0.052986 -0.048144 0.017378 -0.141668 -0.012482 -0.006553 -0.047115 -0.041607 -0.070993 0.028083 0.058719 -0.030073 0.025592 -0.027683 0.025168 -0.052767 -0.046391 -0.003522 0.067481 0.016185 -0.107451 -0.001223 -0.005197 0.037879 0.035093 -0.029344 -0.052819 -0.005968 -0.020619 0.021016 -0.006678 0.009198 -0.000062 -0.026354 0.004953 -0.009886 -0.002588 -0.061619 0.000922 0.018083 0.057443 -0.010088 -0.004526 0.019115 0.012247 0.001892 -0.040967 -0.002374 -0.019638 0.024846 0.036662 0.009421 0.030563 0.003095 0.014354 -0.018548 0.011241 -0.009160 -0.018770 -0.013237 0.012098 -0.010363 -0.029931 -0.000795 -0.003777 0.006754 -0.009167 -0.006415 -0.011591 0.003610 -0.004775 0.015953 0.016784 -0.012112 0.060006 -0.003290 0.001065 -0.018314 0.001419 -0.033556 0.010679 -0.028313 -0.023957
2c9fadbd7861a4a7017863217634070d -1.065847 -0.345138 2.856951 1.476529 -0.677670 1.097372 0.637497 -0.782105 0.047238 0.242044 -0.271980 -0.199121 0.126179 0.188275 0.148434 -0.240080 -0.312922 0.009132 -0.029300 0.016841 -0.011434 0.028149 -0.008194 0.043345 -0.100308 -0.050819 0.047132 0.048847 -0.097484 0.001289 -0.042549 -0.043351 0.017414 -0.012637 -0.001170 -0.014556 -0.034755 -0.036244 -0.000418 -0.017592 0.012678 0.017869 -0.030148 -0.017702 0.015008 -0.004498 -0.013734 0.020033 -0.020458 0.005573 -0.001590 -0.002506 -0.014714 0.006746 0.027203 0.001370 -0.056282 -0.010665 -0.011606 -0.005223 -0.006125 0.033859 0.016136 -0.010446 0.002101 -0.014009 -0.025251 0.004560 0.005515 0.007667 0.003429 -0.013389 -0.018010 -0.005389 -0.013274 -0.016032 0.010912 -0.009994 -0.029279 0.001327 -0.017428 0.019841 0.011924 0.012054 0.002149 0.042077 0.000622 0.000908 -0.014399 -0.028234 -0.008874 0.014571 0.007268 0.034941 0.004891 -0.026017 0.016943 -0.013793 -0.022758 0.013722
